-0.865,0.992,-0.824,0.465003,0.623821,0.368589,-0.0895827,-0.504469,-0.595365,0.698754,-0.754403,0.118,0.658155,0.412069,0.70631,0.0431652,0.403817,-0.803625,-0.512861,-0.617577,0.28849,0.637656,-0.675653,-0.428,0.661,-0.281,0.474,-0.259,-0.4,-0.669015,0.920737,0.38687,0.255637,-0.502366,0.171632,0.518457,-0.359804,-0.0452738,0.284974,0.396211,0.289468,0.823497,-0.0136263,0.721413,-0.73427,-0.730926,-0.330503,0.701949,0.946582,0.937882,0.817758,0.263141,-0.703473,0.691525,-0.191867,-0.063,-0.495,0.369312,0.503153,0.293641,0.295086,1.0048,0.453091,-0.693186,-0.278439,-0.656901,-0.711678,-0.860834,-0.22105,-0.314782,-0.162069,0.373651,0.772508,0.66471,0.592683,-0.826138,-0.209084,0.800277,-0.518395,0.520006,-0.374905,0.270364,-0.706773,0.480999,-0.683,-0.0392723,0.288798,0.781443,-0.363463,-0.211341,-0.403538,-0.427075,0.637831,0.859948,1.00894,0.641489,-0.279097,-0.557719,0.295885,-0.471481,0.404144,-0.279894,0.462913,0.40525,-0.530469,0.906533,-0.78861,-0.742244,-0.199297,-0.368531,0.684269,-0.970117,0.261,-0.400222,-0.810835,0.180574,-0.474416,0.918228,0.454479,0.951573,-0.392909,0.69578,-0.642574,-0.328632,0.745834,-0.21013,0.594114,-0.540988,0.481492,-0.391361,0.632513,1.10666,-0.169833,-0.477827,-0.298876,-0.315452,-0.559045,0.807334,-0.2533,0.163927,-0.822,-0.0754129,-0.0598783,-0.32534,-0.623011,0.0866137,0.853866,0.312173,0.989254,-0.791517,-1.09849,0.480308,0.380666,0.452351,0.0257307,-0.0778715,0.153598,-0.785468,-0.768554,0.385982,0.671142,-0.224346,0.118619,0.289151,0.158482,-0.000825593,0.108327,0.831,-0.011,0.00981536,-0.660206,0.832421,-0.676932,-0.406128,0.15924,0.240432,-0.0258841,0.0918027,-0.647073,-1.10739,-0.580175,-0.377954,0.853067,-0.26587,-0.321427,-0.302919,-0.0873924,-0.511321,0.722729,0.556277,-0.70112,0.278443,-0.234188,-0.70939,0.66513,0.102,0.005,0.942326,-0.440276,0.281482,0.330098,0.780678,0.177143,0.48247,0.934262,-0.967772,-0.33901,-0.584321,0.375397,-0.254264,1.0174,-0.832314,-0.588335,0.100301,-0.439005,-0.0531517,-0.0928468,-0.475402,-0.992206,0.735135,-0.14462,0.185033,0.891989,0.355,-0.099,-0.364266,0.403056,-0.23116,-0.554388,0.902768,0.810698,-0.571911,0.24807,-0.0803533,-0.43432,-0.236542,-0.548443,-0.963076,-0.0405581,0.0618745,0.275671,-0.782285,-0.154849,0.550524,-0.80669,0.624844,0.207462,-0.605788,-0.71228,0.80348,-0.894912,-0.844084,-0.808,0.133135,0.0519132,0.0264247,0.443997,-0.554362,0.376515,0.210185,-0.00159114,-0.606077,-0.795116,-1.03301,0.567792,-0.138687,0.0451044,-0.960549,0.453703,-1.0131,0.163855,-0.260548,-0.0481421,0.513559,-0.558422,0.403596,0.50396,-0.671988,-0.563205,-0.929008,-0.812,0.408354,0.826852,0.820469,0.959655,0.140805,0.8108,0.171722,0.776155,-0.0691598,-0.19921,-0.120211,-0.127102,0.459489,-0.455668,-0.814178,-0.612007,-0.4849,-0.806953,-0.450881,0.485217,0.771835,0.679676,-0.48291,-0.620137,0.474774,0.7265,0.722,-0.653,-0.807492,-0.175862,0.460118,0.215062,0.404634,0.1452,0.181358,0.753549,-1.23774,0.158029,-0.83704,0.148245,-0.0265222,-0.211956,-0.0635246,0.32123,-1.04602,-0.756073,-0.659237,0.0158448,0.109881,0.89939,0.168438,0.28954,-0.515144,-0.721746,0.384,-0.102,-0.0835215,-0.202852,1.13722,0.402752,1.42395,0.3268,0.315697,-1.03891,0.263685,-0.495689,-0.791885,-0.839874,0.763358,-0.276995,0.8246,-0.62253,-0.959764,-1.09472,0.239385,-0.160254,1.02885,-0.17474,0.00282209,-0.651416,-0.466047,-0.966028,0.957018,-0.581,0.31202,0.670405,0.241492,-0.16062,1.25392,0.520823,0.0940761,0.132987,-1.06804,-1.02623,0.403987,-0.421827,-0.323038,-0.512027,0.76735,-0.718918,-1.06508,-0.204031,-0.861235,-0.511866,-0.0832277,0.834359,0.144665,0.80019,-0.291482,-0.114845,-0.472,-0.120068,0.41253,0.770244,-0.185303,0.590707,0.127673,1.26118,0.180125,-0.564191,-0.594406,-0.272987,-0.951828,-0.629271,-0.0908711,0.513603,0.0120271,-0.800652,-1.31672,-0.519993,0.654235,0.740213,-0.418564,-0.548701,0.711522,-0.2404,0.809453,-0.929323,-0.296351,0.932575,-0.884468,1.08073,0.941504,0.523035,0.803939,1.03665,0.584289,-0.600791,-0.00372147,0.0951104,-0.602501,0.643547,0.567612,-0.438024,0.667986,0.0058544,-1.16853,0.141772,0.517807,-0.46532,0.253029,0.0476203,1.06905,-0.228358,-0.21615,-0.0424612,-0.349065,0.500848,0.679417,0.789443,0.458133,1.16563,-0.306879,0.902917,0.166243,-1.19186,-0.338051,0.162752,-0.674564,-0.412212,0.8539,-0.484541,-0.665768,0.154369,0.257083,0.0277481,-0.821072,0.084705,1.05577,-0.635728,-0.555825,0.425619,0.245782,0.183701,0.843,0.251695,0.395074,-0.288905,0.588044,0.409097,1.17225,0.515652,-0.0109312,-1.1577,-0.246877,0.107507,-0.27122,0.160269,0.778013,-0.683108,0.424419,-0.708364,-0.977237,-0.331359,-0.373932,-0.108688,0.0145972,0.212822,-0.0170995,-0.710664,-0.660058,-0.25765,0.959997,0.629975,-0.750929,0.331896,-0.171837,0.73419,1.10949,-0.0908483,-0.0921462,-0.0784476,-0.0269742,-0.387947,0.0846831,0.302051,1.08997,0.260547,-0.894262,-0.161008,-0.415169,-0.549461,0.556286,0.559022,-0.318646,0.98745,-0.236918,-0.0651714,0.792166,0.799422,0.916,0.959,0.82498,0.674953,0.93949,-0.460226,0.715078,-0.0482694,0.275301,-0.616965,-0.824708,-0.297209,0.105987,1.00416,-0.0769956,0.338121,-0.00909104,0.296408,-0.971778,-0.0516387,0.259418,0.402481,0.712366,-0.948529,0.00528366,0.634746,-0.747861,-0.771095,0.25,0.634,-0.28318,0.522017,0.935357,0.420534,0.42663,-0.0870593,-0.249105,0.827001,-0.715481,-0.0670249,0.650262,-0.744892,0.508791,0.065149,0.714932,-0.760846,-1.07764,0.323202,-0.136655,-0.883556,-0.0647144,0.410455,-0.192746,-0.698113,-0.742107,0.430192,0.873,-0.409,0.611991,-0.479334,0.850471,1.07701,-0.240248,-0.113024,0.268459,0.139811,-0.949988,-0.231801,-0.173916,-0.626107,0.0228757,0.453988,0.562032,-0.113339,0.181864,-0.749937,0.918827,0.0435142,-0.432555,-0.457574,0.526589,0.473907,-0.382553,-0.313487,-0.074,-0.855,0.0496023,0.974606,-0.0155028,0.67648,-0.381516,1.20211,0.120907,-0.308034,0.783119,0.11677,0.368671,-0.942221,0.598785,0.744861,-0.835425,-0.525945,-0.820304,-0.0121229,0.185631,0.556044,0.27484,-0.974003,-0.232246,-0.87107,0.786842,0.967858,-0.859,-0.365001,0.149716,-0.568335,-0.430118,0.252576,0.132017,1.0939,0.330332,-0.565719,-0.750854,-0.59233,0.638483,-0.74616,-0.918843,-0.253845,-0.53665,0.471431,0.226356,-0.0531474,-0.960265,0.70338,0.727316,1.04724,-0.777055,0.827498,0.419082,-0.739225,0.813,0.877999,-0.485445,0.227007,-0.766673,-0.471216,-0.0271494,0.611505,-0.852018,0.776161,-0.168457,-0.463477,-0.488351,-0.231611,0.961405,-0.10076,-0.736281,0.596619,-0.94973,0.176359,-0.240889,-0.192143,-0.941685,-0.333493,0.260564,-0.747236,-0.62562,-0.313548,-0.392,0.347999,0.799049,0.483298,0.0866557,-0.779878,-0.260854,-0.387919,0.21384,-0.539584,0.257214,0.655583,0.789521,0.756814,0.0559625,-0.253742,-0.320746,0.407329,0.156828,0.646968,0.50889,0.316797,0.469348,0.455161,-0.526675,-0.851503,0.886877,-0.905307,-0.527,-0.729,-0.515396,-0.875026,0.468506,0.058848,0.232447,-0.743656,-0.24148,-0.623144,-0.0561617,0.343886,0.197406,-0.243042,0.0332091,-0.191661,-0.878509,0.114389,-1.00421,-0.187752,-0.951014,0.727133,-0.311141,-0.636761,0.234383,0.795613,0.761111,0.917312,-0.29,-0.501,0.765,0.564,0.0557707,-0.679993,0.407755,-0.327266,-0.0380009,0.119,0.125,0.57,-0.676,0.55999,0.0328814,0.423881,-0.841118,-0.570029,-0.224,-0.398,-0.185,-0.505,0.86987,0.478,-0.07,-0.449,-0.716,0.206,-0.125
0.159,0.936,-0.714,0.331,-0.183911,-0.440381,-0.381998,0.097738,0.228724,-0.553041,-0.137774,-0.62359,0.995979,-0.6861,-0.70238,0.459153,0.908517,0.165307,-0.0913118,0.00405623,-0.34234,0.00542515,0.346002,-0.978,-0.418,-0.352,-0.389,-0.794,0.27,-0.352,-0.17919,-0.345224,0.786953,0.954988,-0.603197,-0.450863,-0.365288,-0.573235,-0.475866,0.959944,0.455578,0.489816,0.919407,0.495363,0.932823,-0.481977,0.579335,0.460861,-0.589133,0.38881,-0.904035,0.114411,-0.785956,-0.141817,0.698595,-0.363011,-0.723,-0.174309,0.000529115,0.122924,0.29089,1.00145,-0.883251,0.464486,0.51064,0.998887,-0.602912,-0.92077,0.148804,0.917065,0.357811,-0.00583454,-0.225581,0.274372,0.221697,0.221382,-1.0154,-0.754518,-0.236195,-0.0403762,0.142857,-0.800762,0.741572,-0.421216,-0.954,0.909693,-0.374573,0.469467,-0.679213,-0.698478,-0.0189142,-0.575574,-0.845688,0.532146,-0.397432,0.368241,-0.432379,0.180376,0.619295,-0.0218571,-0.173207,-0.427903,0.373099,-1.10933,0.456529,0.0807701,-0.993189,-0.0600584,-0.321326,0.491077,-0.502986,-0.191317,0.571,0.452964,0.501962,-0.996251,-0.62782,0.34541,0.0931007,-0.658372,-0.602,-0.682774,-0.595131,0.694639,-0.334612,0.101228,-0.0163071,0.233939,-0.154711,-0.174336,-1.1285,-0.201828,-0.103423,-0.591944,0.728311,-1.01094,0.644831,0.628886,0.0507502,-0.210429,-0.82,0.505407,0.376158,0.300855,0.110799,0.766695,-0.165845,0.299469,0.953737,0.0652186,0.711618,-0.273979,0.337328,-0.0721767,0.103312,-0.651735,0.968795,0.193589,-0.173816,0.23946,-0.0688686,0.0760068,0.317138,0.757947,-0.269959,-0.314328,0.25867,0.947942,-0.477,0.59537,0.525189,0.608251,-1.1859,-0.067978,-0.160903,-0.336697,-0.619768,0.997466,-0.766411,-0.33213,0.123617,-0.200691,-0.681336,-0.24403,-0.00498705,0.023703,-1.00167,0.81406,0.624776,-0.617813,-0.0206382,-0.058357,-0.366952,-0.313091,0.388223,-0.331,-0.432,-0.521668,-0.384666,0.518187,0.0228759,-0.409701,0.501882,0.610461,0.560754,-0.0758044,1.08351,-0.164911,-0.146651,-0.705673,0.937032,0.848734,0.200209,-0.0697515,-1.01832,0.411512,0.762817,0.545644,0.700344,-0.285897,0.240991,-0.13277,-0.734756,-0.34,0.459,0.0236332,0.151225,-0.757754,0.430604,-0.735804,0.307907,0.771378,-0.70161,0.721473,0.715866,-0.285487,-0.86209,0.352279,-0.676985,1.08653,-0.184122,-0.699512,-0.467257,0.139843,0.67858,0.328564,0.208259,-0.629727,-0.204899,-0.722834,0.559992,-0.259993,0.525,0.107264,0.273945,-1.14417,0.228751,-0.570632,-0.673291,0.459718,-0.446266,0.35421,0.894458,-0.366479,-0.371051,-0.971553,0.984895,-0.591175,-0.0389311,-0.1399,0.54828,0.35074,0.273666,0.606918,0.478197,0.934482,-0.658761,0.592581,-0.768038,0.399949,-0.209,-0.0179267,0.662808,0.830885,0.334498,-0.470553,0.0955204,-0.130408,0.845701,0.762161,0.387504,-0.353822,-0.913153,0.226614,-0.645837,0.652746,0.274871,-0.158324,-0.542909,-0.100775,-0.299252,0.552738,0.310847,-0.207614,0.600394,-0.634915,-0.678272,-0.817,0.435,-0.0306361,0.485458,-0.0870443,-0.663209,0.00983408,-0.507205,0.168091,-0.776499,-0.200866,0.421161,-0.635884,0.188005,-0.300584,0.040282,0.709443,-0.087895,0.714313,0.618693,0.0679072,0.136043,1.0866,-0.527108,0.104107,0.110475,0.666751,0.777378,-0.159,-0.149,0.90547,-0.744877,0.921458,-0.690543,0.765619,0.432729,-0.114925,0.217755,0.91643,0.322912,0.604812,-0.976299,-0.335949,0.413444,-0.129642,0.0440784,0.393689,-0.692513,0.964123,-0.431834,0.449116,-0.248776,0.586714,-0.939511,-0.188818,-0.119411,0.676994,-0.414,0.914193,-0.564649,0.815622,-0.753319,-0.126912,0.362443,-0.66021,-0.586475,0.886941,0.753869,0.0963619,0.220018,-0.961782,-0.924184,-0.739685,-0.221538,0.156792,0.729667,-0.830275,-0.066702,-0.0183921,1.05125,1.00097,-0.481149,0.743362,0.603794,-0.604,-0.868003,0.578135,-0.0519254,-0.559934,0.340656,-0.556992,-0.326921,0.326639,-0.469774,0.418101,0.289303,-0.504446,-0.791358,-0.104139,0.147958,0.20585,-0.600297,-0.0750283,-0.155904,0.885958,0.489698,1.06755,-0.183915,0.722788,0.828515,-0.122061,-0.672974,0.0939859,0.235989,-0.398356,0.536114,0.938255,0.346991,0.219971,-0.400459,0.62729,1.05306,0.745237,-0.50408,-0.473946,-0.385006,-0.46738,0.175827,0.736977,-1.12062,-0.9207,0.591555,-0.694695,0.489074,-0.0745641,-0.0786564,-0.140003,0.228108,-0.200439,-0.52908,-0.683003,0.846018,-0.637078,-0.615623,-0.244651,0.698955,0.0584876,-0.513629,-0.535249,-0.554974,-0.718188,0.827947,0.631071,0.828661,-0.20668,0.571214,0.00714959,0.295275,-0.213981,-1.34213,-0.575785,-0.393998,0.293333,0.476036,0.402949,-1.01164,0.541048,0.6702,-0.100025,0.375785,-0.569879,-0.18957,0.591592,-0.595928,0.846843,0.112958,0.689531,-0.54302,0.622029,-0.835316,0.259573,-0.648919,-0.344285,-0.125154,-0.590119,-0.671328,-1.2477,-0.101306,-0.105977,-0.344225,-0.397733,-0.94384,-0.260888,0.163082,0.117903,0.503576,-0.617056,0.0409814,0.211758,0.465271,0.89664,0.685044,0.778725,-0.6209,-0.411198,-0.089111,0.498154,-0.454234,-0.338167,-0.186628,0.40849,0.181437,0.446795,0.210223,-0.752612,-0.545847,-0.119859,0.365151,-0.894393,0.784243,-0.7213,-1.18312,0.725225,-0.658014,0.937,0.528,-0.934635,-0.761201,0.217396,-0.0706976,0.854333,-0.0463693,-0.285611,-0.305313,0.618489,-0.531919,1.00797,-0.855092,-0.0758731,-0.445582,-0.0412089,-0.514709,-0.757894,-0.962757,-1.4377,-0.624666,-0.662926,-0.773971,-1.05696,-0.962862,-0.884459,0.87578,0.556,0.745,-0.706162,0.597691,-0.743986,0.751192,-0.433141,0.540736,-0.176771,0.18037,-0.304881,0.284209,-0.586054,0.558522,0.838971,0.513526,0.269194,-0.936442,-0.522533,-0.066671,0.277109,-0.587827,-0.805546,-0.997741,0.111093,0.606847,-0.886322,-0.431221,-0.808,-0.109011,-0.685758,0.639825,-0.621713,-0.609485,-0.781035,-0.49253,-0.438605,0.488879,0.399037,0.143533,-0.820107,-0.366362,0.689923,-0.587028,0.370799,-0.442882,-0.604534,-1.2626,-1.32236,-1.07235,-0.638249,-0.0804146,-0.0268978,0.259885,0.993843,-0.879629,-0.62,0.778942,0.785191,0.236734,-0.0184213,0.271244,0.630582,0.0214308,0.0447498,0.0102572,0.458173,0.590723,1.00542,-0.631075,0.978739,-0.740163,0.141631,0.51922,-0.910461,-0.0822697,0.00363734,-0.561267,-0.463801,-0.392277,-0.524864,-0.200932,0.876781,-0.190722,-0.353,0.514661,0.921814,-0.7813,-0.399193,-0.241171,-0.449374,0.135046,0.146863,0.891363,-0.811887,0.07857,1.06539,1.1975,-0.411889,0.652124,0.681905,-1.08526,-1.3755,-0.290561,-0.72789,-0.972214,-0.880974,-0.36925,-0.0825949,0.426057,-0.37641,-0.115755,0.879,0.141619,-0.272717,0.128265,-0.323117,0.205734,-0.937017,-0.427156,0.250045,-0.891235,1.02103,0.0893006,-0.158097,-0.327551,1.10126,-0.856575,0.379754,-0.233242,0.355373,-1.01166,-0.322581,-0.64697,-0.816839,-1.08463,-0.227629,0.839041,-0.858721,0.4619,0.398,-0.164393,-0.445143,-0.937795,-0.649518,-0.356969,-0.781425,-0.654999,0.906572,0.792669,0.761398,0.652778,0.521113,-0.853141,-0.901927,-0.559001,0.427602,-0.330631,0.688846,-0.526346,0.565813,-0.584636,-0.630905,0.444796,-0.0721347,-0.0652596,0.396142,0.0055612,-0.731,0.900989,0.586534,-0.874734,0.424081,0.86795,-0.887557,0.753461,0.228151,-0.708502,0.882445,-0.170078,-0.0729069,-0.229026,0.0598278,-0.629643,-0.652302,0.100799,-0.639396,-0.503508,0.98727,-0.813001,-0.740708,0.0591215,0.503794,0.816348,-0.879519,-0.986995,0.261,0.079,-0.786,0.319,-0.4114,-0.836441,0.507288,-0.468817,-0.552264,0.519599,-0.0424404,0.933995,0.499,0.264993,-0.910084,-0.688084,-0.316089,-0.149022,-0.61,-0.363,0.593,0.597,0.192035,0.424002,-0.336,0.63,0.804,-0.619,-0.968
0.97,-0.024,-0.834,0.033,-0.0755038,-0.675346,0.916551,-0.0626853,-0.218875,-0.368131,-0.552641,-0.799201,-0.39535,-0.448107,0.331207,0.952252,0.82001,-0.427812,0.664643,-0.696065,0.501482,-0.385683,0.721051,0.642005,-0.697998,0.061,0.164,-0.161,0.039,0.0779896,0.0987782,0.383533,0.579682,-0.970887,-0.729553,-0.803182,0.457656,0.870539,-1.00207,0.766647,0.607726,0.864992,0.456322,0.338665,-0.165982,-0.892787,0.855888,0.540839,0.0703134,0.940936,-0.129201,0.458099,-0.325574,0.385083,-0.415317,-0.449002,0.334,-0.177519,-0.59599,-0.651181,-0.697194,-0.941952,0.946684,0.389525,-0.737339,-0.584026,0.450387,0.634141,-0.349938,0.112366,-0.369733,0.242371,-0.856522,0.926079,0.353418,-0.847308,-0.064973,0.843366,0.161082,0.547504,-0.241398,0.503588,-0.723402,0.702497,0.964,0.42346,0.241045,0.917061,-0.377559,0.825408,-0.0553529,0.0734174,0.62847,0.748584,0.155073,0.563904,-0.327991,-0.785521,0.309448,-0.863464,-0.909282,-0.591147,0.398299,-0.735227,0.664376,0.755009,-1.02167,0.564608,-0.479161,0.596724,0.659958,-0.242505,-0.83,-0.283941,0.915648,-0.363804,-0.280392,0.539361,-0.345296,0.973509,-0.415339,-0.560939,0.247109,-0.190995,-0.216111,0.834103,-0.656076,-0.317688,-0.776997,-0.347619,0.527322,-0.823357,-1.01331,-0.328092,-0.67634,0.0232112,-0.91747,0.241882,-0.967236,0.951915,0.086,-0.594519,0.62165,1.09473,-0.791327,0.510796,0.27231,-0.534438,-0.164467,0.818347,-0.590243,0.298415,-0.710532,-0.749666,0.0167985,-0.581348,-0.249104,0.729317,-0.994927,0.749251,-0.990364,0.190896,0.327522,-0.688362,-0.91203,-0.0386889,-0.839639,0.740806,0.686,0.570784,0.0185675,-0.316651,-0.0997882,0.651369,0.249158,0.865369,-0.742098,-0.20153,0.454923,0.560474,0.657288,-0.336098,-0.0822108,0.341833,-0.924095,-0.483434,0.169187,-0.647376,-0.65646,0.0427771,-0.855873,-0.0865361,0.0451275,0.71686,-0.538243,0.804,-0.18,0.572273,-0.19904,0.670003,-0.0583974,-0.320416,0.240976,0.775067,0.553934,-0.932905,-0.932357,-0.372784,0.174113,-0.58392,-0.743139,0.214366,0.0958006,-0.127266,0.000127635,-0.507243,0.0297519,-0.149097,-0.220548,0.48045,0.372695,0.482549,0.546475,-0.914,-0.528,0.428342,-0.623938,0.0261497,-0.375994,-0.0242417,-0.424818,0.485796,-0.608451,-0.156991,0.553396,0.258154,-0.040407,0.886793,0.50754,0.424562,-0.784382,-0.291423,-0.118047,-0.690519,0.279867,-0.194696,-0.180619,-0.791005,0.23776,-0.399568,0.0234583,0.235001,0.601,0.645502,-0.199692,0.408093,0.282405,-0.965629,0.5789,0.252461,-0.206215,-0.612227,-0.491851,0.415357,-0.435533,-0.797034,0.978901,-0.729427,-0.662623,0.338189,0.787875,-0.147266,-0.0954931,-0.585656,-0.679491,0.766432,0.742177,0.374582,-0.568052,0.351,0.414,0.735089,-0.245826,0.509186,0.436277,0.618375,-0.410746,0.841583,-0.589124,-0.312131,-0.87114,-0.122718,-0.316199,-0.647587,-0.122454,0.176518,0.277074,-1.01353,-0.888325,-0.70306,-0.925867,-0.00397481,0.613249,0.897441,-0.353051,0.257627,-0.502512,-0.689,0.814,-0.594923,0.83931,0.426944,-0.407025,-0.546223,-0.400167,-0.118266,-0.804415,0.452037,-1.16459,0.168193,-1.0406,0.552212,-0.688069,-0.841317,0.10842,-0.562518,-0.401597,0.179865,0.180407,-0.670934,0.431925,0.294145,-0.430629,-0.361244,0.393566,0.55,-0.677,0.571856,-0.876901,-1.07317,-1.03645,-0.881496,-0.734829,-0.685486,-0.240771,-0.912525,-0.194086,0.224627,-0.207726,0.634756,-0.145094,-1.08538,0.0954161,-0.356094,-1.56989,-1.25314,0.551318,0.0690346,0.81698,0.142861,0.882064,-0.643954,0.0944884,0.915,0.828,-0.594144,-0.0166328,-0.399317,-0.449674,0.559588,0.650064,-1.26075,-0.98019,-0.766309,-0.0506987,-0.903189,-1.2021,0.298387,-0.0274732,-0.0450431,-1.73353,-0.7929,-0.0448328,-0.214896,0.540816,-0.725997,-1.0315,-0.743235,-0.810837,-0.45371,-0.296238,0.918,0.854994,-0.0464381,-0.589221,0.458655,-0.907708,-0.7333,0.310937,0.480233,-0.569628,-0.327595,0.109491,0.175371,-0.645017,-0.0854954,-0.0197344,-1.42238,0.0806836,-0.75772,-0.227585,0.426402,0.817051,0.615593,0.28981,0.320631,-0.465152,0.266182,-0.0777408,-0.517033,-0.614037,-0.24036,-0.719551,0.725562,0.578615,-0.550888,0.13203,-0.681395,0.195389,-0.400405,0.418911,-1.13473,-0.831966,-1.21403,-1.10002,-0.093931,-0.695721,-0.61279,0.790345,-0.673302,0.669181,-0.27764,-0.138203,0.972229,-0.297457,-0.316226,0.787638,-0.713006,0.134994,0.611163,-0.0986412,-0.531162,-0.820587,-0.601136,-0.40771,-0.0742478,-0.758109,-0.650461,0.820169,-0.713115,0.60399,1.12864,0.179695,0.719583,-0.580783,1.02221,0.840165,0.449692,-0.44199,0.249601,0.928481,0.567055,0.974519,0.251751,-0.530633,-0.278267,0.691733,0.83141,-0.357287,-0.308789,-0.729988,-0.220532,-0.709804,0.834047,0.89848,0.118283,-0.726827,0.4025,0.433114,0.13603,-0.188006,0.301917,0.758617,0.229608,0.813073,1.12847,0.0345454,0.102926,0.0948563,-0.413707,0.790615,-0.634473,-0.633193,0.154798,0.400728,-0.943212,0.849468,0.308784,0.0862976,-0.113245,-0.0736558,0.342328,-0.668259,0.222316,0.325218,0.756094,1.24952,-0.241995,0.518472,0.676943,-0.0831376,0.105834,0.710117,0.229431,0.558758,-0.677845,0.951577,0.311088,0.838223,0.905249,-0.370177,0.988,-0.164,-0.160088,-0.0889542,-0.930848,0.728441,-0.0221856,-0.0974498,0.118713,-0.858397,-0.457281,0.748218,0.0746581,0.741746,0.827478,1.16323,-0.570854,0.431054,0.564839,0.310617,0.686985,0.542553,0.047666,-0.672417,0.590527,0.154704,0.377417,0.816756,0.388,0.279,0.0461836,0.0407416,0.204662,0.206145,-0.558075,0.233456,0.104575,-0.000308106,-0.282664,0.217291,0.574794,-0.306193,-0.0477391,-0.553011,0.09505,0.431695,-0.132965,0.0266266,0.354244,-0.239994,-0.189786,0.841389,-0.228217,0.751831,1.06966,0.853464,0.666,0.274962,-0.658225,0.185425,-0.411632,0.333747,0.351822,-0.00629289,-0.393936,0.0361479,-0.769264,-0.326681,0.750417,0.672669,0.377049,0.00864409,-0.281237,-0.517726,0.726478,0.392586,-0.637716,1.09439,0.128849,0.0624929,0.596364,0.533243,-0.305847,-0.494438,-0.079,-0.771194,0.378849,-0.50707,0.276314,-0.378886,-0.520403,0.753246,-0.492183,0.752054,-0.219663,0.547196,0.636178,0.840949,1.01746,0.102109,-0.239844,0.151908,0.54484,0.221254,-0.730658,-0.668152,0.26773,-0.562231,0.0376896,-0.380096,0.367743,-0.6052,0.366,0.731696,0.674623,-0.850578,-0.0808988,0.0280875,-0.117611,-0.441014,-0.220735,-0.516407,0.176939,1.0076,-0.60319,-0.338519,-0.189604,1.02896,0.162684,0.0569098,-0.226556,0.184615,0.839317,0.0795809,-0.31846,0.133243,0.0724928,0.654026,0.384324,-0.613023,-0.261,0.57646,-0.373285,0.27113,0.877803,0.2058,0.779494,-0.207851,0.0840118,0.0849201,-0.38146,0.637459,0.947657,0.279769,0.386461,-0.845659,-0.167049,-0.45366,-0.634119,0.384551,-0.84474,0.797901,0.333638,0.454894,-0.235874,-0.0629599,-0.884756,-0.0172386,-0.191,-0.927316,0.0682284,0.456798,0.182355,-0.446125,0.220275,0.347771,-1.02375,0.889827,-0.282188,0.817262,-0.467539,-0.0263011,-0.297377,0.0909813,0.463496,0.00100169,-0.723386,0.304358,-0.555835,-0.51463,0.231394,0.742751,0.692725,0.678256,-0.395683,-0.7251,-0.269,0.479998,0.872103,0.860733,-0.248115,0.365855,-0.295794,-0.196363,0.114168,0.150634,0.528074,-0.258224,0.224704,0.712555,-0.375953,0.83711,-0.369078,0.419225,0.710235,-0.12786,0.526831,0.229876,0.474916,-0.239652,0.645343,0.68849,-0.294012,0.294985,-0.117,0.26,-0.897,0.721,0.536,-0.00404423,-0.174073,0.877991,0.538016,-0.187109,-0.179088,0.142985,-0.786,0.531,0.784005,-0.577995,-0.662996,-0.813999,-0.803003,0.439,-0.892,0.317,-0.689825,0.296154,-0.068,0.046,-0.04,0.743,0.442
-0.154,-0.537,-0.121,0.214,-0.857053,0.433654,0.712848,-0.387589,0.253564,0.583871,-0.191065,-0.762986,-0.0278808,0.917163,0.355318,0.698294,-0.418061,-0.659072,-0.869619,0.0505225,-0.528607,-0.152126,0.722981,0.191,-0.767,-0.811,0.793,-0.342,-0.761,0.089999,0.872934,0.126919,-0.306779,0.65509,0.971663,0.238934,0.29093,0.879923,-0.64214,-0.35338,-0.638893,-0.664942,1.00891,-0.586878,0.208201,-0.943612,1.0157,0.191116,-0.503577,-0.437305,-0.982668,0.459681,0.9287,-0.337103,0.715287,-0.63998,0.292,-0.674958,-0.50482,0.703948,0.0382533,0.301998,0.00575539,0.930171,-0.299242,-0.595888,0.958419,-0.557704,-0.377157,0.404241,0.840835,-0.567333,0.365928,-0.0433756,0.357776,-0.166047,0.769259,0.0336362,1.03746,-0.964868,-0.953578,0.789936,0.523805,-0.687053,-0.043,0.0820741,-0.00275096,0.49371,0.00477927,-0.640294,0.592738,0.319125,-0.617331,0.46086,-0.600834,0.413092,-0.353583,-0.228203,-0.599055,-0.104981,0.431305,0.533295,1.10235,0.160234,-0.516504,0.513848,-0.411116,-1.00742,-0.357733,-0.558391,0.555864,0.798842,-0.259,-0.437853,-0.322763,-0.656977,-0.641818,0.618395,0.410957,-0.319371,-0.424571,-0.766035,-0.657264,0.167572,0.731767,0.683258,0.8692,0.0681785,0.684853,-0.401082,0.670308,-1.02755,-0.269562,-0.89428,0.168514,-0.265314,0.37319,0.845915,0.0989416,0.464587,0.299,0.875092,0.443639,0.374813,-0.582409,-0.896178,-0.526199,0.461248,0.282253,0.629936,-0.562747,-0.941418,0.470872,-0.244639,-0.292835,-0.765769,0.692451,-0.420619,-0.345051,-0.0446272,-0.310158,0.565415,0.714012,-0.655892,0.165845,-0.334921,-0.611563,-0.828002,0.359,-0.863182,-0.502355,-0.877371,-0.803268,-0.153699,-0.618721,-0.770283,-0.195911,-0.802509,0.473491,-0.832554,-0.185344,0.240579,-1.08857,0.185575,-0.388167,0.401558,-0.418907,-0.544387,0.879302,-0.443874,-0.417004,0.436424,0.454614,-0.733768,0.704588,-0.191,0.916,0.0403141,0.0789419,-0.307076,-0.947867,-0.318616,-0.598229,-0.698652,-0.0661684,-0.792911,-1.02951,-1.03454,-0.640922,0.25055,0.306281,-0.844229,0.468123,0.87698,-0.572367,-0.487618,-0.353969,-0.691738,1.08658,0.352661,-0.409803,-0.336027,0.878923,-0.299,0.315,-0.297538,0.0677816,0.017627,0.104292,0.22826,-0.250149,-1.09532,-0.530437,0.578641,0.366207,0.532721,0.681737,-0.791087,-0.60953,-0.442473,-0.325714,0.580177,0.0132756,0.97661,0.737577,-0.228454,-0.0188879,-0.0623423,0.228675,0.773379,-0.858413,-0.529878,0.264,0.385941,-0.375457,-1.06441,-0.161437,-0.601316,0.466053,0.0373521,-0.144767,-0.749598,-0.963317,-0.0027382,-0.874879,-0.432941,0.0142448,-0.737251,-0.408811,0.866842,0.777912,-0.989923,0.817224,0.776588,0.685939,-0.364419,-0.568771,0.74877,0.298137,-0.883653,0.569,-0.515751,-0.480546,-0.762114,-0.380177,-0.99102,0.110614,0.560563,-0.739706,0.151589,-0.346753,-0.968224,-0.26336,-0.906386,0.0638838,0.409348,-0.903953,-0.0427091,-0.309928,0.16543,0.273287,-0.709308,-0.00073737,0.512588,-0.776741,0.330204,0.967108,-0.059,0.798,-0.661073,-0.106243,-0.943868,-0.225071,-1.10812,-0.384535,0.565841,-0.458385,0.358427,-1.01117,-0.436675,0.685904,-0.626622,0.319355,0.214426,0.399104,-0.486024,0.733948,0.225407,-0.740802,-0.753259,-0.639032,0.718611,0.0441945,0.258239,-0.380161,0.821,-0.28,0.934282,0.65675,0.487781,-0.383198,-0.174366,0.078395,0.194356,-0.414933,-0.230325,0.415323,-1.05622,0.656969,-0.292036,-0.368894,-0.494225,0.754667,0.804319,0.820868,0.872668,0.351599,-0.211491,0.339331,0.617407,0.242402,1.02761,0.291916,-0.0769981,0.652,-0.152264,0.71836,0.72516,0.761472,-0.523223,-0.0131691,-0.0389069,0.85023,0.0490914,0.576078,0.892683,0.476153,-0.604648,-0.798085,0.358108,-0.621201,-0.030769,0.950573,0.0279487,1.17449,-0.0755098,0.904154,0.31845,-0.40482,-0.2536,0.671658,0.392,0.397825,-0.514339,-0.0513573,1.10371,0.185331,1.11408,0.918939,0.0611825,0.606999,0.0495384,0.215037,0.665367,-0.754781,0.585751,-0.598895,-0.802791,0.433997,0.385029,0.344172,0.244724,-0.460768,-0.174974,-0.0879467,-0.499744,-0.131397,0.0543403,0.732041,-0.590898,-0.699958,0.449981,-0.108168,0.254635,0.788033,0.393395,0.227043,-0.18972,0.73194,-0.264182,-0.330797,0.896333,0.827256,-0.839261,-0.947236,1.00646,0.860908,-0.361065,0.514776,-0.190907,-0.417461,0.344906,-0.334884,0.544554,-0.249721,-0.108476,0.220132,0.462834,-0.551591,0.255876,0.729379,0.673115,-0.23005,0.322406,-0.814534,-0.600645,-0.645263,0.632713,-0.566383,0.818469,0.0444468,-0.484513,-0.98355,-0.203098,0.115244,1.19333,0.691021,-0.672617,-0.0876915,0.208349,0.911897,1.18974,-0.285288,0.0504274,0.809265,-0.960003,-0.474655,-0.357186,0.522981,0.547741,0.527254,-0.95455,0.931436,0.200497,-0.168848,0.383253,-0.0890654,0.394708,-0.212975,0.283777,0.641957,-0.765596,0.0584603,1.125,-0.556223,-0.374207,1.0081,-0.0854005,0.981462,0.619999,-0.428925,0.264026,0.431533,0.42,-0.821192,0.744937,-0.356013,0.865518,-0.96828,-0.373197,-0.412278,-0.58581,-0.0470423,-0.615775,-0.748373,0.662034,0.199411,-0.311417,0.377825,-0.00403218,0.888998,0.699323,0.517565,-0.415655,-0.156341,0.238438,0.89722,0.318058,0.821218,0.615509,1.00505,0.309,0.455,-0.777282,-0.36774,-0.146136,-0.24713,0.868068,0.646206,0.885834,0.446816,-0.824505,1.01609,-0.103602,-0.152127,0.214313,-0.535048,-0.445245,0.807768,1.00163,0.57806,0.157172,0.783731,-0.881272,0.359338,0.343434,-0.893513,0.0873311,-0.279283,-0.377,0.611,0.19391,0.562441,0.0193069,0.571522,0.259008,-0.762476,-0.85915,0.637403,-0.444642,1.00922,0.317814,0.155432,0.613995,-0.496045,1.11117,-0.209262,0.152501,0.457922,0.511759,0.519605,0.327092,0.857195,0.431132,-0.338766,0.690775,0.436045,-0.235,-0.973,-0.37514,-0.832991,-1.00222,0.492803,-0.627876,0.607536,0.789618,-0.874988,0.253751,-0.481967,1.04413,-0.570055,0.437066,0.070799,-0.377181,-0.650135,0.937199,0.916613,0.739293,0.885239,0.735112,-0.39587,-0.626164,-0.735958,-0.315,0.115467,-0.08,-0.0220024,-0.465197,-0.31549,0.0195261,0.399553,-0.32784,-0.0419467,0.220016,-0.0108841,0.354613,-0.421372,0.591411,-0.633555,0.925836,-0.68925,-0.963951,-0.933926,-0.800172,0.562249,0.266889,-0.658863,0.218989,0.6863,0.58437,0.829332,-0.649785,0.138416,0.001,-0.016616,-0.380573,-0.364613,0.558853,0.805152,-0.584286,0.140202,-0.576003,0.00165835,-0.173795,0.918012,0.0327534,0.947685,1.0677,0.118318,-0.888675,-0.607509,0.606359,-0.579028,0.124822,-0.189704,0.854717,-0.069908,0.636298,0.397339,-0.303908,-0.983626,0.372,-0.11276,-0.929334,0.577516,0.380752,-0.763443,-0.293978,0.00586431,0.124625,-0.0341072,-0.062433,-0.0402644,0.548412,-0.443013,-0.655611,-0.444711,-0.793222,0.0545523,-0.541101,-0.543447,-0.277003,-0.590108,-0.541771,0.805119,-0.610702,-0.544596,0.996357,-0.269307,0.741,-0.301518,-0.159283,0.432141,0.780496,0.734287,0.561144,0.592714,-0.905031,-0.655884,0.183973,0.442345,0.662801,0.459768,-0.163227,0.19669,0.171677,-0.446921,0.192105,-0.23192,-0.644908,0.595464,-0.208455,0.956742,-0.777025,-0.0512714,-0.598073,0.602414,0.578,-0.60498,-0.190007,0.787298,-0.735899,-0.463262,-0.61655,0.981947,0.27839,-0.921562,-0.230386,-0.853556,-0.583516,0.556422,0.123647,-0.442945,0.731975,-0.420503,-0.390511,0.582846,-0.824766,-0.568538,-0.0598703,-0.164117,-0.168217,0.430648,0.494501,0.128052,0.536,-0.859,-0.672,0.697,-0.336705,0.777348,0.308983,-0.889213,-0.393018,0.145931,-0.0530606,0.278149,-0.306,-0.482994,0.761807,0.736823,-0.415926,0.0250179,-0.415,0.23,0.874,-0.777,0.558502,0.0385738,0.237,0.456,0.746,-0.046,0.067
-0.804,0.682,-0.131,0.458,-0.113007,-0.704596,-0.794128,0.341591,-0.900478,-0.487336,-0.310723,0.881046,0.90912,-0.314918,0.123715,0.982267,-0.304082,-0.315402,-0.0171503,0.421779,-0.111303,0.00227806,-0.826237,-0.997,0.656,0.824,-0.613,-0.602,-0.19,-0.673003,-0.262268,-0.890179,0.600839,0.145326,0.824961,-0.425824,-0.264184,0.829651,0.887771,-0.307434,0.777217,0.00911392,-0.89027,-0.408936,-0.142827,0.305115,0.950643,-0.0377732,0.800988,-0.335643,-0.819694,-0.41495,-0.983401,0.287125,-0.527996,-0.837992,0.06,-0.608629,-0.463454,0.914842,0.620846,0.469581,-0.987134,-0.688636,-0.736206,0.0764119,0.140074,0.0326657,-0.815334,-0.717972,-0.430607,-0.612227,0.645852,-0.629235,0.496757,-0.352424,-0.881732,-0.891694,-0.0768872,-0.500843,0.0921054,0.39697,-0.0528836,-0.341289,-0.305,0.0269642,0.70999,-0.289081,-0.796608,-0.999902,-1.03698,0.531297,0.388573,6.48816e-05,0.831146,-0.754569,0.895841,-0.622309,0.873654,-0.255438,0.409987,-0.697906,0.438101,0.519602,0.705516,0.642131,-0.799289,-0.546072,0.41674,-0.799995,0.0794947,0.291584,-0.55,0.321189,-0.464625,-0.736342,0.642838,-0.644121,-0.658085,0.0386302,0.490914,-0.439507,0.26297,-0.137941,-0.709924,0.225196,0.882489,0.596518,0.0190792,-0.711886,-0.854266,-0.483488,-0.2915,-0.634689,-0.915771,0.339273,-0.365955,0.619078,0.280007,-0.268797,0.144,-0.978944,-0.904285,-0.273498,-0.442989,-0.446609,-1.01342,-0.928801,0.0586529,0.457996,-0.966356,0.531893,-0.022039,-1.02806,-0.274719,-0.561856,0.832873,-0.635459,0.283276,-0.625393,0.785728,-0.0369361,0.504164,0.9848,-0.365245,0.249018,-0.0245426,0.211053,0.768,0.249361,-0.278181,0.567919,-0.52004,-0.978242,0.350764,-0.871433,-0.270573,-0.616748,-0.506207,-0.0627637,-0.155921,0.401878,-0.319513,-0.608896,0.461216,-0.637294,0.714478,0.668062,-0.418488,0.607046,0.157968,-0.71091,0.603898,-0.290818,-0.778349,-0.301,0.212,0.184717,-0.701329,-0.61368,-0.599291,-0.587826,0.121003,-0.303763,-0.0199859,0.402916,0.572842,-0.503299,-1.14616,0.354896,-0.999389,0.660435,-1.03097,-0.718728,0.34601,0.559704,-0.0913788,0.484296,0.062437,-0.228437,1.11376,0.158338,-0.00991291,0.696,0.775,-0.501451,-0.165509,0.564585,0.164482,0.441883,-0.933341,-0.953401,-0.763316,0.636656,-0.992711,-0.641413,-0.221584,-0.375136,-1.23867,-0.667793,0.766742,-0.0645347,-0.273717,-0.335767,0.303302,-0.076143,-0.0710918,-0.58299,-0.240255,-0.721692,-0.10287,0.354998,-0.858,-0.401237,0.179634,0.770312,0.578029,0.535254,0.45866,-0.189073,-0.126502,0.182549,-0.789875,-0.646458,0.367185,-0.788932,-1.10994,0.0994813,-0.0538395,0.0222075,-0.269985,0.716153,0.253432,0.371906,-0.17006,-0.479524,0.85604,-0.28691,0.132074,-0.115994,-0.092,0.264855,1.02324,-0.841891,0.786856,0.108876,0.0805629,-0.506926,-0.797236,0.234862,-0.305118,-0.806637,-0.695573,0.206875,0.932548,0.691304,-0.5961,0.141853,-0.146818,-1.09253,0.0303532,0.27665,0.35106,-0.0145276,0.394563,0.282927,0.995601,0.847,0.798,0.42771,0.65296,-0.488993,-0.0176426,0.669249,0.0136159,0.499916,-0.552141,-0.442961,-0.231181,0.605301,0.708094,-0.40896,0.479218,0.291938,0.121336,-0.0515921,-0.00269837,-0.00232081,0.523683,-0.137708,-0.320293,0.7566,-0.789283,0.700999,-0.845978,-0.95,0.173,-0.511896,1.09103,-0.522225,-0.0757524,0.202337,0.587412,0.959278,0.999445,0.892101,-0.18739,-0.0826355,0.835391,0.890047,1.01714,-0.343637,0.955393,0.861478,0.181606,-0.284432,-0.185686,0.696184,0.570536,-0.66716,0.392042,0.257404,-0.44777,-0.0730003,-0.247,0.76835,-0.553089,0.533366,0.905941,1.03002,-0.675079,0.246669,0.808249,0.610609,-0.113579,0.144264,1.12788,0.820459,0.772497,-0.229831,0.565895,-0.231456,0.28306,0.32023,-0.80608,-0.638328,-0.358297,-0.451859,-0.0538652,0.517855,-0.992524,0.923,-0.292,0.321918,-0.277984,0.456943,0.983668,0.828579,-0.181072,-0.161505,1.08215,0.976319,-0.535903,1.1192,0.117819,0.563849,0.863415,0.0683824,-0.837382,0.735779,0.713839,-0.712292,1.04666,-0.673152,0.68155,0.534792,0.480274,0.74748,0.419218,0.967,-0.938001,-0.132375,0.0187089,0.950849,-0.281169,-0.124189,-0.427796,0.865737,-0.008856,0.497472,-0.24485,0.808172,0.00414483,-0.0361852,0.00232464,-0.803657,-0.332896,-0.221724,-0.781361,-0.0283839,1.18313,0.925794,-0.865745,0.266183,0.749108,-0.708038,0.94592,0.396,-0.037004,0.299799,0.580563,0.384534,-0.553351,1.02649,-0.0569452,-0.12852,1.17966,-0.309245,0.894225,0.381097,-0.983047,-0.668165,0.282026,0.5999,0.334638,-0.08566,-0.112032,0.872404,-0.587405,-0.235337,0.668689,0.338228,-0.0518448,-0.408204,-0.779252,0.92402,0.883699,-0.514379,0.188827,0.385214,-0.793872,0.475899,0.4784,0.0382265,-0.0867042,-0.702516,0.034156,-0.8351,-0.138205,0.543719,0.141595,0.190934,-0.631001,-0.187533,-0.160388,-0.43657,0.453035,0.0838294,-0.119912,0.670846,-0.600077,-0.266217,-0.188984,0.543091,0.157013,-0.0791821,0.602382,-0.690437,0.458436,0.743234,0.236315,0.222233,0.699563,0.669886,-0.323296,-0.358652,0.145795,-1.07317,-0.812993,0.0525717,0.111738,-0.754827,0.851056,0.0663979,-0.231897,0.522007,-0.420018,0.678617,-0.554023,0.558486,0.640443,0.229,-0.867,-0.611649,-0.28888,0.00701529,-0.451023,-0.757377,0.127006,-0.426534,0.435067,-0.780229,-0.414009,-0.0860736,0.614901,-0.800896,-0.77714,0.00573099,0.851019,0.60242,0.100474,0.0911064,-0.126419,0.632392,0.270416,-0.495501,-0.565474,0.398957,0.856119,0.946,0.299,0.101347,0.103386,0.750158,0.0819424,0.588463,-1.02248,0.175485,0.716173,-0.73798,0.641038,-0.388022,0.093348,0.79385,-0.679931,-0.18342,-0.37431,0.311864,0.806081,-0.610273,-0.368282,-0.160702,0.399635,-0.944489,0.6677,-0.850511,0.955387,-0.484,-0.60299,-0.832774,0.39233,0.859303,-0.0706054,-0.498668,0.102882,0.725709,-0.572613,-0.582936,0.864898,-0.220381,-0.508704,0.224297,-0.0479783,0.628578,0.456129,0.811567,0.969006,1.02443,-0.59494,-0.324452,0.643969,0.496872,0.807425,0.663298,-0.0851753,-0.451,0.542053,-0.351645,-0.766067,0.939025,-0.497022,0.523318,-0.554341,0.519202,-0.867691,-0.947809,0.303073,0.646655,0.000284717,-0.0405444,-0.146846,0.0716936,-0.755516,-0.793963,0.043563,-0.292589,-0.879269,0.730138,-0.406699,-0.480798,0.806903,-0.0115498,-0.318075,0.565,-0.308966,-0.766509,0.77472,0.441145,0.303932,-0.868286,0.319297,-0.0442887,0.415976,-0.351061,-0.424938,-0.507675,-0.431564,0.630538,1.05807,-0.440732,-0.45153,0.599452,0.0522001,0.593367,-0.544771,0.62518,-0.168373,-0.460565,-0.908658,-0.96931,0.0201767,-0.101,0.172838,0.215806,0.854447,-0.321962,0.586627,0.481581,0.398886,0.650087,-0.101907,-0.139781,0.247545,0.804772,0.519616,0.218955,-0.0670896,-0.37073,0.811349,-0.483693,0.227513,0.829,0.10062,-0.973376,0.0744455,-0.91167,0.032604,-0.202877,0.861289,-0.293,-0.962924,0.94644,-0.971416,-0.230636,0.340485,-0.715416,0.0656394,-0.436189,-0.855706,-0.856065,-0.893499,0.693521,-0.634255,0.78821,0.816131,0.627988,0.692994,0.840685,0.784533,0.784611,-0.772259,-0.711205,-0.237135,-0.0843874,-0.860943,0.773425,0.0222314,0.45,-0.325992,0.482854,-0.819634,0.0519361,-0.345277,0.0101642,-0.231645,-0.777923,-0.277639,-0.0893502,0.957906,-0.875749,0.123649,0.554971,-0.169978,0.625747,-0.898636,-0.146095,-0.615861,-0.413761,0.324995,-0.954988,0.370866,0.162565,0.856326,0.532596,-0.0960631,-0.548,-0.788,-0.74,0.526,0.924811,-0.020812,0.0718836,-0.792028,-0.45299,0.755004,0.549246,-0.161966,0.123,-0.760997,-0.799911,0.157145,0.0120421,0.43501,0.0839962,0.083,-0.957,0.164,-0.906185,-0.892024,-0.746,0.606,0.185,-0.877,0.357
-0.956,0.806,0.933,-0.383,0.663926,0.0467377,0.656358,-0.0859122,0.495207,-0.610875,0.458021,0.613941,0.513876,-0.503984,0.714969,-0.0390851,0.300974,0.557445,0.3801,-0.559999,0.724441,-0.404642,0.154011,-0.567,-0.123,0.709,0.232,-0.189,-0.677,-0.474,0.264984,0.332132,0.87719,0.72415,-0.967614,-0.984592,0.306378,-0.467772,-0.484126,0.392309,0.833101,0.790059,0.207426,0.433666,0.0556415,0.757829,0.561077,0.11721,-0.699946,-0.690453,0.366036,0.587412,0.880554,-0.311137,-0.504323,-0.148994,0.138,-0.428026,-0.73871,0.124065,-0.0723582,-0.112513,0.84327,-0.825252,0.361503,0.334798,-0.339097,-0.0774451,-0.418353,-0.973025,0.238579,0.976115,0.204443,-0.663532,0.730684,-0.17955,0.0967917,0.744573,0.274775,0.303955,-0.552526,-0.285812,0.565005,-0.941875,0.265,0.908944,0.91508,0.408047,-0.366074,-0.684452,0.547255,-0.327329,-0.798321,0.502313,0.833815,-0.564704,0.338455,0.967941,0.989832,0.826969,-0.252605,-0.551272,0.565072,0.295057,0.364673,-0.840298,-0.489259,0.389452,-0.730138,-0.425939,-0.755545,0.769114,0.181,0.275766,-0.308743,-0.968881,-0.290775,0.810846,-0.344169,0.427262,-0.210025,0.779578,-0.210534,-0.343349,0.763537,-0.393464,-0.0275429,-0.342877,-0.604267,0.789623,0.731664,-0.16351,0.0461711,-0.0297029,-0.901457,-0.386938,0.827132,-0.227463,0.745923,-0.0968206,-0.597,-0.0520453,-0.236968,0.763867,-0.132405,0.791191,0.271582,0.439915,0.60346,0.748066,-0.16586,0.518774,0.437935,-0.732456,0.245514,-0.647429,0.88526,-0.477236,-0.725331,-0.436974,0.299943,0.190486,-0.104095,-1.02942,0.427117,-0.103922,-0.9644,0.967001,-0.078,-0.876051,-0.855886,-0.533188,-0.235835,-0.318995,-0.176257,0.571154,0.128889,-0.691303,0.28752,-1.10238,0.388029,-0.91535,-0.933988,0.88223,-0.736705,-0.850352,1.13111,0.507039,-0.825548,-0.193477,-0.271233,-1.06073,0.169945,0.0388455,-0.908372,-0.011,0.43,-0.661351,-0.889641,-0.140134,-0.349324,-0.522388,-0.857979,-0.61573,-0.561242,-0.658734,-0.437753,0.381647,-1.00472,0.404439,0.51949,-0.79205,-0.155968,-0.640389,-0.807016,-0.730149,0.609702,0.582666,-0.464304,-0.550785,-0.584891,0.906969,-0.890216,-0.934,0.329,0.916635,-0.456404,-0.272185,-0.555891,-0.0323885,0.349661,0.307511,-0.689752,0.745969,-1.0995,-0.742236,-0.803654,-0.935457,-0.957419,-0.33429,-0.344674,1.06617,0.282058,0.806331,0.538603,0.536648,-0.270175,0.613937,0.0499691,-0.562172,-0.115071,-0.501903,0.285,0.724468,-0.547716,-0.727626,0.563396,0.502228,-0.119419,-0.333028,0.214196,0.858107,0.67708,-0.000379766,0.328786,0.0374601,0.929944,0.562306,-0.141816,0.26799,0.813089,0.398022,0.520547,-0.621334,0.65198,-0.596741,-0.90455,-0.470328,0.125334,0.706549,0.497,0.87076,-0.768653,-0.121281,0.865251,0.453795,0.658734,0.50165,-0.15516,0.5564,-0.0381442,0.78247,-0.970781,0.761303,0.74998,0.770872,0.859754,-0.264441,0.248318,1.1214,0.16727,0.949743,0.613221,0.11361,-0.495156,-0.350585,-0.914104,0.131,0.534,-0.114424,0.860755,0.975549,0.0604975,-0.700329,-0.610487,-0.204609,-0.68221,-0.0555066,0.704761,-0.334662,0.403445,0.61726,-0.588562,-0.659608,0.866302,0.355712,-0.44687,-0.164475,-0.605429,-0.776443,0.0734782,-0.731836,-0.685761,0.632704,0.0174725,-0.584,0.461,-0.329227,0.573131,0.15065,1.00186,0.528253,-0.702754,0.254291,0.817113,0.129699,-0.653851,0.0553194,0.648695,0.835553,0.723755,0.568606,0.863803,-0.0752214,0.988738,-0.714505,-0.120343,0.659509,-0.595608,1.05893,0.730022,0.675584,0.968139,0.511,0.662,-0.382971,-0.425796,0.0949964,0.91582,0.768105,0.953283,-0.376372,-0.747513,0.898776,-0.972482,0.998003,-0.111535,-0.683934,0.443428,0.391936,-0.706498,0.698316,0.125071,0.266231,0.111477,-0.764669,0.0482458,-0.0219453,0.549283,0.808132,0.811977,-0.671,0.310004,-0.0503845,0.131672,-0.232105,0.000582848,1.02151,-0.189795,-0.505374,-0.107043,0.860057,-0.893115,-0.116863,-0.01243,0.425992,-0.10995,-0.2178,0.152446,0.688272,0.531366,0.413322,-0.361054,-0.0181846,-0.513414,0.446979,0.26723,-0.146945,-0.122018,-0.459978,0.137649,0.438011,-0.458371,0.642987,-0.391069,0.347707,1.14437,1.13444,-0.452309,-0.644683,0.702381,-0.625033,0.965228,0.65875,-0.623658,0.941535,-0.841787,0.652421,-0.657489,-0.468873,0.544706,-0.0703989,-0.469383,0.557798,0.512423,0.0825195,-0.47275,-0.772996,-0.678701,-0.210943,0.917333,1.17356,0.74946,-0.889773,0.176892,-0.402831,-0.804638,0.0877584,-0.753903,0.285368,0.145167,0.759736,1.00017,-0.650749,0.0270426,-0.312252,-0.194563,-0.383325,-0.5937,-0.62068,-0.31714,-0.657156,-0.321049,-0.832643,-0.809835,-0.200026,0.240836,-0.13734,-0.102713,-0.530965,0.857726,0.77593,-0.955107,-0.262907,0.706032,0.0846507,-0.613658,0.156647,0.987026,0.682391,1.23977,0.56404,0.600565,-0.6856,-0.889542,0.364572,-0.557777,0.835169,0.556433,-0.795809,0.711037,-0.551882,-0.464711,0.7368,0.786066,-0.727424,0.282537,-0.647207,-0.65976,-0.733448,-0.267179,-0.0946705,-0.445593,0.00202031,0.42772,-0.153392,0.392446,0.132617,1.15891,1.11266,0.0150773,-0.24517,-0.85367,0.128476,0.390327,0.347274,0.250724,0.761071,0.559752,0.355194,-0.338229,0.804,-0.459,-0.581456,-0.417123,-0.884416,-0.549507,0.177126,0.0197301,-0.180819,-0.337866,-0.635714,0.220304,0.448311,0.944658,1.16917,0.902085,0.104063,0.311028,0.359009,0.134939,0.0132283,0.919147,-0.510959,-0.942657,-0.204843,0.40246,0.267274,0.519451,0.765,0.108,0.267414,-0.35945,-0.284146,0.832325,-0.174647,0.941292,-0.523482,0.143674,0.280117,-0.46145,-0.0868306,-0.359809,-0.728765,0.208839,-0.396884,0.351933,0.117044,-0.401037,-0.247453,0.83406,-0.166008,0.413236,-0.397607,-0.848456,-0.473664,0.698132,0.25,-0.504,-0.224347,1.05583,0.430053,0.747419,-0.768102,-0.292196,0.794414,-0.511109,-0.692858,-0.306142,0.0862698,-0.946731,0.690404,-0.0707851,0.780098,0.831275,-0.418703,0.46678,0.644947,0.320876,-0.11602,-0.247479,-0.499692,0.11268,0.976759,-1.00159,0.702,-0.657999,0.632858,-0.0889894,-0.728448,0.0366097,-0.37561,0.326598,-0.778577,-0.462608,0.580792,-0.379881,0.0689339,0.122896,-0.428515,0.501329,-0.389661,0.30244,0.546926,-0.468313,0.392791,0.00635049,0.806013,0.769613,-0.0272189,-0.906966,0.049574,0.408773,0.506,-0.904321,-0.617075,0.484424,0.813971,0.976792,0.881318,-0.510478,-0.116531,0.12758,-1.00721,-0.328591,0.301319,0.0829494,-1.04633,-0.145981,-0.135161,0.0143521,0.534796,0.328333,0.681944,0.0744877,0.0540585,-0.916327,-0.197308,-0.0832898,-0.561604,0.448509,0.11,0.536208,0.605034,-0.312641,1.00512,0.767418,-1.02297,0.837527,0.787271,0.497486,0.466475,0.330384,0.613133,-0.247377,0.691527,-0.105578,-0.912786,0.871933,0.63482,-0.722098,-0.887529,0.433539,0.559494,0.664031,-0.454246,-0.938824,0.611985,-0.656691,-0.86,-0.262293,-0.640187,-0.496691,-0.123658,-0.121509,0.88052,0.972566,-0.135789,-0.658632,-0.146985,0.763568,0.0763307,0.687478,-0.850403,0.620845,-0.521602,-0.131649,-0.28195,-0.793469,-0.0365815,-0.225882,0.599374,0.546372,0.92803,0.888859,0.0652844,0.582962,0.193,0.953006,-0.179726,-0.0722125,-0.604716,-0.739318,0.359334,0.773967,0.555376,-0.0103174,-0.530113,0.861347,-0.20601,0.51539,0.630095,0.379676,-0.117625,0.598438,0.106741,-0.894395,0.19595,0.0388754,-0.992143,-0.132829,0.89872,0.162971,0.474,-0.574991,-0.237,-0.122,-0.281,0.135,0.613437,0.579182,-0.242697,-0.929042,-0.817244,0.902079,0.782007,-0.901002,0.804,-0.319999,-0.415039,-0.939037,0.164007,0.576002,0.473005,0.394,0.832,0.291,-0.822018,-0.55,0.208,-0.685,0.986,0.965,-0.134
0.347,-0.623,0.912,0.447002,-0.565638,0.739172,-0.918025,0.673401,0.780366,-0.119083,0.549211,-0.0270146,0.414885,-0.994642,-0.172205,-0.236527,-0.986702,-0.242316,0.478283,-0.96401,0.948017,-0.458354,0.107001,-0.539001,0.354,0.039,-0.3,-0.309,0.467,0.219995,0.325814,0.823744,0.759068,-0.538131,0.182594,0.706824,0.768844,0.448219,0.0325504,-0.322651,-0.771287,-0.0226094,-0.110153,-0.10453,-0.801574,-0.535244,0.728836,-0.381291,-0.207058,0.210681,0.91267,-0.906469,-0.0826082,0.144692,0.354862,-0.61,0.678,0.275943,-0.597416,-0.385246,0.0560358,0.0855452,0.82329,0.0858876,0.824949,-0.0686803,-0.399677,-0.831597,-0.929078,0.280392,0.759021,-0.451957,0.0363131,-0.273661,0.633739,0.174039,-0.339539,-0.718093,0.373273,-0.819763,0.831464,0.276413,-0.674066,-0.353982,-0.807,-0.136876,0.0685772,-0.0879209,-0.270215,0.241594,0.825908,-0.715293,0.970247,-0.467543,-0.596343,-0.443344,-0.579205,-0.84027,-0.217956,0.712255,-0.435157,0.371003,0.796718,0.809756,-0.467863,0.536483,-0.0672002,-1.01574,0.363627,0.0148163,0.03102,0.88719,0.237,0.859662,0.91852,0.197471,0.0722239,0.152722,-0.430832,0.43823,0.295681,-0.359665,-0.0146175,0.0972866,-0.390622,-0.420161,0.147661,-0.542314,0.199893,-0.142963,-0.0989944,0.111225,-0.662865,-0.727205,-0.377208,0.773796,-0.219649,0.387941,0.335648,-0.954889,-0.733,-0.671987,0.0437721,-0.65019,0.709802,-0.0449537,0.00534357,0.978474,0.32258,0.861125,1.02869,-0.910301,0.405726,-0.504544,-0.514256,-0.665688,0.91354,-0.303738,0.53575,-0.191638,-0.307046,-0.838885,-0.59661,-0.831748,0.884883,0.660238,0.0329291,0.783824,-0.597,0.185892,-0.368144,0.0189824,0.611155,0.912557,0.140141,0.423391,0.227107,0.830679,-0.623722,-0.604948,0.247949,0.1116,0.720797,-0.871152,0.175761,0.0643322,-0.00313818,-0.337383,0.540491,0.0172669,0.886609,-0.0814906,-0.163945,0.575395,-0.302659,0.569,0.221,-0.496759,0.79907,-0.13836,0.466328,0.0783914,0.672659,-0.582077,0.782246,0.257322,-0.111584,-0.359104,-0.829973,-1.15541,0.0226271,-0.0185055,-0.41861,0.768659,-0.718124,0.581008,-0.625695,0.215772,-0.325243,0.121912,-0.512213,-0.842732,-0.7154,-0.958,0.344,0.0982979,0.143682,0.265128,0.749238,-0.406238,-0.0486782,0.98308,1.07139,1.00154,0.736584,0.573815,-0.927739,-0.336014,-0.19749,0.180414,0.130481,0.0214605,0.0504984,-1.06094,0.383914,-0.0274729,0.864422,0.405856,-0.0314039,0.967202,-0.877913,0.21285,-0.901,0.51477,-0.531003,-0.902444,0.373615,-0.515507,-0.510801,-0.395274,-0.397822,1.12651,0.227296,-0.91046,-0.331232,-0.0589411,-1.30356,-0.535469,-0.0617773,-0.107904,0.199301,-0.184103,0.0959232,0.613375,0.999117,-0.31997,-0.799849,0.894381,0.726246,0.744207,0.623,-0.37586,-0.547633,-0.625893,0.453694,0.904502,0.329174,-0.499296,0.90747,-0.178976,0.439089,0.548418,-0.0866656,0.338729,-0.41247,0.875466,-0.832621,0.0488554,0.129374,-0.416611,0.541312,-0.635953,0.165441,0.188751,-0.890587,-0.785491,0.266625,0.276,0.179,0.480934,-0.849134,0.127318,-0.910805,-0.339474,-0.299819,-0.316653,0.669824,0.2236,0.823538,-0.594188,0.626479,-0.783919,-0.0254886,0.246568,0.403861,-0.734129,-0.531803,0.841205,0.3112,-0.407254,0.155949,-0.651612,0.130162,-0.229789,0.317999,0.409,0.598,0.72778,-0.990001,0.618047,0.364304,0.547165,-0.697038,-0.500948,0.873763,-0.319964,-0.601034,0.533042,-0.704578,0.149801,0.900865,0.0748102,0.216827,-0.259323,-0.0978308,-0.686058,-1.04806,0.60093,-0.890645,-0.486944,-1.03693,0.626816,-0.778018,0.0670036,0.173,0.263325,-0.336898,-1.22711,0.271731,-0.734475,-0.607138,0.60109,-0.799964,0.595926,1.15309,-0.543386,0.421111,0.350923,-0.319915,-0.604075,0.379134,0.714726,0.253942,-0.432959,-0.586707,-1.26249,-0.716095,-0.362281,0.0582941,-0.338244,0.877152,-0.766,0.408,-0.437793,-0.294654,-1.19299,-0.170868,-0.369524,0.112457,-0.566802,0.769097,-0.0974707,-0.702755,-0.756212,-0.265344,-0.276019,-0.573921,-0.61161,0.426061,-0.316256,-0.75931,0.283701,0.369286,-0.967839,-0.865272,0.193986,-0.766477,-0.840896,0.691318,-0.678001,-0.346489,-0.346718,-0.0941361,-0.759775,0.574054,-0.0669141,0.139514,-0.146332,1.15019,0.411976,0.286922,0.385168,0.0724781,0.364341,-0.141169,-0.609265,-0.774584,0.911092,-0.214116,-0.393818,0.390183,0.700795,-0.52239,-0.484113,-1.10232,-1.09034,0.224554,0.0299998,-0.429472,0.919293,-1.09309,-0.71714,-0.0466053,-0.270393,-0.849447,-0.772536,0.24013,0.264425,0.303416,0.729786,-0.808412,0.371322,-0.486338,-0.296308,0.563989,0.901409,0.285968,-0.165789,0.545135,0.71868,-0.663833,1.0168,0.819194,0.216156,0.807281,-0.733997,0.778218,0.600898,-0.03148,-0.545781,-1.09318,-0.35028,-0.407052,1.26831,-0.602082,0.954879,-0.976387,0.148928,-0.819073,-0.326411,-0.0456237,-0.509909,-0.211353,0.474065,0.691504,-0.928876,0.74491,-0.00297864,-0.298523,-0.539985,-0.752674,-0.840233,0.251978,0.325014,-0.335301,0.638508,-0.745292,-0.972215,0.775073,0.929783,1.04107,-0.248588,-0.248394,-0.130874,0.577522,-0.67409,-0.347573,-0.435098,-0.260794,0.283479,0.151058,0.287263,0.965913,-0.213202,0.844662,-0.0580579,-0.506395,0.74644,0.853372,-0.264816,-0.448733,-0.448,0.205,0.336867,-0.22455,0.540701,0.576898,0.736428,0.0321869,-0.173078,-0.586118,-0.00903003,-1.11313,0.198089,0.143832,-0.561268,0.379939,-0.0879638,0.80375,0.910375,-0.0894721,-0.645141,0.385834,0.247554,-0.350739,0.191011,-0.0751363,0.361366,0.869831,0.888,0.953,0.340538,-0.388162,0.848075,-0.293004,-0.375008,0.728533,0.436428,-0.873296,0.474799,-0.978429,-0.610463,-0.92014,-1.22373,0.503846,-0.674261,1.11852,-0.265741,0.145877,0.206339,0.311799,-0.1623,0.209668,0.334734,-0.541848,0.54328,0.147273,0.557,0.379966,0.116247,-0.0213579,0.580023,1.06441,0.551301,-0.635561,-0.535727,0.623441,0.825755,-1.05205,-0.139704,-0.271086,-0.996692,-0.38577,0.111503,0.717255,-0.0322736,-0.0310376,-0.170528,0.172859,0.819544,0.64809,0.779394,-0.448143,0.502304,-0.96982,0.798,0.851824,-0.0999595,-0.544863,-0.731968,-0.529591,0.132735,-0.65503,0.488335,0.0479996,-0.746831,0.0824806,-1.01298,-0.732768,-0.785298,-0.278553,-0.323315,-0.851528,-0.070107,0.204617,-0.701927,-0.0166452,0.121159,0.559746,0.753672,0.0908414,-0.204661,0.239238,0.892,-0.675989,-0.167687,-0.181892,0.788814,-0.968596,0.00174747,-0.099262,-0.686031,0.227722,-0.396605,0.393996,-0.960172,0.715478,-0.578701,-1.01481,-0.508089,0.713928,0.0920658,-0.0594044,0.14035,0.57794,0.530048,-0.0895647,-0.550728,-0.338572,0.426614,0.83444,-0.761,-0.479981,0.290952,0.576014,0.551653,-0.612508,0.105402,0.64453,-0.803966,-0.208773,-0.799577,-0.421496,0.205926,0.0968936,-1.18662,0.347353,0.586051,-1.03318,-0.876213,0.499309,-0.218355,0.104298,0.901655,0.890837,0.751197,-0.2215,0.812377,0.977721,0.125,0.954011,-0.0111248,-0.681866,-0.596337,0.861188,-0.191356,0.0735734,0.811314,-0.25464,0.81588,-1.09712,-1.11617,-0.270082,0.555498,-0.29268,0.843574,-0.820524,0.216856,-0.173652,0.875472,0.657134,0.829049,0.741484,0.946586,0.934034,0.0518355,0.648491,-0.814,-0.71,-0.642051,-0.925728,0.397804,-0.105993,-0.866837,0.820943,0.0434742,-0.28107,0.372604,-0.519231,0.399525,0.109877,-0.0451581,-0.226821,0.416731,-0.771425,0.0456397,0.514305,0.656125,0.102949,-0.8851,-0.887048,0.0948285,0.008337,0.779476,0.747924,0.033,0.724,0.214,-0.078,0.380882,0.463876,-0.578056,-0.885157,0.913913,0.669994,0.415956,0.913,-0.806,0.909923,-0.341946,0.635054,-0.125944,0.33477,0.105004,0.897,-0.315,-0.919,-0.404123,-0.771,-0.04,-0.959,-0.193,-0.4,0.259
-0.873,-0.846,-0.058,-0.441,-0.426092,-0.814404,-0.108187,-0.685713,0.302253,0.537318,-0.100543,0.10193,-0.0680003,0.994936,-0.393283,0.377225,-0.793223,-0.429485,-0.0428538,0.894646,0.803786,-0.0993869,-0.402974,-0.781,-0.026,-0.237,-0.863,-0.584,-0.372,-0.909994,-0.812434,-0.0152693,-0.271152,0.380099,0.281868,0.856587,-0.378648,0.212677,0.530763,-0.347866,-0.115383,0.398461,0.524806,0.279754,0.469731,0.309894,-0.509287,0.362673,-0.00264492,-0.584135,-0.625013,0.450642,-0.465052,-0.14318,0.651898,0.945,-0.114,-0.565865,-0.5044,-0.504655,0.654941,0.853969,5.21759e-05,0.382299,-0.648599,-0.0689492,-1.06867,-0.727713,0.930949,1.01358,0.292278,0.853601,-0.160656,0.498196,0.358483,-0.247415,0.416597,0.252683,0.205681,0.852887,0.502673,0.144789,0.763858,-0.883994,0.135,-0.987895,0.213903,-0.806923,-0.13611,-0.853138,-1.11038,0.598871,-0.750366,0.479921,-0.995172,-0.273206,0.953548,0.732709,0.893483,-0.0952967,0.866841,0.0498782,-0.81776,0.0691706,-0.283762,-0.460967,0.0312978,-0.0939098,0.64402,0.960872,0.00948419,0.601919,0.621,-0.17672,0.946561,0.0952994,-0.436243,0.619037,-0.74594,-1.23548,-0.644753,-0.400229,0.381463,0.955861,0.506782,-0.904186,0.835628,-0.39574,-1.05833,-0.663135,0.314571,0.284466,-1.13815,-1.12624,-0.473288,0.0671592,-0.30549,0.19602,-0.985923,-0.767053,-0.574,0.742287,-0.612885,0.488091,-0.900885,0.134905,-0.00802805,-0.651183,-0.601912,0.0554415,-0.255288,1.15768,0.222587,0.144602,-0.604083,0.937011,-0.940694,0.257367,0.27702,-0.287209,0.173642,-0.74329,0.142332,0.0163442,-0.246382,0.746862,0.491188,-0.72,-0.661,-0.642873,0.772127,0.149729,-0.606883,-0.52645,0.475159,0.829245,-0.974829,-0.330792,0.00569646,-0.0412019,-0.0934995,-0.173937,-0.01777,-0.377659,0.507956,-0.176164,-0.361066,-0.0925687,-0.723223,0.224255,-0.727556,-0.591513,0.608082,0.568426,0.0185547,-0.759,0.08,-0.0924923,0.528653,0.417327,-0.930811,-0.18118,-0.242623,0.675278,0.100924,-0.785243,-0.354163,0.903791,0.792096,-0.24593,-0.916889,0.0175548,-1.0341,-0.692424,0.468247,-0.517757,-0.869625,0.251729,-0.243904,-0.263118,0.559919,-1.0232,-0.0245663,0.209,-0.229,-0.0596604,-0.101298,0.0346135,0.375808,0.481062,-0.129852,-0.477299,0.766079,-0.608605,0.414773,0.996327,0.538564,0.455717,0.229267,-0.159888,-0.229262,-0.91261,-0.269293,-0.682461,0.845261,-0.763722,-0.92402,-0.279757,0.0463981,-0.116466,0.900588,0.941379,0.678,-0.014136,0.574633,0.635326,-0.373826,0.774531,0.739716,-0.228328,0.671141,-0.659632,0.34864,-0.234914,0.852032,0.353057,0.304694,-0.48512,0.607359,-0.983879,-0.471027,-1.13945,-0.891415,0.550336,0.197258,-0.65778,-0.564545,0.832151,-0.841577,0.272224,0.465,-0.399199,0.994894,0.582431,-0.468967,-0.28704,0.137916,0.161391,-0.165915,0.0787723,0.338511,-0.49062,1.3274,0.0228554,0.793248,0.522939,-0.85072,-0.179357,-0.834452,-0.0702402,-0.266987,0.421537,0.16447,0.0897942,-0.403457,-0.339988,0.833548,0.789,0.369,0.653599,0.741419,0.46313,0.77142,-0.0357442,-0.389733,-0.424682,-0.132297,0.433183,0.311695,-0.259598,-0.159053,0.919664,0.676866,0.115937,0.216605,0.415035,-1.34532,0.319453,-0.280955,-0.361714,-0.360108,-0.179175,0.533802,0.850154,-0.184353,0.784,0.381,-0.427672,-0.0972004,-0.340126,0.169678,0.0968358,-0.348209,1.01862,-1.0125,-0.831228,0.633191,0.173789,0.441958,-0.921582,0.660958,-0.364219,0.174015,-1.16487,0.0419879,-0.931562,-0.617865,-0.364617,0.12168,-0.835248,-0.211758,0.216903,-0.453518,-0.846,0.865,-0.330251,0.905148,-0.105374,-0.15503,0.990914,-0.625822,-0.449352,0.192632,-0.0621112,0.691954,-0.495896,0.302916,0.694406,0.472893,-0.320855,-0.471101,0.0956556,-0.12975,-0.125875,0.235615,0.424364,0.119951,0.218906,0.176166,-0.737419,-0.674075,0.839,-0.903979,0.250648,0.116421,-0.157841,-0.0335233,-0.0262797,-0.548189,0.267914,-0.361088,0.366789,0.65881,-0.316423,0.349182,-0.275905,-0.294104,0.888526,-0.0133446,-0.385604,0.593233,0.603782,0.668093,-0.545643,0.122527,-0.0468051,0.714299,0.507982,-0.40512,0.650107,0.742141,-0.509553,0.770775,0.145485,0.869797,0.344458,0.61861,-0.19839,-0.0582825,-0.851238,0.673202,0.661185,0.47222,0.31663,0.674028,0.392264,1.04092,0.673322,-0.621884,-0.269678,0.010162,0.105617,-0.263395,0.388511,0.855258,0.147425,-0.518582,-0.0289802,0.464088,-0.590577,0.260008,0.125163,-0.647803,0.192427,-0.957851,-0.249054,-0.250964,-0.73912,0.532966,0.242012,-0.283141,-0.393425,-0.372027,0.991051,0.779198,-0.0196992,0.77133,0.522194,0.501236,-0.323473,-0.54958,0.75462,-0.596657,0.837635,-0.66441,-0.61001,-0.689184,-0.643942,0.621108,1.15942,0.720846,0.458357,-0.644384,-0.404975,0.334313,0.204241,-0.436177,0.638165,0.719458,0.857429,1.23724,-0.173218,1.0806,0.208009,-0.613449,-0.00031581,0.413466,0.353915,0.860415,1.07217,0.547598,-0.531383,-0.522954,0.271962,-0.742957,0.822542,0.681299,-0.636899,-0.0924752,0.267123,-0.152319,0.227817,-0.898609,0.865407,-0.444095,0.890167,0.153281,-0.555477,0.305261,-0.159557,0.866753,0.352428,-0.687392,0.831912,-0.396226,-0.567174,-0.165539,0.292152,-0.587609,-0.210096,-0.159401,0.353,-0.47,0.914849,1.1637,1.18938,-0.0738995,-0.323532,-0.360515,0.994654,0.201305,0.186628,-0.3497,0.534991,1.07198,0.543985,1.32488,0.718706,1.05947,-0.562442,-0.190017,0.877004,0.0768458,0.358138,-0.897945,-0.66537,0.848554,0.255065,-0.340887,0.494,0.225,0.8619,0.326898,0.768794,0.1919,0.351806,0.838181,-0.596424,0.229993,-0.77536,0.456929,0.115016,0.49358,-0.0709391,0.758654,1.0753,0.614913,0.30795,-0.196755,-0.791883,-0.420776,0.968703,0.7133,0.636793,-0.761669,0.69833,-0.96717,-0.774,0.0189999,0.827046,0.0280076,0.855107,-0.137825,-0.402438,-0.623273,1.0389,0.294026,-0.64993,0.746312,-0.119592,-0.671232,0.959437,1.1932,-0.112494,0.266405,-0.152684,-0.412622,0.701831,-0.844361,-0.421149,0.399963,-0.792907,0.703317,0.274128,0.0757623,-0.362,0.952,-0.0514494,0.296713,0.38826,0.682848,0.0965858,0.162334,-0.395438,-0.78991,-0.116557,-0.649553,-0.829492,-0.7987,0.97637,-0.521501,1.03323,-0.64301,0.461353,0.0111061,-0.277515,0.302872,0.698122,-0.187506,0.686778,0.960676,-0.237685,-0.169635,0.786,0.979003,-0.865782,-0.652983,0.0453606,-0.68015,0.294849,0.0775003,0.894552,-0.423791,0.383458,0.877954,0.653854,0.484454,0.912144,-0.248275,0.316515,0.457508,0.358149,0.357527,0.915441,-0.984603,-0.546606,0.676178,0.152144,0.895172,-0.242941,0.0523999,0.867,-0.357994,0.829856,0.253929,-0.617811,-0.729697,0.769191,0.358192,0.955466,-0.568701,-0.657361,0.463364,0.375873,-0.0588169,-0.862722,-0.498051,0.36237,-0.424442,-0.76387,0.713014,-0.851828,0.6494,-0.935318,-0.246042,0.0320293,0.133648,-0.24241,-0.743397,-0.772,0.690004,-0.282354,0.121585,0.10029,0.471138,0.86639,0.266967,0.608296,0.0660436,-0.592314,-0.137964,-0.810083,0.0453751,0.0665103,-0.812594,0.308478,-0.422593,-0.513081,-0.671528,0.24869,0.864481,0.549367,-0.280839,0.233299,0.348493,-0.233392,0.0547307,0.776,0.932,0.423639,-0.505745,-0.169366,-0.38337,-0.534957,0.956746,0.117429,-0.13142,0.236409,0.306827,-0.114655,-0.125655,-0.969803,0.403086,0.44544,0.444275,-0.683762,-0.820435,0.524947,0.840142,0.902561,0.495576,0.500309,0.571862,-0.748372,-0.768008,-0.919,-0.499,0.106,0.938,-0.241388,0.215691,0.783642,0.0170094,-0.956543,-0.740331,-0.548155,-0.135058,-0.456,-0.76301,0.451061,-0.359891,0.754874,0.216969,0.59801,0.981,-0.446,0.222,-0.465078,-0.874984,0.608,0.368,-0.663,0.404,0.785
0.678,0.393,0.89,-0.29,-0.680951,-0.906628,-0.241216,0.922443,-0.4653,0.36009,-0.16213,0.020212,0.193105,0.0599562,-0.57196,0.0390635,0.688136,-0.802878,-0.360154,-0.897613,-0.135561,0.957791,0.510997,0.892002,-0.669999,0.629,-0.27,-0.415,0.415,-0.576995,0.508461,-0.0100282,-0.121434,0.00725989,-0.522972,0.360667,-0.925609,0.227302,0.299764,0.861428,-0.193886,-0.74405,0.758762,0.953259,-0.259058,-0.860055,-0.896827,0.399395,0.37302,-0.0583801,0.915093,0.251085,-0.620501,0.557344,-0.728148,-0.875,0.054,0.341469,-0.546896,0.295929,-0.257048,0.827617,0.355107,-0.37068,0.124838,-0.173441,0.207548,-0.910267,-0.335067,-0.0846787,0.56743,-0.835575,0.266586,0.403884,0.818465,-0.358553,-0.618534,0.846092,0.689378,-0.661676,0.588636,0.848799,0.935045,-0.961962,-0.3,0.111197,-0.91871,0.156239,0.483997,-0.306055,0.935022,0.621377,-0.739429,-0.247463,0.325218,-0.111512,-0.505107,0.410259,0.110236,-1.11615,-0.495908,-1.0679,0.238696,-0.957768,-0.496455,-0.61723,0.753328,0.680415,-0.212817,0.612877,-0.244349,0.517989,-0.352,0.0599436,-0.605631,0.112491,-0.959192,0.31613,0.175255,0.72401,0.529643,-0.474598,-0.104121,-0.412297,-0.370748,-1.26394,-0.259733,0.267514,0.299001,0.189828,-0.592689,-1.13355,0.221017,0.0419877,0.677917,-0.253789,-0.671304,0.670845,-0.74023,0.229976,-0.37,0.424394,-0.761381,0.512101,0.689305,0.225754,0.527633,-0.37826,0.321501,-0.29774,0.71622,-1.04769,0.710982,0.626035,0.684633,-0.322078,-0.212233,0.424606,0.401765,-0.211491,-0.436368,-0.760143,-0.765261,0.0106522,0.544693,0.572978,-0.60697,0.658995,-0.08,0.124848,-0.934598,-0.293566,0.286859,0.111166,0.257508,0.164514,0.29848,0.307495,0.319888,0.746997,-0.228042,0.320636,-0.243863,-0.0719176,-1.16764,-0.866429,-1.14963,0.163451,-0.263025,-0.949604,0.0943174,0.795651,-0.00400649,0.467406,0.123806,-0.931,0.404,-0.589809,0.307498,0.234536,0.278217,-0.0564432,-0.492076,0.148768,0.183839,0.0909682,0.977934,-0.465083,-0.151441,-0.060969,0.422573,1.02569,-0.0342249,-0.543157,0.283936,-0.450269,-0.338254,0.0178099,-0.205268,0.800959,-0.552644,0.457608,0.0467297,-0.259,0.273,0.425267,-0.184556,-0.52698,0.138009,0.425449,-0.686306,0.412813,-0.196477,0.476313,0.40598,-0.410004,0.140367,-0.488447,-0.445465,0.114674,-0.892623,-0.672291,0.255534,-0.467231,0.82482,0.464633,0.572828,-0.638505,1.11042,1.16525,0.739652,-0.915051,-0.702,-0.618619,-0.590043,0.0367361,0.14558,0.610168,0.629218,-0.0505342,-0.165124,-0.146514,-0.183866,0.171348,0.0146448,1.1711,-0.483959,-0.665491,-0.74345,0.0712014,-0.193862,0.455222,-0.825286,-0.330065,-0.272299,0.264067,0.305863,0.395633,0.832294,-0.23166,0.266,0.916557,0.870722,0.906854,0.39885,-0.468414,-1.12181,0.311211,-0.0593916,-0.401351,-0.100132,0.676533,-0.0845789,0.020645,0.0397648,-0.470694,0.400947,0.146758,-0.478526,-0.896105,-0.411563,0.15786,0.597047,1.17905,-0.332266,-0.25586,-0.552248,0.693,-0.245,-0.0643606,-0.328254,0.984612,0.123519,-0.325764,0.0109369,0.724607,-0.817734,0.0979387,-0.0230343,-0.720883,-0.934062,0.181849,-0.941191,-0.373692,0.400179,-0.378173,-0.187348,0.151572,-0.40719,0.790974,-0.417278,-0.29948,1.19298,0.176284,-0.623424,0.336,-0.051,0.423973,-0.500638,0.295555,-0.275784,0.12207,-0.0582425,0.383883,-0.728979,0.791842,-0.273341,-0.416598,-0.340508,-0.0686177,-0.21027,-0.0722058,0.617806,-1.16323,-0.170806,0.718443,0.729477,-0.0361547,-0.444689,0.918049,1.43846,0.953612,0.434957,-0.916003,0.998,0.453557,-0.184183,1.0763,0.458086,0.596353,0.663228,-0.376725,-0.405853,0.0454154,0.26483,0.177346,0.119143,-0.749329,0.99875,-0.752646,0.81498,0.248823,-0.70781,-0.525764,-0.489262,-0.0846728,0.900345,0.648936,1.31318,-0.32014,0.725149,0.296,-0.220003,0.83695,-0.17969,0.612396,-0.458834,0.254666,-0.663934,-0.967441,-0.492175,-0.81087,-0.306757,-0.490215,0.153514,0.252133,0.245907,0.230252,0.76774,-0.45538,-0.606664,0.977151,-0.333973,1.1303,0.681131,0.528162,1.14684,0.914172,-0.705294,-0.966015,0.205256,0.466385,1.16651,1.17071,0.133947,-0.260935,-0.778513,-0.975469,0.650581,0.947384,-0.748334,-0.575765,0.0604501,-0.448632,-0.535457,0.0216186,-0.825412,0.931907,-0.108221,0.818036,0.954123,-0.109916,-0.691963,-0.422844,0.264614,0.308609,0.977823,-0.800003,0.332,-0.184717,-0.377168,0.970791,1.31649,0.818051,-0.298104,0.369204,-0.238636,0.891147,0.302859,-0.164565,-0.404221,-0.327817,-0.771773,-0.564697,0.0255556,-0.720492,0.402517,0.563767,-0.0205815,0.811461,0.0729616,-0.289541,0.806857,0.748637,0.0353803,-0.325005,0.588285,0.450531,0.650548,1.03384,0.994917,-0.365122,0.673172,-0.381104,0.447618,0.317948,0.0354713,0.608947,0.809222,0.154366,-0.260866,0.860672,-0.615938,-0.135761,-0.209787,0.115103,-0.280183,0.300825,0.00851096,-0.50255,0.930302,0.346786,1.0093,-0.554,0.933056,-0.126107,0.28674,-0.045988,-0.217557,0.60256,0.471551,-0.977812,-0.479657,-0.169861,1.0416,-0.838382,0.827411,-0.711798,-0.736995,1.00074,1.12307,0.0595226,0.0727435,-0.596072,0.289349,0.205082,0.526234,0.583465,0.942684,-0.665574,0.391141,0.186,0.38,0.607295,1.11547,-0.453182,0.648498,-0.792725,-0.0630516,0.7207,0.376684,-0.641986,-0.747569,0.551822,-0.219044,-0.294348,0.568146,-0.0576734,1.06625,-0.000312206,0.534632,0.664498,-0.638548,-0.518639,-0.581937,-0.871617,-0.73726,0.640273,-0.653319,0.867,-0.816,-0.94626,0.254705,-0.157509,1.09029,-0.403794,-0.787751,0.441315,-0.522403,0.898083,0.903387,-0.396188,-0.500805,-0.554106,-0.554436,0.903387,0.158343,1.06116,-0.527649,-0.0401519,-0.2368,-0.669028,0.159684,-0.19966,-0.743836,0.442761,-0.743115,-0.479,0.773999,-0.931668,0.716558,-0.603746,0.963369,0.782067,-0.274212,-0.623824,0.359995,0.176407,0.709006,-0.246004,0.469366,0.478681,0.926914,0.71809,1.02541,0.663036,0.903217,-0.112842,0.279314,-0.246862,0.437079,-0.0116777,-0.0433127,-0.261298,0.368347,-0.483,0.722995,-0.363245,0.773284,-0.626615,0.923255,0.544486,-0.507587,-0.196413,-0.170251,0.743409,-0.691957,-0.693944,0.399134,-0.220785,-0.496282,-0.00072096,0.0275249,-0.181797,1.13216,-0.975327,0.0518595,-0.117461,-0.933679,-0.82291,0.610152,0.35804,0.440189,-0.089,-0.574977,-0.081291,0.201782,-0.529991,-0.194008,0.5215,-0.837846,-0.462311,0.461757,-0.620853,0.519307,0.274498,0.62695,0.850269,1.10319,0.940186,-0.35427,1.1737,0.0923721,-0.469564,-0.681559,-0.734902,0.668922,0.31461,-0.450719,-0.650185,0.501748,-0.378,-0.566959,-0.860317,-0.309143,-0.567411,-0.355714,-0.110017,0.0811095,0.419682,0.628869,0.662717,0.640774,1.01314,0.40288,-0.110126,0.869422,0.57416,0.847364,-0.166124,0.014584,0.642361,-0.417032,0.051604,-0.827091,-1.05111,-0.961458,-0.158551,0.237526,-0.52,0.618024,0.0834193,-0.193235,0.507446,-0.788527,0.631363,0.919101,0.996764,0.220907,-0.403797,0.957673,-0.413832,-0.487702,-0.78386,0.373769,-0.135527,0.571621,-0.240399,-0.531449,1.01329,0.537568,0.631107,0.00575777,-0.527862,0.577568,-0.808975,-0.0844729,-0.056,0.0870002,0.261946,-0.822489,0.984185,-0.366146,0.716936,0.334413,-0.141441,-0.492792,-0.633326,0.978708,-0.209915,-0.447192,0.88916,0.740245,-0.221714,-0.547685,-0.828161,0.660221,0.969076,-0.201806,0.508177,-0.903977,-0.770564,0.495526,0.64216,0.0189714,-0.381,0.663,-0.63,-0.447,0.147501,-0.0790347,0.609449,-0.908028,0.383567,-0.706652,0.329913,0.36707,-0.264,-0.458999,0.312003,0.180004,0.712009,-0.356998,0.731999,0.331,0.636,0.797,0.879177,-0.533006,-0.047,0.327,0.384,-0.798,-0.954
-0.065,-0.716,-0.604,-0.848,0.289053,-0.465474,0.950866,-0.777902,0.527367,0.805573,-0.300728,0.191895,-0.653892,0.50039,0.330025,0.141902,0.774531,0.290219,-0.367945,0.912083,-0.103978,0.499424,-0.410005,-0.228001,0.495999,-0.632,-0.473,-0.924,0.17,-0.249007,0.591766,-0.504703,-0.609347,0.4367,0.953843,-0.307956,0.365442,-0.935527,-0.856263,0.828302,-0.862374,0.605897,0.882882,-1.00774,-0.167073,-0.0891052,-0.246664,0.300103,-0.444058,-0.669223,0.831583,0.939218,-0.894875,-0.529868,-0.99212,-0.233983,-0.081,-0.933117,0.371293,0.977131,0.881115,0.556195,-0.335955,-0.221407,0.404785,-0.685262,-0.059459,-0.330509,-0.507201,-0.997679,-0.407083,-0.808224,0.784039,0.302827,0.44629,-0.469297,0.0678707,-0.596111,0.509909,0.260101,-0.322551,0.861744,0.086036,0.613441,0.408,-0.00508132,0.971845,0.415562,-0.145258,0.63478,0.467163,-0.31476,0.675111,-0.065339,-0.108928,0.289155,0.804168,0.294173,-0.480296,0.0928993,-0.814469,-1.19671,0.747575,-0.867248,-0.0456277,-0.0415798,0.741521,0.825157,0.421855,0.210754,0.738284,-0.242584,-0.574,0.493886,0.151017,-0.540517,-0.388452,0.286837,-0.826833,0.407377,0.677539,0.43978,-0.636482,-1.1312,-0.681304,0.232081,0.0737773,-0.212285,-0.645765,-0.384693,0.350273,0.730779,0.638861,0.00596416,-1.01531,0.439852,-0.267272,-0.10334,-0.519107,-0.686447,1,0.329566,-0.074199,0.439414,-0.256892,0.692719,-0.857859,-0.240859,-0.300132,-0.292436,-0.834865,-0.377522,-0.247845,-1.02962,-0.252597,-0.687251,0.204688,0.185766,0.88532,0.833533,-0.519668,0.502868,-0.435691,-0.11531,0.58946,-0.164016,0.764031,0.959918,-0.057,0.260271,-0.840096,-0.752423,0.477841,-0.57174,0.22208,-0.769947,-0.36257,0.738489,-0.791356,-0.282115,-0.373265,0.490047,0.427482,0.245409,0.752867,-0.784265,0.394136,-0.789483,-0.653693,-0.539692,-0.887153,0.501265,-0.708977,0.489046,0.0943849,0.734,0.992,0.415133,-0.98838,-0.972898,-0.55025,-0.443996,-0.157092,-0.429106,0.797458,-0.378041,-0.679605,0.74934,0.859936,0.333023,-0.0498505,-0.68678,1.14527,-0.323622,-0.319007,-0.471525,0.0606596,0.730312,-0.559154,-0.957176,0.338692,-0.214864,0.12454,-0.089,0.751,0.800036,0.502225,-0.562948,-0.84539,-0.592757,-0.289625,-0.354158,-0.061958,0.0525581,-0.625045,0.0845258,1.02614,0.900651,-0.568417,0.0205805,0.782835,0.588491,0.107855,-0.461252,-1.17931,0.0257315,-0.504948,0.431919,-0.537263,0.569935,0.376997,-0.162682,0.743,0.978657,-0.00270137,-0.214362,-0.0824773,-0.411003,-0.618034,-0.616323,-0.0945868,0.0431659,0.741827,0.795065,0.67532,-0.213832,-0.852114,0.647807,1.08433,0.640132,0.371583,-0.181774,-0.134879,-0.767388,0.886909,-0.266076,-0.284409,-0.16473,0.409705,0.471597,0.825,0.208443,-0.498133,0.10487,0.070867,-1.21021,0.587763,0.494124,0.0319177,-0.472964,-0.431755,0.164023,-0.497522,0.659957,0.199589,-0.737358,-0.825282,0.816745,-0.459075,-0.174914,-0.23598,-0.921176,-0.121533,-0.418328,0.0336078,-0.79325,-0.355407,-0.809,-0.833,0.680817,-0.840197,-0.291662,0.471011,-0.450808,-0.713335,-0.240698,0.871726,1.22538,1.22866,-0.0764672,-0.132421,0.572506,-0.584852,-0.607899,0.252943,-0.0893473,0.705224,0.139484,0.888172,0.676159,0.0464321,0.0325583,1.09593,-0.270723,-0.368347,-0.138,0.314,-0.851454,-0.622834,-1.08458,-0.239778,-0.338356,-0.874716,-0.494221,0.995459,-0.0518827,0.587638,-0.127245,-0.67463,-0.6144,0.14103,-0.527689,0.413938,-0.652273,-0.540449,0.465317,-0.601876,0.360709,-0.156585,-0.379167,0.985599,-0.775589,0.787416,-0.867994,0.397,-0.95729,-0.871561,0.179046,-0.996061,-0.579888,0.425188,0.861959,-0.602053,0.216298,0.451819,0.0651652,-0.545114,-0.805704,-0.678775,-0.874881,0.522826,-0.0214238,-0.63461,-0.822987,-0.141059,0.911329,-0.604199,-0.43046,0.826566,-0.487411,0.406344,-0.667,-0.867997,-0.134475,0.56043,0.749461,-0.371717,-0.515585,-0.463967,0.767774,0.542949,-0.212157,-0.0869086,1.09338,0.345217,0.792909,-0.649588,0.30734,-0.0757417,-0.592652,-0.577482,-0.291856,0.148836,-0.874362,-0.621532,0.283433,-0.207598,0.569708,0.672866,-0.780985,0.150384,0.518999,0.0868262,-0.664725,0.698429,1.10371,0.545056,-0.087392,-0.123061,1.17787,0.718194,0.44389,-0.415511,0.497721,-0.989898,-0.168829,-0.852792,0.664718,-0.0899224,-0.309084,-0.0470442,0.797314,0.804763,-0.31841,-0.549351,0.426276,0.472845,0.750003,-0.887649,0.243329,0.926528,-0.681818,0.867605,0.316226,-0.458345,0.664502,0.968123,-0.809053,-0.278605,-0.0546058,0.815972,-0.602672,-1.04248,-0.70713,-0.249957,0.412606,0.540402,-0.430399,-0.167485,-0.44229,-0.533975,0.527609,-0.96845,0.205546,-0.353648,0.974117,0.895561,0.10226,-0.279562,-0.779059,0.0566727,0.556805,0.00350663,-0.093016,-0.796186,-0.0742745,1.08837,0.437696,0.293553,-0.970156,0.603633,-0.170957,-0.515002,-0.4697,-0.733888,-0.0484775,-0.706784,0.44898,0.227073,-0.860113,-0.923451,-0.0772076,-0.234514,0.26354,0.411206,0.782543,-0.543657,-0.605187,-0.201916,0.441252,-0.684284,0.514277,0.173611,0.841138,0.534826,-0.334628,0.522124,-0.866605,-0.90045,-0.775627,0.0197409,-0.527627,0.509414,-0.0687519,0.336331,0.10419,-0.566581,-0.329653,-0.339725,-0.396779,-0.963441,-0.989,-0.529,0.271621,-0.217807,0.302804,0.0546388,0.214844,-0.871999,-0.844882,-0.495192,0.698571,0.283973,-0.384509,0.633492,0.163801,-0.0267414,-0.209087,0.983437,0.393544,-0.930797,-0.982388,0.903178,1.02111,-0.498708,-0.584379,-0.840886,-0.959485,0.0440451,-0.94,0.941,-0.551244,0.0447952,-0.265879,-0.00709919,-0.41981,1.00307,-0.206021,-0.0520756,0.18763,-0.020344,0.810209,0.153742,-0.234786,0.417696,-0.206452,-0.78531,-0.35416,-0.299799,-1.05433,-0.0488726,1.0455,-0.899952,0.739413,-0.759093,0.111373,-0.689988,0.367,0.476984,-0.47718,-0.23248,0.722661,-0.707258,-0.39379,0.767263,-0.58664,0.545073,0.576401,0.244331,-0.420597,0.659145,-0.489511,-0.95476,0.479008,0.526804,-0.717604,0.396936,0.823303,-0.97216,-0.182939,-0.659149,0.147845,-0.385145,-0.757152,0.266479,-0.534,0.269918,0.585941,0.564386,-0.0770642,0.558413,-0.725001,-0.144296,-0.188689,-0.28699,0.92812,-0.493804,-0.344708,0.538521,-0.635463,0.453024,-0.228283,-0.892654,0.305976,0.542289,0.473644,-0.54431,-0.532415,-1.0186,-0.924553,-1.02585,0.0089237,0.911401,0.463,-0.0729216,-0.637725,0.432731,0.62544,0.386795,0.0609393,-0.672217,0.205461,-0.262403,0.169828,0.41042,0.82119,0.777927,-0.881691,0.832117,-0.409244,-0.689699,-0.175989,0.79235,0.611628,-0.444723,0.929197,-0.31765,0.757069,0.686839,-0.259408,-0.868866,0.97,0.967697,0.0125609,-0.745413,-0.329422,0.405627,-0.57021,0.36016,-0.360453,-0.939261,0.683453,0.131268,-0.229239,-0.604721,0.13098,-0.637109,0.570823,0.798818,-0.414444,-0.497965,-0.119997,-0.427671,-0.453636,-0.392617,-0.363067,-0.807526,-0.633465,0.0351365,-0.247,0.0901636,-0.360392,-0.270745,-0.252187,-0.785192,-0.508551,-0.668051,-1.12264,0.21652,-0.380468,-0.801852,0.968536,-0.551651,0.381399,0.103265,-0.249034,-0.598912,0.290431,0.488502,0.469262,-0.00437338,0.218058,0.511369,-0.456439,0.564391,0.779155,0.498751,-0.09,0.774017,-0.192579,-0.324815,0.466377,0.234647,0.149152,0.111552,-0.435332,-0.415982,0.729359,0.334009,0.554631,-0.381629,0.798612,-0.906705,0.605838,-0.227952,-0.494114,0.590036,0.882545,0.549534,0.454477,-0.495527,0.771618,0.548088,-0.781698,0.143013,-0.56,-0.399,-0.117,-0.39,-0.314005,0.234232,0.24555,0.373975,0.729163,-0.77516,-0.0896426,-0.588919,-0.439,-0.579947,0.498634,-0.690365,0.632652,0.668159,-0.424998,0.099,-0.642,0.13,-0.210833,-0.698,0.635,-0.549,-0.849,0.172,0.807
0.03,-0.322,-0.402,0.183,-0.607013,0.489412,-0.797821,0.266501,0.898669,-0.926207,-0.095934,0.846915,0.930846,0.599565,0.314771,0.693468,0.596175,-0.685461,0.128486,-0.478125,-0.0263659,-0.304324,-0.0979445,-0.601008,-0.682004,-0.794,0.052,0.758,-0.965,0.0459736,0.549704,-0.667793,-0.805186,0.507949,0.864497,-0.9077,-0.585817,0.550761,-0.656243,-1.0061,0.240105,-0.81003,0.469897,0.23742,-0.119388,-0.114416,0.53439,0.248496,0.810192,-0.255354,-0.677233,-0.0222793,0.842639,0.00495848,-0.772868,0.046,-0.797,-0.659497,0.260258,0.150927,0.820756,-0.276393,0.865014,0.0602215,-1.11308,-0.403189,-0.203347,0.0283883,0.803471,-0.532928,-0.246609,0.616493,0.599637,0.638288,0.343767,-0.358725,0.826007,-0.429039,0.155837,-0.109101,-0.203774,-0.771833,0.257457,-0.455,-0.269,-0.35793,-0.621426,0.79344,-0.249554,-0.00599392,-0.885082,0.237993,0.282802,-0.344052,-0.361467,-0.917433,-0.367025,0.973823,0.651254,-0.539749,-0.892195,0.264801,0.434731,0.330031,0.13058,0.352809,0.730111,0.189042,0.561341,0.0621977,0.742686,0.791002,0.981,0.286859,-0.222958,-0.558912,-0.671558,-0.217502,0.809406,0.322481,0.233887,0.0797841,-0.537741,0.63242,0.930001,-0.480054,0.691977,-0.753383,0.824507,-0.469835,0.376245,0.0985391,-0.643809,-0.464541,-0.607094,0.49003,0.897527,0.703993,0.647781,0.920001,-0.773,-0.137709,0.287682,-0.505476,-0.682318,-0.172277,0.675769,0.0660668,0.0948393,0.432,1.12168,0.432186,-0.651714,0.271517,-0.077863,0.014068,-0.638768,0.909142,1.14108,-0.483315,0.602162,0.685502,-0.431179,0.553703,0.228777,-0.271741,-0.0334083,-0.23827,0.35,0.468994,0.0379078,-0.412603,-0.916261,-0.324534,0.912884,-0.608929,0.648907,-0.0456556,-0.458656,-0.315632,0.118667,0.857164,0.731456,-0.504467,0.8373,0.0462263,-0.0188894,-0.320109,0.909703,0.142746,0.127851,0.540574,-0.55504,-0.576204,-0.813024,0.612,-0.856,0.739439,-0.122677,-0.796273,0.945714,-0.555663,0.842135,-0.0380657,-0.589049,0.549603,0.454981,-0.297011,0.00973782,0.606043,0.68267,-0.95406,-0.29879,-0.0117797,0.594223,0.404683,0.576528,1.10512,-0.0934861,0.508166,0.942412,0.102215,-0.456368,0.771,-0.7,-0.898047,-0.585682,0.796532,-0.4607,0.555638,-0.545575,0.883257,0.339912,0.62072,0.407664,0.0187164,0.749244,-0.570727,0.747534,-0.998508,0.391836,0.133061,-0.634971,-0.0827,0.865245,0.264534,-0.703175,-0.346328,-0.207546,-0.473686,0.165628,0.420214,0.204,-0.53558,0.353191,0.462803,-0.461636,-0.741264,-0.242175,-0.750117,-0.211042,0.127592,-0.173878,0.865133,0.758262,-0.548173,-0.694817,0.802008,0.264602,-0.778459,0.425502,-0.803454,-0.913586,0.0316991,0.626138,-0.469402,0.667166,-0.835786,0.979248,-0.382316,-0.135,-0.898167,-0.0119585,0.700011,-0.964541,0.369369,-0.0621519,0.340451,0.6986,1.13951,-0.177574,-0.0501143,-0.11336,-0.488666,0.413964,-0.824243,-0.435439,-0.4586,-0.499241,-0.158789,0.316196,0.0756294,0.610666,-0.142507,0.139958,-0.218939,0.394059,0.261,0.589,-0.780013,-0.0156143,0.641757,-0.516526,-0.555914,-1.12875,0.507498,0.708759,0.0176644,0.658045,0.470578,-0.189887,-0.0942629,0.812343,-0.904426,-0.332058,-0.00531447,-0.0569887,-1.18906,-1.34659,0.142513,-0.743169,0.462815,-0.438778,-0.688821,-0.646106,-0.366,-0.878,0.664579,0.617828,0.507202,-0.525948,0.135577,0.145455,-0.529962,-0.464821,1.17368,0.453093,0.219436,0.48621,-0.199602,0.623275,0.498936,0.359038,-0.522369,0.814437,-0.671627,0.619008,-0.0682802,-1.0237,0.442399,-0.982505,0.571154,0.77962,0.204999,0.634,-0.239029,0.287286,-0.000644057,-0.513991,0.30749,-0.686136,0.287735,0.86046,1.07276,0.166798,0.424987,0.517125,0.310413,-0.316375,-0.97277,-0.544405,0.441128,-0.224913,-0.909725,-0.364598,0.138911,-0.207869,0.247896,0.33003,-0.437758,-0.034366,0.604,0.580973,-0.669753,-0.143322,0.279393,0.638871,-0.425716,-0.557003,-0.065164,0.596704,0.244845,1.1395,-0.557048,-0.260086,0.747208,0.25372,0.628844,0.851057,-0.0916271,0.730178,-1.08697,-0.396948,-0.878919,-0.194338,-0.62663,-0.248741,-0.601682,0.653418,0.483863,0.319306,-0.721792,-0.596543,-0.477015,0.0983288,-0.186845,0.704554,0.726285,0.286084,0.391233,0.690959,0.438021,-0.183716,0.612857,-0.555327,-0.426794,-0.0156351,-0.828706,-0.713058,0.560161,-0.112888,0.0900819,0.0150364,0.905692,-0.97047,0.476825,-0.206859,-0.927025,-0.743003,-0.977928,0.608427,-0.574542,0.0320687,-0.330355,0.718149,-0.04193,0.682384,0.539212,0.360554,0.48755,0.438237,-0.868018,0.647125,-0.273673,-1.07876,0.316556,-0.54431,-1.23255,-0.0639567,0.363837,-0.346071,-0.996718,0.541827,-0.156456,0.123753,0.531056,0.665276,0.906852,0.688565,-0.324074,-0.543791,0.430335,-0.749701,0.210243,0.523465,0.608187,0.902275,-0.397149,-0.623304,-0.0989588,0.699699,0.0447419,-0.583373,-0.900709,-0.757159,0.12795,0.549904,-0.324437,1.10319,0.594481,0.1977,0.756961,0.279498,-0.877722,-0.879056,0.604232,-0.0847492,-0.742136,-0.150496,0.364915,0.466794,0.676141,0.870498,-0.560477,1.18568,-0.342716,0.788287,-0.174132,0.225168,-0.199862,-0.58806,-0.314759,0.198094,-0.390187,-0.377655,-0.507986,-0.712053,-0.998011,0.035195,-0.882402,0.553543,-0.545,0.292,-0.173858,-0.123517,-0.774068,0.232619,-0.7014,0.886338,-0.32269,0.532645,0.236424,0.98547,1.35464,-0.592785,-0.845881,-1.14883,-0.505834,-0.841761,-0.729132,0.643568,-0.151542,-1.0001,0.559572,0.473543,-0.500005,0.189812,-0.742197,-0.767118,0.941,-0.773,0.741118,0.207003,-0.10338,0.156799,-0.222774,0.0175307,1.316,0.761057,1.08134,-0.262915,-0.433458,-0.194368,-0.185165,-0.752999,0.317026,-0.211858,-1.11389,0.634702,-0.282602,0.136143,0.807807,0.538597,0.731362,0.85053,0.167833,0.0191595,-0.308,0.0209474,0.325343,-0.571746,-0.650775,-0.198011,0.572326,0.47193,0.471099,-0.173852,-0.436317,-0.476795,0.162238,-0.448959,-1.15167,-0.773763,-1.25096,0.190807,-0.177259,0.18422,0.406358,-0.999925,-0.224399,-0.707303,-0.314883,0.320105,-0.944968,0.312596,0.094,-0.94727,-0.778023,0.832209,-0.567065,-0.567641,0.476162,1.03123,-0.00482363,0.0412097,0.869555,0.686778,0.921002,0.559425,0.483404,-0.209489,0.342354,-0.970596,0.0812198,0.753803,-0.329194,-0.703339,0.785758,0.176029,0.643261,0.912524,-0.414761,0.105097,0.488,0.318,0.430497,0.390778,-0.0391173,-0.102739,-0.662997,0.342946,0.220425,-0.942802,0.41991,-0.905498,0.0195905,0.400153,-0.10564,-0.0275594,0.551713,-0.406459,-0.0976233,-1.03165,-0.978915,0.474403,0.719933,0.110647,0.457903,-0.709603,-0.572546,0.488868,-0.378,-0.899,-0.732622,-0.339805,-0.0526704,-1.10497,-0.330352,-0.0129592,-0.520022,-0.249392,0.0849092,0.140458,-1.02668,-0.913842,-0.782504,-1.06312,-0.535899,-0.496525,-0.828084,0.242877,0.298604,0.870929,0.432385,0.892126,0.118114,0.88965,0.431158,0.79285,-0.988,0.302,-0.0554176,-0.352923,0.477471,-0.360471,0.231502,0.0910612,0.0607393,0.00882965,-0.343352,-0.78421,-0.122166,-0.963088,-0.327229,-0.831019,0.502985,-0.00562483,0.473811,-0.580239,-1.01366,0.048885,0.193755,-0.318492,0.87122,0.466086,0.276193,0.621778,0.342,0.012,-0.00946748,-0.517737,-0.351732,-0.589818,-0.548999,-0.765289,0.767937,-0.220306,-0.697386,-0.092107,0.32386,0.968554,-0.482319,-1.00277,0.948374,-0.161155,-0.548961,-0.936042,0.855917,-0.776332,0.188443,0.202271,-0.534561,0.0481058,-0.891543,-0.456933,-0.592,0.208,-0.364,-0.484,-0.841967,-0.941599,0.13562,-0.276161,0.634481,-0.54522,-0.0920873,0.287958,-0.864,0.415961,-0.25471,0.298303,-0.256486,0.590882,0.978017,0.231,-0.507,0.696,-0.815329,0.676088,-0.717,0.13,-0.96,-0.043,-0.653
0.923,0.392,-0.374,0.0570004,0.208015,-0.229191,-0.97803,-0.0803266,0.713517,-0.0574478,0.73349,-0.0791565,-0.357054,-0.2664,0.58822,0.777386,0.907766,0.0773104,-0.0594295,0.238229,-0.362148,0.193888,-0.441006,0.146014,-0.129993,0.551,0.05,-0.033,0.635,-0.552004,-0.527342,-0.154232,0.567734,0.729407,0.757648,-0.900495,-0.936083,0.661327,-0.0380047,-0.9493,0.76607,-0.161612,0.868284,-0.513448,-0.151925,0.270108,0.466774,-0.520022,0.565893,0.756207,0.292357,-0.530672,0.604431,0.536373,0.278828,0.932008,-0.101,-0.39444,-0.656861,-0.431515,0.973522,0.643009,0.105795,-0.583236,0.0131589,-0.349831,0.570245,-0.60079,0.998684,0.0194996,0.375725,0.446468,0.566293,0.0558137,0.147563,0.241799,0.213029,-0.712071,0.934065,-0.0751427,0.778691,-0.374934,-0.935941,0.221649,0.667,0.558605,-0.0562506,0.551456,0.0269924,0.344372,-0.555179,-0.654247,1.04306,-0.706191,0.784597,0.844859,0.505892,0.319645,-0.882077,0.361855,-0.469699,0.157925,-0.648983,-0.977639,-0.198969,-0.023345,-0.606734,0.0278948,-0.361743,0.661194,0.662493,0.0876304,0.863,-0.638807,0.776744,-0.253942,-0.577509,-0.346512,-0.0743375,-0.928984,0.767509,0.516436,-0.544354,1.2171,0.853248,1.02098,-0.730198,-0.514266,-0.405978,-0.312183,-1.03074,0.644254,-0.110683,1.09928,-0.301332,-0.624316,-0.662289,-0.839583,0.607552,-0.248739,-0.358,0.263075,0.602792,-0.146353,-0.832429,-0.296418,0.0915645,0.812018,0.645927,-0.144022,0.0344209,-0.38319,-0.420198,0.957258,-0.270877,-0.747858,-0.347065,0.380523,0.0756722,0.127075,-0.388514,-0.35266,0.358983,0.994446,0.549179,-0.303524,0.70962,0.854919,0.912,-0.583857,0.300049,0.045086,-0.0528313,-0.850292,-0.594659,0.778395,-0.0730974,-0.0521292,-0.246445,0.779837,1.18219,-0.166749,0.194752,-0.169919,-0.659052,-0.505808,-0.799197,0.948483,-0.387535,0.595655,-0.52953,0.15866,0.802348,-0.248311,-0.0520444,-0.017,-0.855,0.666596,0.6581,0.574831,0.684652,-0.903563,-0.969328,-0.236745,0.719577,-0.404895,1.22096,0.192486,0.310928,0.673791,-0.0406638,-0.836531,0.234977,-0.620833,0.557609,0.927129,1.03151,1.05722,0.473962,0.502612,0.766583,-0.7084,-0.194717,0.723,-0.882,-0.963889,0.0684961,0.318768,-0.434641,0.490699,-0.110002,0.896082,0.587481,-0.706978,-0.118522,1.02119,-0.804295,-0.602255,0.110528,0.838462,1.24785,0.692227,0.910017,-0.24045,0.470202,-0.0420953,-0.0790437,-0.0436307,-0.321799,0.565397,-0.538488,-0.135989,0.432,-0.952848,-0.355731,0.906113,-0.792822,-0.142764,0.35916,-0.756946,-0.621238,0.768589,0.930333,-0.245798,-0.573315,1.24433,1.15181,-0.435042,0.712902,0.618203,0.0407392,-0.0670934,0.844633,-0.442923,0.595962,0.321179,-0.363188,0.503826,0.462753,-0.969063,-0.585,0.1291,-0.163941,-0.623176,-0.115395,0.647107,-0.206772,-0.51844,-0.126802,0.701868,-0.0506428,-0.14298,-0.0451931,-0.098392,0.0134341,1.01435,-0.879211,-0.267134,0.211544,-0.479213,0.199421,-0.0395347,0.751483,0.74808,-0.0106346,-0.793658,0.635194,0.479,-0.125,-0.240295,0.559455,-0.473375,-0.574262,-0.275854,0.453047,-0.61163,0.84823,0.48118,0.00954973,0.694507,0.483052,0.146774,-0.264493,-1.03556,-0.471563,-0.596686,0.203214,-0.84673,-0.0394072,-0.532217,-0.183325,-0.240455,0.666996,-0.582311,-0.688943,0.473,0.804,0.894434,-0.113044,-1.09987,-0.331001,-0.361229,-1.23326,-0.823419,-0.579966,0.995282,0.37775,0.860014,0.619692,-0.696539,-0.0295048,0.149912,0.0700599,-0.882332,-0.414595,0.429861,0.708534,0.144054,0.621507,0.72113,-0.324376,0.879468,-0.624905,-0.327977,0.957,0.972697,0.243013,-0.232142,-0.154109,0.396177,-0.258405,-0.60548,0.755106,-0.917942,-0.0137557,-0.408878,0.130514,0.345301,0.030526,-0.249913,-1.08651,-1.03482,0.321899,-1.0312,0.512565,0.344991,0.0609674,-0.23344,0.881374,-0.864324,0.298644,-0.733,-0.925999,0.3487,0.674751,-0.19611,-0.189527,-0.279785,-0.643302,-0.338328,0.903409,-0.771253,0.346998,0.269167,0.76244,-0.0543883,-0.606837,0.10307,-0.59566,0.191519,-0.14564,-0.134432,0.434994,-0.338895,0.366563,-0.346299,0.265765,0.800933,0.0529835,0.445004,0.427699,0.456209,-0.755748,-0.847019,-0.263939,0.430043,0.291388,-0.910069,0.79679,0.0598591,0.229079,0.768719,-0.759738,-0.591418,-0.0751291,-0.569829,-0.344343,-1.1505,-1.04189,0.327548,0.363319,0.545846,-0.946892,0.438563,-1.08353,0.604625,0.274118,0.812001,-0.790121,-0.883221,-0.373311,-0.421898,-0.51337,0.364785,-0.693515,0.622048,-0.738082,-0.695028,0.322648,0.517613,0.651174,-0.469551,-0.448656,-0.983448,0.358245,-1.02216,-0.0406239,0.942017,-0.457167,0.0361658,-0.0376062,0.236909,-0.308607,-0.181482,-0.584757,0.362986,-0.175527,-0.754293,0.384517,-0.351989,0.500953,-0.871779,0.706698,-0.602084,0.388151,0.170491,-0.284355,0.0212603,0.119598,0.0327579,0.177947,-0.705728,0.509046,-0.569343,-0.559704,-0.00774221,0.237403,-0.671709,-0.0407993,0.0404344,-0.459061,-0.244284,0.356703,-0.421077,0.0709151,0.29352,0.290148,-0.699452,1.15196,0.057863,0.187102,-0.247254,0.397364,0.569599,-0.785882,-0.149267,-0.568817,0.353513,-0.255382,-1.25591,-1.07165,0.551197,0.209924,0.206751,0.686433,0.360965,0.496579,0.989208,-0.402709,0.741154,0.169808,0.617,-0.035,-0.754855,-0.806662,0.23333,0.092232,-0.586755,-0.217721,0.2043,-0.226212,-0.884026,-0.316259,-0.87967,0.443165,-0.42069,-0.156491,-0.955846,0.265256,-0.12303,-0.133592,0.366201,-0.561274,-0.0145564,0.435263,-0.997869,-1.06318,0.514099,-0.324518,-0.197,-0.15,-0.235412,0.00862962,0.0477976,-0.591487,0.0480355,-0.655039,0.532734,0.570595,0.630403,-0.464575,0.733856,0.105382,0.497763,-1.02726,0.0865674,0.208508,0.0935903,0.507364,0.232344,-0.896733,0.565689,0.307588,0.2445,-0.884276,-0.564586,-0.00365026,-0.779,0.0809842,0.886754,0.00669962,-0.651917,0.764664,-0.426495,0.393074,0.765079,0.212284,-0.0532181,0.603623,0.899207,-0.212165,-1.06496,-0.925419,-0.594629,-0.151493,0.817824,-0.60961,0.173919,0.601815,0.0228586,0.381804,-0.866746,-0.295164,0.272021,0.342792,-0.331,-0.664081,0.162276,-0.368587,-0.137496,0.644511,0.596363,-0.369213,-0.378274,-0.267862,-0.492605,0.870443,1.07175,0.0684981,0.0965684,-0.624443,-0.677459,0.328368,-0.621238,0.132798,-0.128821,0.474105,0.0744319,-0.128092,-0.502081,-0.752514,-0.411539,0.164785,-0.16,0.0239957,-0.690109,-0.808708,-0.0629676,0.738611,-0.329356,0.442943,-0.764757,0.886341,-0.631072,0.478008,0.405794,0.774545,0.776258,0.500595,-1.024,-1.02575,-0.198039,-0.895482,-1.04523,0.0287167,-0.227942,-0.529713,-1.03333,0.823975,-0.604756,-0.253855,-0.145,0.522771,0.418746,0.809481,0.760719,-0.434255,-0.683771,0.149293,0.691525,1.00596,0.59712,0.333899,0.139505,-0.692332,0.771709,0.645166,-1.01262,0.230854,-0.917111,-0.806696,-0.0200961,-0.388387,-0.483978,0.056568,0.835277,-0.861439,0.643601,0.853969,-0.24,0.430037,0.131662,-0.209727,-0.678491,0.253557,0.230594,0.747599,0.370097,0.829253,-0.71065,0.661727,0.895409,0.667524,-0.207009,0.898891,0.461649,-0.203073,-0.0561371,-1.02023,-0.386923,-0.0665976,-0.00276756,0.0662952,-0.213547,-0.180738,0.679148,-0.399141,-0.556,-0.0859918,0.850283,-0.555232,-0.0182635,-0.588075,-0.531171,-0.373281,0.753427,-0.304663,0.339207,0.612957,-0.0436114,-0.834656,0.257458,-0.474505,-0.0556336,0.27411,0.7759,0.607015,0.0550966,-0.0717581,-0.0831753,-0.431049,0.74707,0.214152,-0.296212,0.605053,-0.833,-0.594,0.25,0.459,0.951976,-0.763168,0.345111,-0.349243,0.656711,0.702077,0.496963,0.412224,-0.507,0.845085,-0.461925,0.566073,0.0170529,0.359256,-0.259018,-0.463,-0.18,-0.465,0.251962,0.0110313,-0.015,0.413,-0.736,-0.582,-0.479
-0.739,-0.809,-0.131,0.877997,0.63427,0.638949,-0.709464,-0.518274,0.778369,-0.683911,0.461368,-0.00690299,0.178949,0.957844,-0.727193,-0.680924,0.606903,-0.310084,0.0921015,0.629978,0.561711,0.364254,-0.658817,0.262,-0.989,-0.96,0.736,0.145,-0.348,0.451,-0.812146,0.0734972,0.253156,-0.98523,0.955428,-0.740392,0.529567,0.0955553,-0.671022,0.892509,-0.0202329,-0.921253,0.44155,0.239295,-0.151567,0.111096,0.894499,0.711639,-0.0157938,-0.554167,-0.178898,-0.210482,0.511659,-0.0862573,-0.875027,-0.697,0.191,-0.204233,0.940041,-0.721875,0.622543,0.923235,0.884116,-0.0507662,0.15675,0.796572,0.325357,0.622459,0.29223,0.421216,0.0989253,-0.179586,0.754857,0.0517904,-0.0201948,-0.90318,-0.834993,-0.982718,-0.26527,-0.493129,0.136139,-0.407794,0.165334,-0.514003,0.3,-0.394392,-0.909083,-0.890479,0.385078,-0.497411,-0.449671,0.413983,0.477236,0.705326,-0.424829,-0.164496,0.514161,0.134065,0.359873,0.314527,0.627274,0.168067,0.389708,-0.892623,0.207041,0.459894,-0.947044,-0.327786,-0.0267442,-0.22524,-0.784521,0.957136,-0.39,0.84635,-0.762674,0.0731473,-0.63976,-0.340579,-0.447028,-0.321395,0.514503,-0.866611,-0.526743,0.668588,-0.0814229,-0.679381,0.551372,0.640724,0.445568,0.101838,-0.042596,0.38284,-0.0191934,-0.829595,-0.0142425,-0.279713,-0.0251751,-1.00181,0.890958,-0.613914,0.022,0.264685,0.0348774,0.235563,-0.00634642,-1.01654,-0.828374,-1.12035,0.496415,0.622897,-0.422545,0.593267,0.603918,0.259203,0.368047,0.284441,-0.22811,0.398766,0.587268,-0.057573,-0.56649,0.128522,-0.787054,-0.682009,-0.172906,-0.217929,0.0845296,0.1859,0.926,-0.252775,-0.578192,0.14844,-1.0156,-0.243535,0.17134,0.630392,-0.802284,0.189166,0.0462336,0.0706632,0.781942,-0.769283,0.386351,-0.564264,-0.530186,0.68074,0.423361,0.100539,-0.843905,0.293327,-0.741703,-0.282969,-0.0822605,-0.326413,0.281572,0.086,-0.633,0.645902,0.0281314,-0.0398614,0.440098,0.721374,0.190014,-0.996629,0.93246,-0.939376,-0.451261,-0.0714351,0.473132,-0.416624,-0.68019,-0.115887,-0.453291,0.44708,-0.853719,-0.434339,-0.176515,0.866969,-0.638412,0.199283,-0.939079,0.200898,-0.895106,0.342,0.147,0.299763,0.396496,0.59371,-0.889521,-0.935653,0.0132163,-0.281002,-0.188764,0.510644,0.840853,0.732867,-0.530823,-0.549291,0.463917,0.596378,1.01594,0.244006,-0.359783,0.886696,0.704169,0.351475,-0.374194,0.785313,0.185495,0.112348,0.494808,-0.929003,0.488,-0.949521,0.613641,0.869952,-0.748407,0.885406,-0.612624,-0.259399,-0.0357762,0.380354,-0.796621,-0.584224,0.434559,0.389278,-1.12175,-0.856923,0.136278,-0.378174,-0.237135,-0.875157,-0.643481,-0.715793,-0.80042,0.00465783,-0.279015,-0.907341,-0.446286,0.982008,-0.678,0.0804371,-0.906922,-0.220278,0.90482,0.0426504,-0.447265,-0.120589,0.702085,0.938619,1.04512,0.919416,-0.771366,0.134634,-0.584714,-1.11344,0.0163532,-1.13316,0.103036,-0.979148,0.500139,0.380096,0.862444,-0.74846,-0.0901231,-0.865282,-0.952515,0.653,0.349,0.876886,-0.709136,-0.554106,-0.00825046,0.581664,-0.624448,-0.258341,-0.719787,-0.480346,0.684857,-0.850246,-0.82487,-1.28618,-0.670875,-1.19092,-0.0509889,-0.399922,0.555626,-1.28784,0.321438,-0.97368,0.922429,-0.849752,0.433654,-0.989405,0.24296,-0.801,-0.891,0.874559,0.847486,-0.642335,-0.79913,0.80946,0.188004,0.339935,0.315421,-0.338949,0.675709,-1.07032,-0.368253,-1.10464,0.300305,-0.0949878,0.399048,-0.388785,-1.09446,-1.07832,-1.0364,0.645513,-0.464777,-0.305265,-0.0571146,0.351858,0.107296,-0.346999,-0.27,0.28956,0.169781,-0.264205,-0.362087,0.172804,-0.100673,0.167453,0.347032,-0.0900085,-0.686557,-0.392036,-0.702279,-0.738851,0.501167,0.47757,1.10227,0.283579,0.830156,0.284712,0.509786,-0.065142,0.684328,-0.348346,0.647542,-0.774587,0.352332,-0.896,0.651941,-0.978491,0.447877,-0.788638,-0.889001,-0.674347,0.195714,0.908348,0.583168,0.445637,0.334754,-0.52583,0.530681,0.254959,0.413274,-0.554327,0.352455,-0.236225,0.32491,-0.979306,0.00607216,0.0283666,0.14318,0.174165,0.636272,0.823306,0.294539,0.709695,0.610649,-0.675378,-0.648282,0.766819,0.696345,-0.489963,0.537059,-0.328613,1.04915,0.0253604,-0.742351,-0.0935524,0.879501,0.447874,0.983436,0.93069,0.173541,0.597449,-0.770756,0.429895,0.352929,-0.00578898,0.248363,-0.180502,-0.818368,-0.871057,0.40441,0.898943,-0.0180625,0.526359,-0.817544,-0.100765,0.397449,-0.629925,-0.667567,-0.239467,0.839013,0.658821,0.671664,0.747344,0.421709,1.13927,-0.203457,0.388704,-0.192077,0.997138,0.343766,0.236908,0.033198,-0.145091,-0.345673,-0.161197,0.912498,-0.338469,0.846208,0.0889159,0.31124,0.132238,-0.313767,0.138554,-0.351267,-0.306266,-0.515609,-0.0713204,-0.232251,-0.37829,-0.222964,0.705856,-0.134013,0.286735,0.933946,0.678007,-0.839887,1.03698,-0.639996,0.666028,0.887428,-0.696285,-0.585424,0.528038,0.459379,0.366354,0.178007,-0.845386,0.700915,-0.25694,0.247589,-0.435805,-0.785942,-0.575577,0.89786,-0.149477,-0.918773,0.30614,-0.814589,-0.440268,0.364253,0.459844,0.49852,-0.574156,0.269412,0.430352,0.411088,0.686229,0.318258,-0.791042,0.792098,-0.0240264,-0.187601,-0.977987,0.80136,0.422,0.98,-0.809724,-0.577829,-0.418299,0.0796746,0.0871591,0.864768,0.3432,-0.826825,0.0754455,-1.02145,0.384061,-0.152458,0.234261,-0.181896,-0.388644,-0.142505,-0.768657,0.215749,-0.443928,-0.612182,-0.478601,-0.241896,0.644892,-0.470046,0.636789,0.764442,-0.086,0.186,-0.692262,-0.940821,-0.00838959,0.518912,0.850309,-0.461914,-0.828912,-0.234426,-0.178889,-0.716986,0.0379612,0.128665,0.138681,-0.802847,-0.197919,-0.398334,0.0892792,-0.551016,-0.956859,0.533641,0.871763,-0.985045,-0.0976048,0.0694016,-0.731797,0.0868516,0.655,-0.72602,-0.680505,-0.0204266,-0.0331055,0.829191,-0.583135,0.32331,0.473892,-1.00041,0.513506,-1.30209,-0.966647,-0.811402,-0.888198,-0.946186,0.512743,-0.144156,-0.895438,0.189611,0.401332,-0.0796986,0.494397,0.0243706,0.205872,0.471351,-0.229982,-0.523227,0.15,-0.1111,0.179487,-0.277351,0.821888,-0.680137,-0.106114,0.24032,0.0801646,-0.955494,-1.26709,-0.261178,-0.700468,-0.781277,0.513305,-0.716593,0.554263,-0.739325,0.117577,0.206767,-0.396915,0.397051,0.033644,0.898247,-0.263139,-0.942231,0.170462,0.906734,-0.385,0.0109982,0.859114,-0.589212,-0.517587,0.610361,0.266033,-1.12705,0.680932,-0.99933,-0.393885,-1.30884,-0.785593,0.56655,0.0782588,-0.972979,-0.146893,0.184232,0.723428,0.158842,0.216273,-0.262464,-0.273177,0.514075,-0.438322,0.480811,0.410235,-0.32208,-0.099,-0.302003,-0.803522,-0.27351,0.952561,0.000641843,-0.923654,-0.0294044,-0.61963,-1.0493,0.677624,-0.702227,-0.326961,0.125647,0.263622,-0.342153,0.792336,-0.359292,0.45552,0.299022,-0.931489,-0.87051,-0.0528509,0.917943,-0.209748,0.307828,0.530598,-0.920331,-0.809,-0.333002,-0.640262,-0.25312,-0.647494,0.433156,-1.01468,0.575704,-0.98194,0.907409,0.622503,-1.03781,-0.412648,-0.525052,-0.00693818,0.541342,0.596553,0.681895,-0.965628,0.747643,0.465597,0.729021,0.852673,0.825621,-0.25071,0.222395,-0.995578,0.670407,0.287,0.37,-0.641985,0.298305,-0.42296,0.851838,0.242175,-0.552451,-0.749049,-0.335485,-0.710336,0.262417,0.852328,-0.174406,0.429132,-0.287592,0.70475,-0.677099,-0.141482,-0.530276,0.147391,0.0651293,0.752275,-0.791106,0.36426,0.887979,0.558074,-0.152001,-0.503,-0.857,-0.452,-0.576,0.11306,0.245534,0.322047,-0.635907,-0.090011,0.710956,0.999865,-0.853006,-0.594,0.189985,0.505797,-0.571202,0.64981,-0.838046,0.337004,-0.851,-0.998,-0.701,0.775015,-0.639,-0.032,-0.104,-0.765,0.654,0.058
