0.767,0.243,-0.622,0.547,0.0559861,-0.632031,0.0184588,-0.927869,0.639842,-0.21327,0.516932,0.125962,-0.92506,0.483993,-0.563555,-0.921449,0.169984,0.365887,0.510328,-0.35403,-0.539161,0.0473395,0.0889861,0.944,-0.00500002,-0.285,-0.513,-0.157,-0.085,-0.213001,0.545028,-0.443524,-0.642892,0.255876,-0.804462,-0.318642,0.558107,0.0355774,-0.171736,-0.0842053,0.620821,-0.109698,-0.676337,-0.893898,-0.0871705,-0.76764,-0.758158,0.308186,0.804416,0.473371,0.327545,-0.0641453,0.100133,0.269723,-0.913696,0.757,0.422,-0.727014,-0.654253,0.995687,0.025736,0.0854278,-0.79735,-0.319748,-0.591612,1.02453,-0.178091,-0.853694,0.822428,0.466944,-0.260652,0.288607,-0.775695,-0.315557,0.484837,0.370316,-0.733394,-0.520576,0.113637,-0.49706,0.449913,-0.94111,0.415011,-0.0379709,0.618,-0.244972,-0.812849,-0.562443,-0.666294,-0.071962,-0.46764,-0.526652,0.48653,0.650777,1.04773,1.03103,-0.662112,-0.0150701,-0.00807172,0.218458,0.158002,-0.760943,-0.318722,-1.0117,0.435514,0.84555,0.255999,0.627935,-0.366018,0.0217403,0.381084,-0.741006,-0.166,0.34155,-0.499116,-0.763462,-0.0487467,0.537739,-0.551515,0.853813,0.473764,0.320727,0.529927,-0.290976,-0.319037,0.521619,0.443675,0.0546968,-0.202051,-0.214388,-0.151873,-0.951576,-0.36947,-0.593708,0.911769,-0.422934,1.07856,-0.634345,-0.0626327,-0.154017,0.937,0.69469,0.909938,0.175056,0.0812517,-0.0111055,-0.592133,0.490508,0.706259,-0.279106,-0.619193,-0.217007,0.0261387,0.304587,0.494021,-0.758849,-0.245119,0.624991,0.517827,0.223711,0.0180764,-0.399313,0.328633,-0.593739,0.761701,-0.263429,-0.309454,0.585568,0.078,0.840459,0.478804,0.83347,0.457129,-0.982358,-0.707798,-0.301346,0.0914406,0.234886,0.7701,0.524358,0.277851,-0.984889,0.0405324,0.0708743,0.315422,-0.308759,0.0943819,-0.629175,0.425253,-0.801951,-0.223707,0.400287,-0.380543,0.284699,0.553367,-0.916,0.897,0.423664,0.27373,-0.39895,-0.622024,0.240852,-0.404152,0.706059,0.351311,-0.123021,0.438812,0.328905,-0.052297,-0.00630328,-0.418313,-0.781357,-0.683941,0.952146,-0.0334201,0.724353,-0.446883,0.301756,0.662531,-0.395781,0.144647,0.0148034,0.157378,0.726,-0.509,0.105606,0.509066,0.322305,0.0239318,-0.807757,-0.870705,-0.481552,-0.965075,0.412151,0.182415,0.209539,0.288255,0.586975,-0.062647,-0.00287848,-0.329245,0.652786,-0.397493,0.166366,-0.825773,-0.507603,0.264286,0.362033,-0.70583,0.959939,0.932361,0.910026,-0.575,0.0758594,-0.608581,-0.283905,-0.693215,-0.863741,-0.739936,-0.569381,0.718516,0.00477773,-0.192748,0.413065,-0.283321,1.03781,0.206476,0.493112,-0.498989,-0.254759,0.811647,-0.53113,-0.00103907,-0.798027,0.878635,0.888994,-0.272335,0.963447,0.463887,0.398999,-0.892,0.75052,0.722303,-0.523949,-0.394574,0.509485,-0.279036,-0.184403,0.29892,-0.388675,-0.331488,0.517983,0.0569522,0.0754285,0.512349,-0.148327,0.353679,-0.0845898,-0.0171314,-0.810398,0.0428545,0.995229,-0.94807,0.312824,0.565535,-0.589317,-0.583537,-0.126,0.565,-0.856416,0.574085,-0.740529,0.565946,-0.260294,-0.965847,-0.233675,-0.867194,0.134323,0.342283,0.794303,0.837166,0.374214,0.883679,0.460584,-0.693736,0.851655,0.873826,-0.829414,0.147152,-0.610754,0.423791,-0.00694249,0.200892,0.331954,-0.25636,-0.989,0.164,-0.228007,-0.189028,0.599816,-0.563636,-0.0319812,-1.05209,-0.72667,-0.871414,-0.0603098,0.522142,-0.771416,0.229698,-0.665068,0.297161,0.576031,0.461101,0.191565,0.676054,0.382445,1.04531,1.06312,-0.650822,-0.553514,0.933973,0.713009,0.228422,0.0789966,0.266,-0.0105342,-0.276813,0.200765,0.852182,-0.24062,0.766461,0.105783,-0.337943,-0.138314,0.452334,0.54382,0.492499,0.204388,-0.598841,0.20745,-0.290065,0.0928786,-0.313373,-0.120049,-0.310424,-0.467387,0.345952,0.391572,-0.111139,-0.903793,0.0168431,0.9,0.946967,0.87851,0.467228,-0.688016,-0.604552,-0.90384,-0.823878,0.140528,-0.914355,-0.366124,0.385585,-0.202986,-0.0580247,-0.950403,0.414626,-0.0142243,-0.253517,-0.567604,0.715147,0.866752,-0.191721,0.918133,-0.198387,0.784161,0.328972,-0.140916,-0.11307,0.535832,0.965806,-0.314086,-0.105475,-0.321939,-0.257396,-0.0385471,0.831471,-0.288236,0.100277,0.976028,0.606622,-0.729328,-0.630432,-1.03137,-0.209227,0.368371,-1.02567,-0.641245,0.505794,-0.667364,0.202954,-0.497989,0.987064,0.869925,0.1838,0.789559,0.816755,-0.0360311,-0.462039,0.663109,-0.288865,-0.268358,-0.827638,-0.728953,0.756149,0.338933,0.863649,-0.277824,-0.21739,-0.7798,0.0191265,0.256399,0.620397,-0.176117,-0.934368,0.0540447,0.524686,-0.184515,-0.413185,-0.42199,-0.471251,-0.399128,0.218022,-0.210589,0.0481412,0.98201,0.0309256,0.645279,-0.0421513,-0.185978,0.186208,0.168262,-0.354214,-0.956476,0.240964,-0.160496,-0.00651698,0.728152,-0.992679,-0.928664,-1.12458,0.396211,-0.901524,0.342301,0.592942,-0.0424499,0.872822,0.479651,-0.710462,0.532025,-0.337896,-0.84411,-0.744025,-0.0649546,-0.610973,0.443804,0.063364,-0.814419,-0.00966001,0.618116,0.866601,0.314225,-0.181098,1.33104,-0.376423,0.369373,-0.242402,-0.13679,0.332389,0.269821,-0.268701,0.287031,-0.614338,0.717229,0.783778,-0.403381,0.777757,-0.0944128,-0.0787722,0.040675,-0.309539,0.264,-0.946,-0.134314,0.173789,-0.740947,0.606495,0.461159,0.132335,0.181837,0.839128,0.702624,1.07889,-0.628294,0.828558,-0.776154,0.440028,-0.31677,-0.75196,-0.0862827,0.923787,-0.467458,-0.414965,-0.488463,-0.251314,0.651201,0.120398,-0.940358,0.274176,-0.35,0.085,0.517359,0.304109,0.0674044,0.0533119,-0.351714,0.871011,0.0858894,-0.258712,1.32615,1.01083,1.24369,0.509621,0.359141,-0.564524,-0.635069,0.452633,-0.00544515,0.80971,0.959759,-0.0360886,-0.0326374,-0.396219,0.22278,0.125466,0.323402,0.920081,-0.364,0.834916,0.474863,0.169692,0.464063,0.425832,0.0625129,0.838105,0.500477,0.829887,1.04667,0.703781,0.14142,0.616042,0.125626,-0.312712,1.0972,0.0656503,-0.254073,0.719647,-0.00299929,-0.163026,-0.29241,-0.783311,-0.040222,-0.0440661,0.784495,-0.158716,0.288,0.822568,-0.926923,0.718271,0.327626,-0.397514,-0.127882,-0.561422,0.891165,0.591311,0.590204,-0.455811,1.09117,-0.420147,0.200033,-0.518199,0.0227183,1.17552,0.153337,-0.716001,-0.841469,0.329914,-0.449586,0.350918,-0.011277,0.104692,0.706523,0.507974,0.072,0.418018,-0.632323,-0.299885,0.774674,-0.668269,-0.057033,0.922409,-0.499975,-0.22438,0.51477,-0.432301,0.88163,1.07785,-0.334038,-0.558261,-0.738839,-0.214822,0.0346071,0.648291,0.770011,-0.677006,0.414773,0.182567,0.947318,0.821161,-0.712231,0.574645,0.627,-0.679969,-0.0817163,0.0766575,-0.822685,-0.869297,0.168742,0.900446,0.777945,1.11192,0.232152,0.667798,1.27656,-0.284588,0.85585,-0.582476,-0.115352,-0.604743,-0.122292,-0.412512,-0.333399,-0.408471,0.795758,0.946802,0.750978,-0.386913,0.433707,0.78108,-0.814,-0.394982,-0.549917,-0.0932416,0.474296,-0.989815,-0.615273,-0.585071,0.360333,0.75379,-0.211695,0.569949,-0.460342,-0.801749,0.673296,0.343862,0.585242,-0.135019,-0.567924,0.900583,0.441338,0.265805,0.372778,-0.309854,0.401453,0.697748,0.672968,0.678414,-0.997,-0.945,0.935296,-0.944312,-0.610373,-0.85762,0.368896,-0.562387,0.559841,-0.249603,-0.115397,-0.0536716,-0.851347,0.951829,0.928058,0.994523,-0.896797,-0.671106,-0.679904,0.350393,0.917132,-0.000500905,-0.245791,0.591472,0.367491,-0.634734,-0.779664,-0.36297,0.772,0.208,0.18,-0.346,-0.467452,-0.106728,-0.757572,0.585994,0.924005,0.105001,0.703011,-0.95,0.14,-0.231998,0.726026,-0.071974,-0.398971,0.813007,0.546,-0.45,0.39,-0.369,0.800982,0.233002,0.901,0.729,0.999,-0.621,-0.354
-0.436,0.682,-0.75,0.502,0.00787369,-0.229046,-0.282399,-0.252712,-0.312634,-0.638746,-0.853866,0.283995,0.0340059,-0.790995,0.106487,0.600653,0.918867,-0.580462,-0.822897,0.376,-0.917027,0.333982,0.729,-0.582,-0.598,0.886,0.787,0.385,-0.203,-0.169008,0.317073,0.723899,-0.87953,0.417226,-0.467484,0.727537,-0.0841774,-0.722696,-0.738768,0.119476,-0.904764,-0.323432,0.708902,0.246401,-0.785632,-0.94124,-0.95992,0.0863064,0.438344,-0.928418,-0.304506,0.489805,-0.103582,0.957987,0.604287,0.841,0.365,0.895819,-0.366436,-0.63456,-0.640094,0.195194,-0.42749,0.419637,-0.584384,-0.453087,0.369837,-0.864531,-0.449059,0.0358995,-0.301171,-0.752728,0.539555,0.352279,-0.571862,0.517418,0.901383,-0.244691,-0.557313,0.50988,0.263459,0.492673,-0.118427,0.770005,-0.414,0.173753,0.768901,-0.362233,0.220228,0.954481,-0.7191,-0.0395115,-0.951463,-0.744392,0.337997,0.071702,0.741335,-0.727338,-0.444679,-0.00807373,0.112847,0.881543,0.571097,0.71021,0.0834459,0.199531,0.459247,-0.392622,-0.751578,-0.558282,0.78661,0.229004,-0.333,0.408229,-0.243251,-0.135478,-0.852993,-0.519272,-0.196264,0.247455,-0.597541,-0.621946,-0.0286966,-0.840024,0.768357,0.642937,0.176728,-0.266767,-0.393604,-0.140024,-0.742462,0.824992,0.282911,0.846776,-0.133328,-0.647334,0.305011,-0.240978,-0.569917,-0.611,-0.516,-0.472126,0.879589,-0.787252,-0.546719,-0.476906,-0.132555,-0.761378,0.639021,-0.301318,0.407845,-0.949967,-0.845301,0.596825,0.541336,-0.411425,0.869646,0.129687,0.00737675,0.44964,-0.197556,-0.0360522,0.69865,-0.659384,-0.436002,-0.0826351,-0.47264,-0.87813,-0.985,0.548899,-0.720095,-0.570909,0.287553,0.723085,-0.16518,0.059267,0.891093,0.247019,-0.0717847,-0.81238,0.672815,0.751412,-1.03351,-0.966544,-0.104068,0.932433,0.837124,0.66092,0.00478138,0.624789,-0.38945,0.947637,0.294864,-0.108585,-0.759656,-0.329,0.495,0.663649,0.329029,0.597459,-0.259973,-0.772942,-0.780905,0.114224,-0.00715081,-0.744151,-0.00168979,-0.192154,-0.695725,0.00727491,0.215449,-0.256191,0.826017,0.0141734,-0.218135,-0.0848371,0.231809,1.02546,0.637227,-0.818072,-0.0559584,-0.765894,-0.0596751,0.508,0.819,0.720342,-0.938248,-0.824325,0.633368,-0.185702,0.588135,0.890897,-0.0368566,0.213367,-0.0722395,0.756078,-0.0858209,0.605011,0.598913,0.0655645,-0.693796,0.576561,0.292134,0.567341,0.0516332,-0.0524783,-0.565938,0.831769,0.641746,0.0170189,-0.791495,-0.260984,-0.104,0.41063,0.682639,-0.0385713,0.984854,-0.467025,-0.0805575,-0.879023,0.2473,0.336929,-0.312288,0.159383,0.00850769,0.823515,0.204496,-0.636755,-0.611746,-0.332505,1.17216,0.70582,0.146553,-0.827745,0.657023,0.731308,-0.278413,0.354176,0.867956,-0.00399067,-0.876,0.877032,-0.0432239,0.448063,-0.191594,0.222847,0.0222707,0.758569,0.055799,0.263463,-0.820944,0.433493,-0.527777,-0.791794,-0.604569,0.774459,0.692681,0.961062,-0.168636,-0.543004,-0.298763,0.398704,0.108199,0.357588,-0.164632,0.416618,0.0687547,-0.068,0.616,-0.764282,0.342618,0.549002,0.131863,0.37659,0.898825,0.209881,-0.230039,-0.35362,0.151785,-0.142596,-0.729398,0.877015,-0.53436,0.413537,-0.120802,-0.220522,0.386868,-0.158262,0.67221,0.338076,-0.357939,0.211049,-0.0778568,0.654422,-0.550263,-0.493,0.568,0.260852,0.246503,-0.561428,0.19453,-0.256992,0.0875934,-0.696807,-1.04253,-0.676812,-0.828474,0.146509,0.685347,0.532671,0.551595,0.786239,0.158674,0.852858,-0.421498,0.58815,-0.205623,-0.583801,0.565259,0.873397,-0.190786,0.835023,0.605595,0.583998,-0.434,0.818364,0.495057,-0.398286,0.649872,0.139156,0.153125,0.488718,-0.777679,-0.0175641,-0.801868,-0.331369,-0.14984,-0.931745,0.425423,-0.1573,-0.381094,0.294255,-0.284078,-0.109471,0.250351,-0.574294,-0.329065,0.0915153,0.752259,0.69832,-0.252728,-0.947,-0.623051,0.00992182,-0.594333,0.87575,0.436871,0.858567,0.148395,-0.27973,-0.532412,-0.76913,-1.07569,0.716738,-0.348208,0.847698,-0.305652,0.407225,0.0632416,-0.985014,-0.363789,-0.771929,-0.682643,-0.186467,0.231726,0.857246,0.961405,-0.478806,-0.264578,0.61974,0.600706,-0.154756,-0.393018,-0.829951,0.657722,-0.785821,0.122496,0.746109,-0.706325,-1.15439,-0.542729,0.412051,-0.368178,-0.525316,-0.550169,-0.417529,-0.0411133,0.395075,0.436567,0.579487,0.41408,0.0872942,1.06744,-0.610423,0.672307,-0.0146555,-0.392553,0.472952,0.668965,0.179009,-0.339852,-0.252247,0.466606,-0.249137,-0.350318,0.292726,-0.606958,0.482381,-0.586293,0.381277,-0.463304,-0.286671,-0.931445,0.39927,0.541189,0.222903,0.38456,0.376791,0.325846,0.867249,0.854749,0.358311,0.321995,0.606316,0.122492,0.478,0.702006,-0.481313,-0.840474,-0.806774,0.0755963,0.965029,0.757082,-0.521968,-0.62066,0.255928,-0.245994,-0.530712,0.549404,-0.852342,0.165202,-0.175998,-0.645203,0.429137,0.511223,-0.45269,0.300871,-0.230384,0.714209,0.849225,0.047221,-0.381859,0.245077,-0.307,0.302997,0.311183,-0.886368,0.269465,-0.793489,-0.374035,0.884162,-0.52189,0.363349,-1.14177,0.0491822,-0.291917,0.222049,-0.74785,-0.785427,0.832655,-0.566718,0.932677,0.863489,0.909267,-0.335241,0.835936,0.612674,-0.171612,-0.151796,0.469824,0.526476,-0.928,0.752,0.450835,0.170882,-0.688379,-0.556915,0.596619,-0.419651,-0.634738,-1.01938,0.385622,0.323271,0.0954782,-0.144449,-0.908858,0.302716,-0.659894,-0.733795,1.24901,0.44848,0.121811,0.772615,0.404497,0.271828,-0.849019,0.124824,-0.363351,-0.39768,-0.606,-0.089,-0.413901,-0.871444,0.625606,0.283337,-0.206569,-0.251619,0.840877,-1.22606,-0.621906,0.447175,0.552362,-0.961595,0.818418,0.25754,-0.161439,-0.903598,0.659595,0.517929,1.19364,0.673641,0.0509951,0.483644,0.199525,0.854154,0.103295,-0.167922,-0.243,0.714975,-0.104653,0.863303,-0.556167,0.701939,0.583023,0.717545,-0.552055,-0.45057,0.567238,0.640286,0.152615,0.526369,-0.400662,-0.353093,0.173897,0.0211471,-0.245742,-0.657873,1.01422,0.804212,1.05103,1.08161,-0.0480985,0.950198,0.0273126,-0.735989,-0.593,-0.61713,-0.162284,0.39066,0.310494,-0.244198,-0.436422,0.716476,0.119522,-0.268826,-0.170298,-0.823131,-0.926753,0.599859,-0.581849,-1.17704,-0.785116,0.467435,0.350189,-0.642445,0.674031,-0.417875,0.460985,-0.721694,0.986645,0.0454301,-0.783599,-0.338832,0.443,0.892003,0.881669,-0.7144,0.142135,-0.254443,-0.755043,-0.739396,-1.09625,-0.704676,-0.182078,0.175159,0.272794,-0.393783,0.0385254,-0.341202,0.608919,-0.694935,-0.296596,-0.00323844,-0.527073,-0.276105,0.219568,0.35708,0.765124,0.734061,0.113904,-0.974512,-0.229,0.464005,0.263507,0.402854,-0.0536124,-0.634997,0.721508,0.712856,0.773151,0.29683,-0.184356,-0.650296,-0.653305,0.796314,0.544497,0.266159,0.0688643,0.847194,0.684575,-0.281952,-0.703814,0.0320806,0.964443,0.67338,-0.0194758,0.486245,0.577101,-0.686218,0.571,0.322003,-0.247241,-0.340627,-0.551492,-0.0794289,-0.820494,0.117073,-1.08768,-0.260711,-0.617256,0.640753,-0.150011,0.102871,-1.02225,0.322129,-0.701128,-0.546482,0.244527,0.404102,-0.393258,0.519335,-0.941346,-0.620708,0.864187,-0.381015,0.0185627,0.91803,0.067,-0.518,-0.487585,-0.533665,0.426896,-0.0731876,-0.31005,-0.0791307,-0.371278,0.187541,-0.795794,-0.568938,-0.60978,0.923299,-0.661927,-0.460888,-0.202719,0.258128,0.895012,0.25814,0.470018,0.171096,-0.189952,-0.703844,0.491736,-0.237002,-0.25394,-0.960852,-0.251,0.824,0.595,0.885,0.435064,0.780697,0.61571,0.143012,-0.469041,-0.138979,-0.0630022,-0.928001,-0.416,-0.736001,-0.249009,-0.917009,-0.136011,0.867997,0.334,0.813,-0.183,-0.059,-0.238001,0.644,-0.974,-0.457,0.006,0.974,-0.64
-0.806,-0.899,0.295,0.267,0.867012,-0.950006,0.493089,-0.979494,0.816324,0.495055,-0.773241,-0.669999,-0.0990553,0.937925,-0.417702,0.231719,0.200741,0.423432,0.512263,-0.746898,-0.141214,0.0536912,-0.229971,0.657002,0.707001,0.227,-0.856,0.967,0.5,-0.0979915,0.711205,-0.0371159,-0.966639,-0.102328,-0.438882,0.12806,0.0712694,-0.448663,0.0210192,0.563455,-0.429875,-0.358709,-0.843966,-0.12611,-0.712374,-0.0462337,0.445114,-0.931479,-0.61125,0.148986,-0.863599,-0.103215,-0.538039,0.380003,0.833891,0.543,-0.888,0.559273,-0.596155,-0.529569,-0.506186,0.223644,0.415755,0.434212,-0.144552,0.533693,0.440525,0.293182,0.230212,-0.643496,0.456117,1.05185,0.702638,-0.555196,0.902548,0.394472,0.550684,-0.574736,0.184751,-0.714958,-0.667784,0.358897,-0.404965,0.144,0.621,0.530541,0.077584,0.85407,0.369748,0.756624,-0.0301651,0.355915,-0.111058,-0.184623,0.0532004,0.52631,0.713368,-0.716351,-0.786911,0.702368,-0.585885,0.979913,-0.830404,0.0343619,0.503505,-0.0337312,0.0223095,0.222449,-0.843678,0.56463,0.266878,0.935981,-0.425,-0.316201,-0.925544,-0.637668,-0.788397,-0.644556,-0.397055,0.783823,0.212586,0.303157,-0.396191,-0.604242,0.998775,0.175533,-0.530809,0.923181,-0.394616,-0.970623,0.0705109,0.129713,-0.368565,0.301699,0.363126,-0.793456,-0.386307,0.745569,0.228241,0.453988,-0.84,-0.758518,-0.789514,0.972749,-0.815304,0.736131,0.533562,1.13149,0.103062,-0.0466475,0.799504,0.109434,-0.350264,-0.416282,-0.826791,0.274987,0.768914,-1.02784,-0.676993,-0.944096,-0.525518,-0.399405,0.419189,-0.657914,0.0522339,-0.528784,0.645996,0.273066,0.279,0.704334,-0.301066,-0.49416,0.809102,0.151552,-0.382762,0.327787,-0.575524,0.156109,0.565665,-0.920175,-0.869018,0.910158,-0.107816,-0.416417,-0.184638,-1.13534,0.17128,-0.0541359,-0.990497,0.40593,0.337447,-0.433884,0.559431,-0.152465,0.592929,-0.271,-0.994,0.365501,0.430477,-0.0155562,0.624078,0.730436,-0.366544,0.921557,0.553401,-0.251874,-0.652275,0.938632,0.125923,-0.286401,0.371126,0.135572,-0.465384,-0.442175,-0.906072,0.152118,-0.0643235,0.761714,0.783528,-0.281389,0.502135,-0.488562,0.409652,0.219,0.548,-0.434895,-0.884139,0.783765,-0.107881,0.436388,0.735681,0.792041,-0.495529,0.132281,0.380695,-0.231392,-0.740813,-1.20256,0.424327,-0.890022,-0.49718,-0.369596,-0.277863,-0.481889,0.676351,-0.894651,0.858179,0.385575,-0.0354602,-0.706877,0.987611,0.670396,0.784,0.165258,-0.440089,0.266955,0.583397,-0.437523,0.142143,-0.557106,-0.30587,-0.264326,0.0550025,-0.493181,0.671945,0.667405,-1.11671,-0.493332,-0.0606525,-0.616994,-0.994558,-0.974218,-0.635436,-0.593208,0.459289,-0.764585,-0.557254,0.191773,-0.162493,0.70693,0.336,-0.243997,0.340154,0.28946,-0.292467,-0.576301,0.412037,0.632452,0.481611,-0.34584,-0.538515,0.470978,-0.0448581,0.522391,0.17518,-0.490394,0.534412,0.114607,0.435183,-0.312264,0.593211,0.379739,0.211392,-0.369344,-0.651346,-0.374483,0.907525,-0.252,0.661,-0.17786,0.500216,0.189527,0.708771,-0.240105,-0.0553637,-0.485525,-0.553977,-0.485694,-0.419888,-0.333024,0.271166,-0.284028,0.610753,-0.850685,-0.679384,0.847155,-0.299033,-0.154265,0.0750342,-0.549345,0.616719,-0.374747,0.807439,-0.171684,-0.73185,-0.675,0.656,-0.730478,0.81882,0.203975,-0.802461,0.144106,-0.468559,0.870222,-0.357713,-0.581314,0.928848,0.505804,-0.494997,-0.568169,0.554052,0.964695,-0.776899,0.0493719,0.984388,0.324137,0.225041,0.385044,-0.694283,-0.647222,-0.0465231,-0.4821,0.0382816,0.710991,0.816,0.676567,0.522512,-0.394945,-0.250891,0.862894,-0.663418,-0.585256,0.223726,1.01418,0.494805,0.465072,0.626562,-0.605038,1.00444,0.487981,0.654401,0.621116,-0.793721,0.211245,-0.0931577,-0.527966,-0.45882,0.103326,-0.403032,0.851843,-0.287019,0.419,0.0909429,-0.0515202,-0.91015,-0.0979836,-0.402411,0.285401,-0.333317,-0.35905,-0.377765,-0.505271,0.876274,-0.390376,0.562501,-0.0960887,0.862273,0.729631,0.101062,-0.07115,0.657526,-0.208793,0.169309,0.207118,0.789999,0.396356,0.900031,-0.312944,0.346578,-0.330294,0.59648,0.631557,0.825205,-0.913019,0.186598,-0.217582,-0.057421,0.350133,-0.435937,0.0302575,0.082925,1.02078,-0.214568,-0.677497,-0.0462569,0.275332,-0.10198,0.636318,-0.762463,-1.08707,-0.635507,-0.305664,-0.110111,-0.865403,0.590607,0.726643,0.589854,-0.994054,-0.42773,-0.961037,-0.105895,-0.251296,-0.898668,-0.590825,-0.0483501,0.0246139,-0.0960002,-0.754496,0.990994,0.507344,0.418234,1.07801,-0.657903,0.273383,-0.158317,-0.318245,0.777314,0.108786,0.472076,0.138833,0.0136806,0.268771,-0.430981,0.310624,-0.569457,-0.747,-0.186312,0.902926,0.509576,0.441502,-0.939278,-0.446087,-0.92038,-0.159652,0.0587471,-0.447879,0.435462,-0.327955,0.0665639,0.365381,0.675658,0.542963,-0.223399,-0.134299,0.663798,-1.19953,-0.393815,-0.350977,-1.01094,0.0732419,0.501961,-0.269033,-0.379467,0.393,-0.297044,-0.299641,0.0887655,0.783067,-0.0077083,-0.92303,-0.558868,-0.658795,0.176786,-0.968739,-0.919042,0.590981,-0.215295,0.637767,0.668128,-0.676392,-0.561935,-0.774432,-0.631779,0.329978,-0.310864,-0.0862814,0.58114,0.134205,0.768284,-0.426245,0.135526,-0.688,-0.093,-0.275113,-0.118204,-0.676446,0.518902,-0.812808,-1.04923,0.299807,-0.150167,0.545512,0.63371,-0.34732,-0.133982,-0.12296,-0.884892,-0.815364,-0.794599,0.985279,-0.846075,-0.236435,0.370078,-0.548783,-0.100205,-0.766135,-0.510453,-0.830727,0.77168,-0.361,0.15,0.242437,0.26553,-0.749352,-0.289172,0.465332,-0.738248,-0.615031,0.621332,-0.10821,0.0861069,0.0518075,0.345901,0.706185,-0.383578,-0.0912546,0.51774,0.945356,0.382866,0.318267,0.389217,-0.821784,0.479842,-0.428835,0.889008,-0.560032,-0.43993,0.321,0.496013,-0.528843,0.590322,0.863715,0.179229,0.337588,-0.70464,-0.0224062,0.335628,-0.817776,0.812868,0.118925,0.598097,0.996244,0.572009,0.301814,0.0435045,0.971537,-0.266176,0.234652,-0.2077,0.801079,-0.529546,0.0991294,0.125792,-0.919152,0.585424,-0.963,-0.923934,-0.632213,0.665202,-0.792723,0.13396,-0.36334,-0.941692,-0.5385,-1.03258,-0.630865,0.845236,0.710905,0.101691,0.847116,0.626128,-0.655696,0.729336,0.710908,-0.376749,-0.789703,0.0411546,0.615532,-0.126532,0.246771,-0.224778,0.627786,-0.294451,-0.98,0.58,0.00226709,0.645015,0.224581,0.109189,-0.592667,0.806147,0.608006,-0.427669,0.458593,-0.513624,-0.537277,0.370464,0.117359,-0.61045,0.10407,-0.797096,0.899049,-0.488617,0.901402,0.086445,-0.553727,-0.469184,0.458885,0.389516,-0.796357,0.406288,-0.218,0.115,0.214469,0.213682,0.122286,-0.83892,0.0775416,0.149124,0.124097,0.396949,-0.052545,0.775253,0.930088,0.374802,-0.358104,1.10562,0.873405,-0.85821,0.0212342,0.876165,-0.807136,0.466776,-0.0598069,-0.0645818,-0.844152,0.656593,-0.276936,-0.0587785,0.557,0.684,0.55306,-0.755464,-0.132026,0.659286,0.799699,-0.37217,-0.0450087,-0.629998,-0.533962,1.00154,-0.0167947,1.09335,0.0231019,0.88552,0.488006,-0.642786,0.441398,-0.47052,0.834784,-0.214115,-0.309865,-0.727001,0.0406234,-0.397102,-0.562644,-0.56793,-0.845,0.963,-0.127273,0.740144,0.36719,-0.548561,-0.056637,0.961836,0.88657,-0.441613,0.331528,-0.332263,-0.446396,-0.193147,0.280698,0.652565,0.169027,-0.934389,0.959024,0.865537,0.458691,-0.76019,-0.589052,0.225979,-0.716886,0.41298,0.6846,-0.201045,0.448,0.62,-0.188,0.074,-0.393628,-0.488981,-0.896644,-0.640998,0.1515,-0.751757,0.0943387,0.911982,0.631,-0.474,0.482997,0.121997,-0.491999,-0.937,-0.530001,0.291,-0.795,-0.219,-0.490354,0.799076,-0.425,0.174,0.165,-0.506,0.636
0.957,-0.167,0.717,0.398,-0.486969,0.710159,-0.155963,0.335054,-0.694185,0.411992,-0.22099,-0.733928,-0.720003,-0.0340008,0.357037,0.162765,-0.324218,-0.588714,-0.683805,0.435,-0.861001,-0.306,-0.276,-0.726,0.628,-0.663,0.081,0.286,0.599,-0.316997,0.406115,-0.257856,0.889149,-0.0638331,-0.592942,-0.865878,-0.95649,-0.555835,0.0872014,-0.560239,-0.258274,-0.411582,0.410668,0.133672,-0.406103,0.63548,-0.0771617,0.998983,0.0686879,-0.996087,-0.917723,0.172285,-0.246856,0.942938,0.626995,-0.014,0.209,-0.141879,0.272199,-0.406852,0.445404,-0.889328,0.485503,-0.219756,-0.344023,0.679724,-0.648091,0.419375,0.596966,-0.64861,-0.106591,0.915674,-0.096195,0.231883,0.789727,-0.105277,0.604844,0.110292,0.202891,0.502169,0.793573,-0.924832,0.0792651,-0.888,-0.33,0.818328,-0.145886,0.815853,0.599882,0.963989,-0.90494,0.103547,-0.385469,0.8539,-0.332339,0.624727,0.381583,-0.757823,0.909937,-0.848332,-0.376212,-0.149508,-0.0396588,-0.361971,-0.852129,0.2137,0.0269344,0.516378,0.42436,0.361777,-0.154767,0.755999,0.188,-0.161423,0.751245,-0.517186,-0.372188,-0.525092,-0.401014,-0.772257,-0.857385,0.041184,-0.769888,0.428061,-0.102694,-0.581706,0.28,-0.376497,0.866726,-0.312245,-0.517243,0.798486,0.424667,0.925472,0.788729,-0.711018,0.26507,0.412431,-0.565474,0.492999,-0.834,0.664255,-0.947631,0.37986,-0.624232,0.456506,0.841199,0.0580355,0.617445,-0.0733259,-0.534335,-0.199604,-0.327341,-0.853444,0.489646,0.610668,-0.368424,-0.302074,-0.730563,-0.263453,0.649572,-0.0859909,-0.82539,0.0308331,0.60236,0.815556,-0.0923943,0.0559694,-0.319,0.933311,0.178746,-0.208132,0.837385,0.399036,-0.807648,0.133694,0.290379,0.959859,0.74868,-0.129584,-0.429235,-0.267909,-0.739414,0.820209,0.390079,0.689022,-0.385104,0.0916447,0.960619,-0.435542,-0.50128,0.334269,0.730808,0.546115,-0.946149,-0.449,0.439,-0.469619,-0.624588,0.940076,0.494542,-0.485667,0.262185,-0.0366466,-0.075706,0.552543,0.3071,-0.108187,-0.414181,0.824955,-0.100463,0.0252041,0.926815,-0.126942,0.487966,-0.512205,-0.111665,0.642998,-0.629993,0.562681,-0.434516,-0.123389,0.232214,0.818,-0.726,-0.591581,-0.2156,0.187783,-0.56144,-0.128355,0.078538,0.968671,-0.0115827,0.458603,-0.378304,-0.907761,-0.513005,0.0875562,-0.34189,0.937054,-0.596655,0.75519,0.705213,-0.335734,1.01154,0.833027,-0.528874,0.718807,0.740736,0.61742,-0.0822293,-0.95613,-0.454,-0.971299,-0.374539,0.450229,-0.179462,-0.528881,-0.26399,0.58923,0.57045,-0.217561,0.78796,-0.272448,0.116323,-0.25001,-0.0571863,0.498355,0.955917,-0.32139,-0.483271,0.15814,-0.740559,-0.429337,-0.865679,-0.0758401,-0.509071,0.0738797,-0.226943,0.637977,-0.336,0.56643,0.534717,0.721153,0.333077,0.612971,0.975919,0.726263,-0.568437,-0.234539,0.492252,0.781197,-0.105612,-0.53689,-0.713842,-0.539842,0.749983,-0.147077,-0.264781,-0.423189,0.414729,-0.608025,0.644145,-0.441785,0.422307,0.811406,-0.898523,-0.344,0.879,-0.473426,-0.732047,0.0425611,0.57534,-0.820805,-0.377198,0.010808,0.641265,0.354051,-0.472714,-0.288703,-0.334772,-0.338019,-0.79894,-0.691511,-0.102345,-0.253165,0.426549,0.992819,0.76072,-0.521677,-0.776591,0.953295,0.123443,0.393525,0.484416,0.599,-0.93,-0.437753,-0.165772,0.818791,0.531516,0.47876,-0.683635,0.463303,0.0277754,0.432524,-0.115746,0.962336,0.383397,-0.660831,0.847702,0.202286,0.0663657,0.700847,0.338535,0.820571,0.222498,0.489434,0.223844,-0.0187766,0.688994,-0.550975,0.830067,0.723,0.818,0.362891,0.9277,0.26707,-0.0420038,-0.121182,0.0281275,0.841184,-0.693556,0.767039,0.0580144,-0.0535128,-0.885515,-0.144093,-0.783161,0.905516,-0.934022,0.97056,0.48907,0.0345192,0.72,-0.915684,0.362226,0.77147,0.00412792,0.356009,0.166252,-0.7,-0.591002,0.324407,-0.527642,-0.931854,0.253568,0.191284,0.663852,0.797321,0.120882,-0.182362,0.856313,0.225627,0.261163,0.5719,0.0665808,-0.0113796,1.02012,0.455601,-0.0158328,0.767015,-0.216276,0.369343,0.0229526,-0.550298,-0.550051,0.634162,0.52787,-0.61201,-0.80005,-0.661977,-0.420026,-0.0862686,-0.34108,0.366508,0.425428,-0.0959287,0.977324,-0.673777,0.649736,-0.315225,-0.680874,-0.000296888,0.273151,0.289487,-0.162808,-0.876827,0.495187,0.245675,0.944141,-0.816796,0.294964,-0.637237,0.858908,0.211128,0.954232,-0.617002,-0.975146,0.167133,0.663085,0.0908335,0.912964,0.340397,0.432049,0.270382,-0.740735,0.697197,0.327683,0.39215,-0.0546303,0.87394,0.71385,-0.0899561,-0.0232739,0.733574,0.669017,1.0511,-0.257317,0.703997,0.508386,-0.676408,0.331967,0.319126,-0.713428,0.907,0.204939,0.974527,-0.15963,-0.217669,-0.960774,0.865935,0.950651,-0.155131,0.353999,-0.969051,0.56625,0.6468,0.60585,-0.984964,0.476706,0.422428,0.864477,-0.515896,0.729708,-0.555242,-0.283847,-0.0559696,0.856413,0.888324,-0.386383,0.848431,-0.939589,0.126,0.955991,-0.205274,0.0436248,-0.121904,0.789598,-0.248047,-0.638299,0.819802,-0.488751,0.19102,0.794781,-0.262593,-0.288042,-0.0878119,0.167317,0.353759,0.883701,0.703237,-0.634415,0.966197,0.707644,-0.0489478,0.228197,-0.477293,-0.67153,0.99841,-0.834023,0.417,0.457,0.937812,-0.638356,-0.567547,0.860141,0.4534,0.439647,-0.402998,0.306022,0.237465,0.474496,-0.773358,-0.758889,0.221436,-0.143415,0.434453,0.603862,-0.470893,-0.553772,-0.146531,0.466423,-0.337894,-0.475599,0.398893,-0.376667,0.682793,0.069668,-0.041,-0.775,-0.936127,-0.0213232,0.269076,-0.234287,0.738552,0.540286,-0.569204,-0.470521,0.931216,0.215952,0.441389,0.502428,0.0524139,-0.0253201,-0.239199,-0.343743,-0.381082,0.0740537,-0.262439,-0.613448,0.569153,0.918996,0.0620646,0.775264,0.489784,-0.522189,0.24,-0.712006,0.720065,-0.925745,0.67982,0.903899,-0.457055,0.590584,-0.406013,0.0514314,-0.711473,-0.303216,0.712098,0.515187,0.384682,0.128186,-0.904726,-0.266258,0.515851,0.441013,0.939354,-0.165259,-0.0791804,-0.719911,-0.673801,0.943342,0.85416,-0.757351,0.474,0.155969,-0.611594,-0.614074,0.806016,0.128245,0.219533,0.0300035,0.880039,0.621543,-0.820883,-0.538587,-0.279542,0.224235,0.896031,0.0722182,0.610612,-0.580171,-0.00178488,-0.805839,-0.569746,-0.736846,0.888855,0.432662,-0.90897,-0.453645,-0.65951,-0.506188,-0.09,-0.256,0.543161,-0.840156,0.0532908,0.834404,0.793113,-0.523371,0.591483,0.512107,-0.682091,-0.704458,0.323485,0.241897,0.00392028,-0.405091,0.83209,-0.931402,0.206007,0.472925,0.531505,0.360782,0.740223,-0.323735,-0.885017,0.768103,0.183739,0.267656,-0.114,0.072,-0.8094,-0.787019,-0.829306,-0.60693,-0.524248,-0.492208,0.38322,0.73244,0.535471,-0.217771,0.725994,0.626664,-0.83849,-0.179593,0.52723,-0.153516,0.156947,-0.900028,0.143725,0.250545,0.724078,-0.0665023,0.478239,0.628895,-0.806385,0.905184,-0.732,0.32,0.270182,0.286087,-0.0541989,0.408634,-0.523138,0.884892,0.283477,0.968183,0.722714,0.211184,-0.282111,-0.495672,-0.283661,0.665099,-0.675247,0.544934,-0.16918,-0.507642,-0.227302,-0.183358,0.310428,0.242344,0.0238402,-0.0955666,0.212383,-0.0520185,-0.722,-0.088,0.815043,-0.519823,0.346396,0.703651,-0.876995,-0.631043,0.0716079,0.0522912,0.340791,0.00731212,0.383444,0.137664,0.399116,0.751579,-0.387502,0.250442,0.916276,-0.506874,-0.0168353,0.181278,-0.525581,0.759831,-0.574201,0.723108,0.0340289,0.889,0.437,-0.793,0.416,0.396,0.399084,-0.114866,0.63408,-0.443999,0.328863,-0.98095,-0.210383,-0.900979,-0.309,0.387,-0.250998,-0.443998,-0.194997,0.481001,-0.867012,-0.146,-0.762,-0.154,-0.961,0.676,-0.981,-0.565,0.382,0.713,0.892
-0.518,-0.747,-0.336,0.613983,0.492437,0.884884,0.813343,0.39153,-0.250157,-0.307868,-0.625933,-0.417951,0.35605,0.248,0.876985,0.352976,0.573423,0.471599,0.447689,0.103956,0.0886408,-0.468267,0.710946,0.866004,0.923002,-0.167,-0.32,-0.17,0.812,0.984001,-0.911953,-0.733789,0.150023,-0.969355,0.517015,-0.764999,0.932937,0.554153,-0.908469,0.581197,-0.165936,0.467758,0.390084,0.809279,-0.320274,-0.908149,0.873615,-0.101512,-0.648146,0.430785,0.366482,-0.254238,-0.67575,0.601713,0.328037,0.539001,-0.47,-0.117043,0.776968,0.196822,-0.472105,0.777659,-0.979698,-0.813913,0.232291,-0.995632,0.818919,0.762368,0.0754995,-0.164626,-0.049072,1.01533,0.951351,0.0191963,-0.688311,-0.396051,-0.942336,-0.867397,0.439978,-0.597155,0.482245,-0.300913,-0.661166,-0.513873,0.303,0.104844,-0.499626,-0.314868,-0.857643,0.322812,-0.039318,0.421207,-0.224284,-1.02295,0.127001,0.156677,-0.328097,-0.600363,-0.0763615,0.474524,0.718515,-0.302255,-0.514167,0.604694,0.629042,0.226061,0.654359,0.265604,-0.0513382,0.820332,-0.458887,-0.649868,0.598,0.103624,0.849818,0.876369,0.726735,-0.352089,-0.874727,-1.02702,-0.388085,0.277417,0.557277,0.498058,0.00636237,1.07182,0.727132,-0.482931,-0.301227,0.870917,-0.40777,-0.369827,-0.293413,-0.316975,0.487763,-0.333576,-0.987411,-0.700871,0.147037,0.250024,-0.037,0.523506,-0.68224,0.516572,-0.277256,0.0937117,-0.781204,-0.957879,0.506696,-0.897725,-0.804636,0.671718,-0.142707,0.223048,-0.700536,-0.869943,0.352911,-0.357072,0.631941,-0.789843,0.246125,0.231915,-0.727932,0.471099,0.395547,0.852941,0.442489,0.571061,1,-0.722401,0.209721,-1.04363,-0.0255951,-0.441826,-0.567255,0.216671,0.297676,-0.534083,0.705845,-0.631659,-0.261629,-0.394103,0.0907655,-0.236405,-0.0234515,0.546477,-0.768667,-0.0857502,0.236985,-0.649391,-0.678844,-0.686758,-0.401642,-0.680439,-0.294574,0.134,0.083,-0.0249354,-0.968923,-0.925225,-0.737671,0.277458,-0.787818,-0.837429,-0.699514,-0.233341,-0.192939,0.874089,-0.361675,0.81188,-0.676353,-0.05057,-0.461178,-0.0512412,-0.846854,-0.0168162,-0.262779,1.00261,-0.679579,-0.176408,-0.336921,-0.265328,-0.219678,-0.232,0.109,0.177245,-0.367306,0.289194,-1.02167,-0.181708,0.418454,-0.501129,0.393751,0.746566,-0.567017,-0.504322,-0.72983,0.677253,0.869821,-0.713812,-0.301144,0.0233591,-0.861184,-0.0775377,0.132731,0.840869,-0.931439,-0.688553,0.0136287,0.88515,-0.17792,0.846002,0.014,-0.469952,0.520035,-0.93644,-0.275405,0.901952,-0.863354,-0.355958,-0.277744,-0.977232,0.181974,0.817066,-0.703791,0.733643,0.452529,0.248159,-0.527619,-0.148732,0.0780397,-0.640364,-0.48653,0.344762,-0.688402,0.936498,0.743417,0.0896154,-0.130469,-0.856,-0.134,-0.946157,0.891057,-0.789288,0.472346,-0.201082,-0.108872,0.436915,0.0179348,-0.952656,0.414228,0.624898,0.539437,0.922622,-0.175938,0.784371,-0.00634309,-0.11138,0.523817,0.119351,0.113065,0.438833,-0.793185,0.0224971,-0.215967,0.504228,0.663846,-0.163,-0.188,-0.610257,-0.410862,0.421307,0.334764,-0.896063,-0.409554,-0.229961,0.808235,-0.102234,0.26828,-0.285824,0.909018,0.63653,0.077059,0.434815,0.828156,0.817475,0.599804,0.493213,-0.265214,-0.250906,-0.940367,-0.291204,-0.549598,0.103076,-0.0755315,0.951,0.22,-0.577134,-0.922936,-0.0889035,0.207105,-0.515181,-0.683828,0.553525,-0.231309,-0.829458,0.0762515,0.90401,0.917493,0.343046,0.354405,0.12518,0.724361,0.529132,1.06894,-0.756049,-1.11362,-0.211081,0.178073,0.566313,0.480179,-0.0763775,0.351912,-0.333002,0.052,-0.343319,-0.518813,0.526266,-0.016915,-0.163743,0.350509,-0.12507,-0.558437,-0.305796,-0.174334,0.103746,0.60829,1.06044,-0.0827219,0.328074,0.47594,0.677606,0.884142,-0.740659,-0.353939,-0.563985,-0.422533,0.872205,-0.961122,0.229616,-0.135558,-0.352,-0.744953,-0.464504,-0.267587,0.468633,-0.219498,-0.4967,0.369582,-0.462045,0.820546,0.554403,-0.637314,-0.275176,0.987237,0.240914,-0.839189,0.866513,0.914081,0.854178,0.853298,-0.609052,0.267508,0.171662,-0.744737,-0.872821,-0.181432,-0.557973,-0.878574,0.139241,0.189277,0.695335,0.564807,-0.765589,-0.311842,0.0349553,-0.266743,0.714952,0.40121,0.12222,-0.0905532,0.0810371,0.849034,-0.537197,0.548331,0.972477,-0.146441,1.18186,0.319754,-0.902062,-0.313676,-0.118232,0.306586,-0.262398,-0.245835,0.202836,-0.548142,-0.977955,-0.106949,-0.826572,-0.763037,0.342285,0.0199505,0.00925711,0.0194586,-0.240117,-0.855068,0.749951,-0.0337534,0.212497,-0.454147,-0.139662,0.688245,-0.749084,-0.407833,0.731396,-0.666136,-0.473573,0.298998,0.668727,0.586568,0.414652,0.150313,0.590774,0.363121,0.17301,-0.194978,0.541124,0.350121,-0.132596,0.341849,-1.01783,0.706677,-0.928791,0.57957,0.612132,-0.345045,0.109449,0.351156,-0.0292164,-0.285473,-0.682433,0.270978,0.470705,-0.432196,-0.00382677,0.16484,-1.04775,-0.274065,-0.298783,-0.340817,0.694291,0.526457,-0.854954,0.614012,-0.813832,-0.949707,0.66117,-0.197868,0.0233644,0.536957,-0.497132,-0.36612,0.574414,-0.467318,0.451499,0.367968,0.501265,0.347404,-0.59436,0.638961,0.0975497,0.575482,0.578486,-0.258793,-0.0316951,0.205205,-0.380336,0.96058,-0.93264,0.349376,-0.067,-0.336,0.276382,0.489883,-0.680254,0.385456,0.343464,-0.0596586,-0.787629,0.589656,0.503747,0.542099,-0.502256,0.682719,0.938817,0.939376,1.17723,-0.196865,-0.0459581,0.264639,-1.16875,-0.0392438,-0.840164,-0.219386,-0.39584,0.484093,-0.681135,-0.226175,0.075,-0.196,-0.820557,-0.0686065,-0.947142,-0.251901,-0.461278,-0.548158,-0.335093,0.025443,-0.858839,-0.378861,0.144286,0.0806162,-0.0790487,0.442893,0.0511571,-0.362522,-0.726168,-0.349956,-0.184958,-0.25079,0.583049,-0.136158,-0.216858,0.535481,-0.0508202,-0.162253,0.205,0.773012,-0.0808159,-0.0303493,0.348772,-0.408996,-0.710586,0.127814,-0.8331,0.126197,-0.924288,-0.624606,-0.14534,-0.216087,0.73851,-0.547035,-0.0751843,-0.0302384,-0.730089,-0.572632,0.0917755,-0.0156058,-0.567822,-0.882886,0.351704,-0.188119,-0.44694,0.413616,0.435,0.607061,-0.784158,-0.705937,0.924312,0.782494,0.0673931,-0.239456,0.43807,0.0833751,0.412532,1.00581,-0.379558,-0.514867,-0.0999785,0.956718,0.812687,-0.844029,0.566595,-1.14424,-0.407192,-0.666454,0.0261712,-0.597369,-0.357033,-0.0998312,-0.312006,-0.990416,-0.119,0.502076,-0.379626,-0.914467,0.257805,-0.557254,-0.553401,0.635675,0.281125,-0.00847049,0.712759,0.412552,0.177922,0.514616,-0.41441,-0.0102417,0.327946,0.626367,-0.0958012,-0.859929,-1.04946,-0.469613,-0.677418,0.29133,-0.108817,-0.329422,-0.444722,-0.24301,0.327,-0.609864,0.642263,-0.95101,-0.943954,0.0985832,0.680661,-0.584824,-0.657085,-0.851937,1.06189,-0.28826,-0.791498,-0.0567818,-0.610415,-0.0317826,-0.421756,-0.763963,0.460345,-0.28727,0.27159,-1.04616,-0.72677,-0.941979,-0.194539,-0.403283,-0.933996,0.419119,-0.509,0.46508,0.0327495,0.474552,-0.512689,0.422262,0.36774,-0.774253,0.976901,0.496056,0.950777,-0.223529,0.0794038,-0.465445,0.944935,0.158339,-0.644516,0.0558456,0.804749,0.791228,0.903918,0.975284,0.132778,0.745562,0.213051,0.219147,0.406351,0.0194253,-0.156,0.396001,-0.440757,-0.245792,0.536283,-0.428418,-0.770274,-0.751682,0.199274,0.986006,0.460226,-0.360539,-0.734399,0.565322,-0.0853035,-0.373018,0.972307,0.394706,0.935119,-0.313022,-0.385589,-0.209032,0.0212238,0.699839,-0.237226,0.645026,-0.439098,0.132032,-0.93,0.329,-0.301,0.028,-0.972225,0.0438464,0.786007,-0.293961,-0.0047575,-0.54499,-0.924016,0.495999,-0.178,0.597,-0.859011,0.61599,0.258,-0.217,-0.605,0.947,0.006,-0.344,0.0459894,0.495,0.412,0.84,0.622,-0.757,-0.597
-0.686,-0.927,-0.19,0.225,0.35468,-0.536792,-0.665301,-0.0202146,0.0818241,-0.770736,0.248895,0.460997,-0.950009,0.894001,0.753006,0.847957,-0.877031,-0.201364,0.309552,-0.871097,-0.938974,-0.955041,-0.107981,0.682998,-0.781001,-0.857,-0.983,-0.049,-0.603,0.0959948,-0.680206,0.0541645,-0.836211,-0.661774,0.0569755,-0.375072,-0.638051,-0.885448,0.513989,-0.779194,-0.0672239,-0.155847,-0.138862,-0.478821,0.955726,0.714245,-0.415712,-0.871625,-0.658664,-0.0867224,0.532383,0.815527,0.778223,-0.725459,-0.93401,0.85,0.776,0.742866,0.215235,0.753532,0.983957,0.967771,-0.850665,-0.0737995,-0.538931,0.122607,0.818375,-0.969446,0.270078,0.128529,-0.999954,0.313775,-0.147517,-0.613437,-0.0373936,0.617434,0.164727,0.348012,0.312732,-0.856783,0.1942,0.0815822,-0.0485801,0.743008,0.305,-0.175453,0.36206,0.43144,-0.558204,0.4508,-0.693173,-0.0690981,-0.0654411,0.27413,1.03532,-0.683994,-0.97316,-0.767258,-0.564976,0.486804,-0.829816,0.30136,0.421412,-0.270085,0.169517,0.148532,0.212588,-0.180097,-0.557509,0.380454,0.369628,-0.939997,0.873,-0.970057,0.248931,0.728228,0.253381,0.220551,1.07451,0.65093,0.539971,0.383648,-0.681823,-0.649769,0.284374,-1.0448,-1.01972,-0.262244,-0.0225884,-0.419733,0.35634,-0.87135,0.708777,-0.0292155,0.285631,0.570086,-0.580793,-0.883992,0.235684,0.0719978,-0.26,-0.122487,0.30043,-1.02794,-0.539506,-0.65953,0.945461,-0.56321,0.55145,0.498572,0.351272,-0.889046,0.0956297,0.362527,0.7146,0.178466,0.855803,-0.17034,-0.392464,-0.986488,-0.296916,0.718235,-0.94313,-0.399669,-0.533725,-0.134252,-0.82358,0.0780157,0.73,-0.930191,-0.802669,0.677213,0.258363,0.000175106,-0.811334,1.03165,0.115237,0.715924,0.0404657,-0.522096,-1.21221,0.582872,-0.750755,0.438279,0.285161,-0.766453,0.675528,0.708926,0.252598,-0.818932,0.736007,-0.224732,-0.998573,-0.284672,0.865291,0.458,0.698,0.33114,-0.385843,-0.951652,-0.713771,0.850986,-0.218861,0.0556644,1.03984,-0.3504,0.0497947,0.26337,-0.471924,-0.366006,0.229806,0.648114,-0.970138,0.755481,-0.458003,-0.672052,-0.189202,0.434804,0.219629,0.258084,-0.998019,-0.181632,0.46289,0.844,0.943,0.22483,0.90365,-0.463497,-0.568493,0.605569,0.310547,0.557316,0.295245,0.543236,-0.743446,-0.932392,0.184503,0.0418451,-0.485795,0.888543,-0.612156,0.275093,-0.899026,-0.355516,-0.315383,0.203623,0.787844,-0.966353,0.179116,-0.572297,-0.793123,0.268212,0.682,0.0498103,0.366144,-0.634059,0.0140387,-0.728424,0.392555,0.387444,0.708198,-0.367087,-0.790048,-0.823903,0.17273,0.631325,-0.325357,1.00407,-0.642917,0.662159,-0.659302,-0.898897,-0.23301,0.255592,-0.954145,-0.804167,0.190488,-0.89246,-0.070019,0.737039,0.355,0.997453,-0.736349,0.742605,0.377302,-0.0751759,-0.825799,0.654012,-0.521675,0.750994,-0.412014,-0.305042,-0.61157,-0.146328,-0.334269,-0.40055,-0.515328,0.158161,-0.0502536,0.506996,0.909027,0.497156,-0.964541,-0.910077,0.509985,-0.200756,0.885975,-0.14,-0.319,0.697012,-0.547921,-0.494692,-0.703319,0.591815,-0.512712,-0.21074,0.818885,-0.660384,-1.10517,0.293831,-0.132044,0.318624,-0.183003,0.918567,0.429868,-0.428139,-0.022814,-0.77081,-0.994625,-0.144893,0.315193,-0.601195,0.554471,-0.957682,-0.351934,0.537,-0.887,-0.198103,-0.93583,0.0585136,-0.645797,-0.689708,-0.400346,0.791958,0.964952,0.688567,0.163205,-0.140681,0.191415,0.656367,0.216448,0.32001,-0.550937,-0.706206,0.107791,0.374159,-0.42253,0.671701,0.0115213,0.478739,0.929521,-0.534007,-0.0805098,0.517,-0.176,-0.568525,-0.67834,-0.517369,0.0621082,0.25618,0.337127,0.181452,-0.346143,-0.00117045,-0.301858,0.64471,0.32271,-0.435752,-0.434711,-0.923269,-0.725725,-0.579438,0.534938,0.605257,0.212285,-0.560525,-0.300056,0.702539,0.480391,-0.345743,0.456811,-0.13,0.352054,-0.652822,0.590806,-0.632197,-0.825406,0.843877,-0.520491,0.972525,-0.116231,-0.770271,-0.135563,0.495854,0.65742,-0.489262,0.639831,-0.383805,0.267196,-0.841579,-0.437319,-0.876401,0.80107,-0.478211,0.200066,0.53076,-0.67744,0.363968,0.89857,0.759277,0.363383,-0.343981,0.352374,0.21939,0.0368845,-0.483877,0.179765,-0.775972,-0.344523,0.330095,-0.524569,-1.15673,0.274814,-0.416048,-0.390819,-0.542051,-0.0427384,-0.674964,-0.89766,0.631892,-0.047164,0.248999,0.434803,0.471083,0.424371,0.570104,0.332659,0.0240513,0.525293,-0.525184,0.227381,0.313798,-0.484704,0.323106,-0.601008,0.765325,0.538078,-0.964914,-0.647553,0.423283,-0.729691,-0.745618,0.244214,0.269438,-0.628318,-0.298633,0.885155,0.91376,0.859904,0.0436124,-0.744822,0.809661,-0.823525,-0.299924,0.633832,0.0819954,-0.685925,0.0797184,0.0730338,-0.0826634,-0.420818,-0.0499851,0.660071,-0.2885,-0.594671,0.18032,-0.721058,-0.585002,-0.457073,-0.549498,-0.0317061,-0.51677,-0.481279,0.25888,-0.169561,0.188206,-0.0500658,0.167205,-0.757672,-0.5801,0.300197,0.49744,0.812925,0.336973,-0.801995,-0.365168,0.891026,1.06633,-0.730255,0.282593,-0.939188,0.16535,0.0612791,0.54346,-0.622818,0.00744396,-1.0521,0.398713,0.0539091,-0.165946,-0.656714,-0.413952,-0.854164,-0.016189,-0.329378,0.801477,-0.0251876,0.858976,0.502794,0.103066,-0.950096,-0.176,-0.839,0.380063,-0.608461,-0.517471,-0.443074,-0.024589,0.41349,0.376244,0.754587,-0.0445042,-0.837991,0.624589,0.101458,-0.232492,-0.958354,-0.908896,-0.068936,-0.175201,0.177281,-0.371897,-0.590258,1.11277,-0.530719,-0.922229,-0.771093,-0.367911,0.344506,-0.528,0.032,-0.836434,0.301137,-0.618118,0.107095,-0.827122,0.159316,-0.0546816,0.79046,-0.689126,0.87746,-0.256726,0.926143,-0.71177,0.00128079,0.31691,-0.822641,-0.0613014,-0.610244,-0.0992244,0.497942,0.134255,0.273223,-0.720837,0.274938,0.314315,-0.995443,-0.221,0.545003,-0.720783,-0.067876,0.879192,0.866583,0.445188,0.887728,0.881293,-0.569729,-0.563363,-0.199859,-0.355079,0.597366,0.763529,-0.916039,0.448833,1.07005,1.10508,0.0365233,-0.353905,-0.398246,0.0141058,0.66565,-0.942984,0.454719,-0.875128,-0.958261,-0.47,-0.727984,0.728614,0.368855,-0.700908,-0.547638,0.36578,0.536724,0.369176,-0.273203,-0.724621,0.818734,-0.133203,0.422248,0.942308,0.531534,0.697817,0.779789,0.739674,0.110406,-0.385892,-0.300175,1.03395,-0.0972616,0.423869,0.604833,0.49184,-0.0377739,0.091,-0.795995,-0.140762,-0.218943,-0.743086,0.828175,-0.65567,0.384556,-0.00577102,-0.824905,-0.501162,0.696873,-0.584278,0.774382,0.769117,0.630705,0.359626,0.532272,-0.13289,-0.3581,-0.604691,0.500955,0.551004,-0.592305,-0.841798,0.752263,-0.434252,0.407129,0.557,0.410009,0.655737,-0.493363,-0.75765,-0.654043,-0.255976,-0.784558,-0.344907,-0.442699,0.073798,-0.0390388,0.266305,-0.0798372,0.474715,-0.201686,0.211549,-0.388734,-0.00950452,0.223237,0.45403,-0.258912,-0.277515,-0.732269,-0.647963,-0.945122,0.680968,0.303807,0.77,-0.721995,0.227624,0.534135,-0.0383063,-0.432929,0.931137,0.154416,0.625126,-0.48843,0.640569,-0.864107,-0.953143,0.253734,0.519914,0.564361,0.687828,-0.66504,-0.69534,0.534962,-0.728788,0.259302,-0.2308,0.458258,0.518278,-0.699645,-0.731232,-0.504806,-0.346,-0.336,-0.762209,-0.212277,-0.419748,-0.582062,0.430915,0.713468,-0.917959,-0.111719,-0.910124,-0.431183,0.0460795,-1.00704,0.680027,-0.444195,0.916979,0.195896,-0.764513,0.38849,0.821262,-0.0126273,-0.506256,0.559329,0.556708,-0.509065,0.57647,-0.595964,0.85,0.426,0.964,0.326,-0.0339987,-0.293992,-0.941991,0.0709967,0.696335,0.699858,-0.661757,0.629057,-0.264,0.454,-0.374998,-0.000998467,0.212,0.828,0.843,-0.011,-0.21,0.074,0.456772,0.948102,0.73,-0.988,-0.455,0.391,0.814
0.127,0.02,0.98,-0.044,-0.793017,-0.525076,-0.794627,-0.905417,-0.145897,0.566405,0.193829,-0.96505,0.943007,-0.863963,-0.333403,-0.457617,-0.137202,-0.61531,0.972296,0.46505,0.780049,0.219067,-0.257019,0.104987,0.854993,-0.73,0.677,0.84,0.688,-0.0789978,-0.621848,-0.566189,-0.492303,-0.285965,-0.722283,0.158721,-0.244099,0.501117,-0.948887,0.103773,0.75749,-0.32751,0.786652,-0.589074,0.926206,-0.26409,0.961345,-0.908894,-0.582402,-0.515872,-0.330797,-0.293577,-0.0649664,0.257116,0.401964,0.201,-0.054,-0.270969,-0.0757394,0.102301,0.14764,-0.0948204,-0.542712,-0.830005,-0.417481,0.612656,-0.000782076,-0.231469,0.756081,-0.505155,-0.71972,-0.631408,0.792692,-0.170232,0.56453,-0.530418,-0.189117,-0.898179,-0.80317,-0.32784,0.887273,-0.561454,0.400412,0.0939452,0.461,-0.698224,0.947369,0.442389,-0.30872,-1.0176,-0.374001,-0.942156,0.0974992,-0.524544,-0.970934,-0.149863,-0.318428,-0.209638,1.03636,-0.135957,-0.595196,0.628586,-0.90054,0.129415,0.666396,0.0423613,0.612071,-0.565611,0.324854,-0.6544,-0.0211646,0.525873,0.372,0.751284,0.0954214,-0.122898,0.204659,0.646365,-0.76634,0.400115,0.790211,0.887817,0.130253,-0.115092,-0.300583,-0.721522,1.12183,-0.761081,0.637921,0.358167,0.452979,-0.0189324,0.296457,-0.743808,-1.2156,-0.583533,0.367725,-0.546537,0.29319,0.0489457,0.234,-0.130169,-0.0620085,-0.521747,0.561397,-1.0902,-0.408497,-0.645711,0.0254522,0.304231,0.24458,-0.0632524,0.540926,0.411986,0.632354,0.737541,-0.544501,0.2926,0.647803,0.217847,0.686535,0.664333,-0.345257,0.196747,-0.590558,0.322907,0.292568,-0.567439,0.291,0.669758,0.375303,0.53577,0.325241,0.07157,0.414268,-1.19485,-0.591054,-1.08913,-0.839406,0.545411,0.683995,0.981081,-0.0563634,0.540989,-0.0845485,0.091173,-0.536737,-0.307168,0.0409701,0.299138,-0.767832,-0.952565,-0.656472,-0.427786,-0.346807,-0.386,0.031,0.827411,-0.964143,0.0264624,-0.861333,-0.969163,-0.111527,0.8182,-0.704516,0.675299,0.406686,0.475196,-0.378204,-0.710716,1.12512,-0.689369,0.256057,1.03155,0.00103016,0.35037,-0.868601,-0.304793,0.217538,0.478715,0.931212,0.466091,-0.601692,0.088,-0.331,0.527113,0.390436,-0.128875,-0.868486,-0.75506,0.171271,-0.915678,-0.849456,-0.0156611,0.770416,-0.823289,-0.758362,-0.367434,0.00983767,0.0995248,-0.0591566,0.536459,0.439326,0.483001,-0.387189,0.103176,0.70746,0.789786,-0.323705,-0.869065,-0.914755,0.852287,0.906,0.342478,-0.903524,-0.433296,0.361678,0.046266,0.127397,0.409278,-0.952727,-0.164112,-0.0659139,-0.251298,-0.0202555,-0.498276,-0.850613,0.660396,-0.91957,1.00944,0.00825383,0.549765,0.50855,0.455013,-0.61412,-0.119268,0.221687,0.739344,-0.19213,-0.0429473,-0.373,-0.47665,-0.846205,0.0107689,-0.142707,-0.0381571,0.0892228,-0.217155,-0.2011,-0.893555,0.606469,-0.313858,0.131983,-1.06045,0.547329,-0.215275,0.933663,-0.170919,0.0866358,-0.697809,0.184963,-0.639179,0.402576,0.198133,-0.183697,0.698464,-0.659969,-0.009,0.173,0.832646,-0.386383,0.402496,-0.127082,0.704603,-0.361818,0.609787,-0.848404,0.695178,0.547467,-0.227497,-0.228224,-1.03445,-0.930977,0.297725,0.907838,0.222284,1.04276,0.726122,-0.716118,0.840317,-0.352679,0.338095,0.332796,0.579138,0.346824,-0.983,-0.609,0.984601,-0.808635,-0.804383,-0.794201,-0.489106,0.141446,0.234075,0.460324,0.00385796,0.734764,-0.509565,-0.494136,-0.175943,-0.46142,0.0599484,0.104125,-0.0978543,-0.627571,0.581721,0.732927,0.234509,-0.366379,0.587469,0.713275,0.171358,0.694473,-0.208001,-0.824,-0.431791,0.996218,-0.404767,-0.660712,-0.839451,-0.975569,0.0428951,0.552062,-0.246164,-0.717994,0.449435,0.356007,-0.471414,0.0782596,-0.855201,-0.896955,-0.617488,-0.303729,-0.0701179,-0.085413,0.128488,0.782698,0.0686635,0.488495,-0.821002,-0.263874,0.89,-0.691945,-0.904101,0.268923,0.602285,0.0127981,0.88934,-0.302204,0.977202,0.350591,0.82396,0.170784,-0.749449,-0.957659,-0.659432,-0.090366,0.724551,0.17963,0.570714,0.145585,0.570184,-0.07507,1.06622,-0.616816,1.20862,0.958613,0.858597,0.683819,0.627285,-0.98459,-0.381012,0.591103,0.648099,-0.502297,-0.424841,-0.126356,-0.515238,-0.0325087,0.751001,-0.615571,-0.131495,-1.12842,-0.329944,-0.563257,-0.21133,-1.11407,0.169811,-0.596337,-0.354112,-0.238924,-0.667202,0.268078,1.00456,0.0563689,0.960502,0.976608,0.380053,0.309365,0.686268,-0.00807132,0.400265,-0.396765,0.783968,0.563452,-0.161488,0.0312993,-0.365023,0.165859,0.0707898,-0.641076,0.456117,-0.898941,-0.613576,-0.544948,-5.33049e-05,-1.18983,0.0250144,-0.688388,0.955127,-0.597413,-0.630427,-0.786223,0.802641,-0.462171,-0.674996,-0.790044,0.675983,0.904173,0.406771,-0.847692,0.935163,-0.108417,-0.466892,0.660577,0.307737,0.368274,-0.553244,-0.812755,0.832201,-0.803154,0.565164,0.755528,0.397085,-0.420399,0.0887029,-0.22219,-0.718719,-0.0190374,-0.374208,-0.26823,0.672231,0.275318,-0.69699,0.737065,-0.528179,0.377567,-0.430643,-0.782755,-0.153714,-0.778585,-0.403316,0.846443,0.922517,0.215107,-0.558376,-0.671209,-0.774401,0.800709,-0.0699879,-0.336627,-0.104137,0.3608,-0.782331,0.808422,0.0352785,0.125568,0.300614,-0.888095,0.425524,-0.00195911,0.478,-0.053,0.0214503,-0.768524,0.487817,0.14825,0.483291,-0.448641,-0.634743,1.05943,-0.138385,-0.837214,-0.248554,-0.125804,0.166071,-0.702969,0.699619,-0.191299,-0.604707,-0.544585,-0.703744,0.830158,-0.361212,0.125283,-0.853959,-0.0293336,0.673579,0.784239,-0.23,0.368,-0.92792,0.458009,0.727696,-0.754437,-0.885391,0.772111,-0.162698,0.400945,-0.116788,0.487655,-0.327395,-0.821037,0.77554,0.36099,-0.258918,-0.445302,-0.427568,-0.365156,-0.268027,-0.0319104,-0.241706,0.765858,0.761204,0.796988,-0.660045,0.786645,0.408,0.0473039,-0.272395,0.472101,0.238151,0.013881,0.523646,-0.274218,0.383509,-0.722146,-0.26037,-0.930754,-0.14315,-0.817317,-0.177427,-0.412339,0.79217,-0.417142,0.266778,-0.130143,0.348379,0.821492,0.145639,-0.929775,0.147101,-0.132121,-0.169477,0.336607,0.172,0.994561,0.0796665,0.621269,0.691183,-0.649324,-0.30268,0.378077,-0.468336,-0.397259,-0.798301,0.550684,-0.527669,0.183168,-0.377599,0.611776,0.653625,0.936502,-0.289686,-0.148447,0.316952,0.641644,-0.223186,-0.742722,-0.594863,0.236023,-0.0328026,0.329368,0.716,0.405967,-0.389216,-0.126161,0.516756,-0.311293,-0.318407,0.280327,0.839458,-0.266824,-0.543444,0.0746,0.0712388,0.617294,0.622357,-0.627894,-0.0821743,-0.660116,0.294051,-0.737139,-0.390262,0.594339,-0.984844,-0.0123396,-0.530253,0.155121,-1.01979,-0.970825,-0.401,-0.879059,-0.352072,0.407255,-0.103654,-0.749572,-0.19579,0.470197,0.119404,0.812711,0.0510111,-0.70356,-0.668853,0.918098,0.124061,0.520985,0.229162,0.7333,0.981913,-0.131737,-0.103563,0.379089,0.383295,0.0416971,0.272481,-0.577359,-0.962621,0.0688495,-0.611,0.335966,-0.897462,-0.967285,0.442249,0.324627,-0.129394,0.225782,0.289577,-0.943116,-0.492337,0.640834,0.655251,-0.921065,0.945231,-0.885436,0.445412,0.062418,0.75392,-0.83072,0.593204,-0.618697,-0.927688,-0.419624,-0.510513,-0.954689,0.258151,0.5369,-0.152,0.259,-0.842997,-0.818005,-0.337341,-0.517192,-0.261801,0.363849,-0.856445,-0.0720278,-0.658885,-0.415894,-0.535267,-0.754466,0.940517,-0.379266,-0.403229,0.255766,0.322787,0.407177,-0.0726194,0.858882,0.837403,0.454744,-0.115093,0.128102,0.622536,0.991997,0.67,0.574,0.23,0.738,0.25285,0.610764,-0.242172,0.987008,-0.712885,0.921079,0.75686,-0.824993,-0.21,0.419005,-0.861933,-0.835933,0.282066,-0.011984,0.408997,-0.931,-0.263,-0.002,0.711463,-0.319335,0.003,-0.304,1,0.384,-0.858
0.839,-0.959,0.023,-0.933004,0.883654,-0.277577,-0.0481097,0.0804729,-0.00502437,-0.262778,-0.0829495,0.706993,-0.0630054,0.423998,0.507974,0.775932,-0.350052,-0.790461,-0.877601,-0.924022,-0.926021,0.656992,-0.0210077,0.823986,0.228993,0.816,0.001,-0.871,0.497,0.171001,0.400017,0.191775,-0.699324,0.903098,0.959511,0.115209,-0.841195,-0.401301,0.835053,-0.332931,0.978522,0.0295626,0.087888,-0.199888,0.573589,-0.798323,-0.466065,0.0621805,0.798173,-0.553384,0.911546,0.219807,0.733104,-0.14506,0.366923,0.35,0.539,-0.851888,-0.87595,-0.103709,0.307477,-0.113852,-0.281625,-0.444665,-0.389889,0.74128,-0.953445,0.385864,-0.503198,0.0570175,-0.94576,-0.289778,-0.680072,0.710064,0.914106,0.56001,0.411743,0.575722,0.175193,0.786811,0.381916,0.766947,-0.0154783,-0.323031,-0.541,0.453634,0.228336,0.748358,0.786676,0.826468,-0.498207,-0.776208,0.250089,0.0570028,-0.946624,-0.210518,-0.207108,0.305218,-0.186624,-0.381327,0.980889,0.224688,0.210124,0.307388,0.955073,0.045279,0.973999,-0.112325,-0.366003,0.919963,0.500168,0.619957,0.592,-0.73481,0.778321,-0.586869,-0.623265,0.777675,0.634563,-0.735091,0.571865,-0.394577,-0.0120584,0.550925,-0.0169701,-0.0631837,-0.361422,0.358156,1.03337,-0.821781,0.392719,0.32662,0.802065,0.0422587,-0.237839,0.296116,-0.417305,0.029768,-0.723824,0.0919876,-0.235,0.795319,-0.791853,0.27746,-0.16053,0.569722,0.135666,0.336957,-0.0763341,0.0698662,-0.766017,0.0146937,0.380242,0.347686,-0.465465,0.820518,0.820775,0.541395,-0.35367,-0.492046,-0.596836,-0.226856,0.911298,-0.217516,0.0434001,-0.940495,-0.988909,0.374983,-0.992,-0.364219,0.608297,-0.465474,-0.273933,-0.23315,0.213869,0.051541,0.501213,0.663116,0.805287,0.722361,-0.691314,-1.05962,-0.515731,0.183238,-1.09534,-0.657791,-0.230195,0.148655,0.492964,0.744422,-0.672291,0.588056,0.935779,0.868177,0.353011,-0.534,0.348,0.531629,-0.13852,0.639792,-0.810905,-0.74567,-0.457754,-0.719072,0.988603,0.108963,0.716174,-0.581709,-0.276374,-0.452226,-0.201531,0.00242524,-0.898496,0.704539,0.429692,0.291538,-0.436968,0.834569,-0.337958,-0.0710773,0.119302,-0.852145,-0.0208577,-0.872,-0.775,0.0274801,-0.213705,0.664169,0.504538,-0.369221,-0.471282,0.16407,-0.652728,0.682681,-0.823417,-0.798608,0.483534,-0.761563,0.731476,0.332144,-0.180798,0.690579,-0.786465,-0.00327324,0.388829,0.761701,0.0502721,0.692546,0.0403391,-0.529808,0.629328,-0.798376,-0.12,0.600194,-0.410098,-0.407451,-0.784375,0.00443809,-0.514542,0.773921,0.195116,0.287331,0.0797404,0.0733269,0.117146,0.352484,-0.838621,-0.838354,0.373769,0.724356,-0.338513,0.457437,0.549992,0.00303771,-0.11643,0.719713,0.559009,-0.834058,0.74595,0.152887,-0.102,-0.604303,0.844586,-0.234585,-0.827116,0.382421,0.256366,0.0845035,0.593179,0.521763,-0.577829,-0.477669,1.09126,-0.106574,0.634533,0.844374,-0.589808,-0.485636,-0.686558,-0.0959827,-0.376115,-0.779661,-0.0728906,-0.700142,0.788321,0.664254,0.953392,-0.662,-0.948,-0.47651,-0.711014,-0.398855,0.182184,0.552002,0.052459,-0.775461,0.466987,-0.565226,0.670077,0.0600091,0.941398,0.846751,0.930633,-0.7691,0.666918,0.411233,-1.19394,0.420602,-0.932742,-0.840467,0.419778,-0.714096,-0.749422,0.894359,-0.510598,-0.729,0.96,0.636638,-1.02299,0.41049,-0.495219,0.00034014,-0.33777,0.89357,0.603162,0.668821,-0.349059,-0.416176,-0.127916,-0.465359,-0.619626,-0.542902,-0.966806,-0.34218,-0.18351,0.163521,0.00297139,-0.868811,0.165777,-0.0466865,0.507672,0.71974,-0.222203,0.782991,0.765,-0.142204,-0.836723,0.335345,-0.658396,0.111122,-0.306968,0.517763,0.963647,0.875939,1.17007,0.183821,-0.364531,0.582446,-0.234566,-0.955508,-0.256881,-1.13995,-0.114998,-0.264948,-0.360262,-0.843467,1.07005,-0.106492,-0.0185347,-0.805458,0.0867393,0.815,0.778,-0.964086,-1.04962,-0.0446874,-0.28445,0.402493,0.0983241,0.177865,0.418951,0.625743,-0.705052,0.778809,-0.6122,-0.367351,-0.717939,0.923813,-0.430973,0.055875,0.252394,0.729255,0.267086,-0.0338342,0.207066,0.432718,0.136378,-0.574523,-0.28798,-0.371001,0.638901,-0.626024,-0.542138,-0.744851,0.355918,-0.70595,-0.932998,-0.0124291,-0.0323516,0.570849,0.195184,-0.107103,0.0740824,-0.653045,-0.377994,-0.852702,-0.169679,-0.0855232,0.302172,0.98139,-0.636683,0.60178,0.974029,0.533592,0.286429,-0.265261,-0.567352,-0.962,-0.582362,0.596893,0.136432,-1.25665,0.794244,0.0669087,0.607614,0.878958,0.649495,0.0795128,-0.092422,0.601256,0.609632,-1.11486,0.701083,0.937271,-0.102645,-0.281442,0.46758,-0.0979661,-0.653121,1.13526,-0.594904,0.738318,0.602406,0.906127,-0.385226,-0.519003,-0.456173,-0.70969,-1.10553,0.268601,0.0233173,-0.512064,-0.361368,0.563617,-0.886805,0.837468,-0.896808,-0.524335,0.516195,0.943144,0.683998,0.165842,0.20998,0.0448532,-0.782188,-0.757348,1.08158,0.941626,0.14809,-0.180709,0.687194,1.02464,0.926431,0.744994,-0.44706,0.478375,0.153063,-0.206055,-0.951751,0.875725,0.603008,-0.671438,-0.821758,-0.702646,0.0921689,-0.587016,-0.292309,0.414767,-0.604963,-0.535741,-0.223098,0.0895664,-0.543545,0.672985,0.523252,-0.84658,-0.545577,1.0389,-0.469052,-0.0834056,-0.260736,-0.397,0.013,0.170443,-0.156535,-0.276235,0.491236,-0.974221,0.00274427,0.839384,-0.623142,-0.316595,0.631539,0.452293,-0.832067,0.750485,0.837109,0.0309405,-0.815063,0.702683,-0.57159,0.884337,0.641306,-0.863188,0.95596,-0.0468867,-0.333679,0.139087,-0.596184,-0.343,-0.274,-0.244126,0.0503167,0.70035,-0.389107,-0.354995,0.625171,0.0691489,-0.727418,0.564473,-0.320994,-0.121591,0.783104,0.22995,0.474992,-0.0984155,-0.252429,-0.124107,1.20843,-0.728393,0.841879,0.258,-0.332095,0.807687,-0.57692,0.805263,0.0236673,-0.057,0.849997,-0.712309,0.915845,0.774398,-0.67275,0.0216439,0.833238,-0.734574,0.0595582,0.311566,-0.025321,0.417516,0.0472417,0.151673,-0.680703,-0.403702,1.03378,0.524004,0.44916,-0.692384,-0.760619,0.667304,1.11055,-0.567858,0.876579,-0.607861,-0.592807,0.16,0.753983,0.781459,0.834609,0.0149653,-0.914527,0.304512,-0.171783,-0.398559,0.625468,-0.786927,0.200774,0.986083,-0.377224,-0.183243,0.526332,1.04281,0.131765,-0.385999,0.579354,-0.695478,0.950499,-0.294461,-0.694613,0.204821,-0.950146,0.717447,-0.797322,0.402,-0.587019,-0.52453,-0.470582,-0.398809,-0.417492,-0.222722,0.137257,0.120064,0.926129,1.0093,0.94006,0.370117,-0.488898,-0.195043,-0.526167,0.456852,0.00949068,-0.707578,0.171775,-0.435987,0.233927,0.84424,0.251413,0.296025,-0.445229,0.779044,-0.203569,0.765,0.402967,-0.152487,-0.0831971,-0.000365301,1.02541,0.441957,0.399215,-0.830684,-0.363285,-0.464339,-0.924616,0.968719,0.376184,0.215982,-0.810558,0.588862,-0.880061,-0.397218,-0.60568,-0.188368,-0.496184,-0.332132,0.849503,-0.630407,0.823778,-0.69677,0.34275,-0.966,0.150981,-0.689906,0.26571,-0.0971181,0.373467,0.438441,0.761715,-0.842349,-0.784801,-0.0675645,0.910294,0.039335,0.827735,-0.651184,-0.21991,-0.113368,-0.681734,0.635974,-0.587254,-0.453138,-0.407775,-0.0037265,0.764765,0.688658,0.231702,0.646245,-0.468739,-0.96,0.444,0.408994,-0.884699,0.183585,0.56639,-0.792669,0.681139,0.865801,-0.955209,0.643339,0.00510022,-0.799212,-0.044874,-0.348944,0.601447,-0.0475344,0.842971,-0.23625,-0.324013,-0.873159,0.105754,-0.987052,-0.292079,0.943524,0.278184,0.054704,0.502025,0.071,-0.254,-0.883,-0.48,0.295944,-0.740267,0.266913,-0.26701,-0.871638,0.725012,-0.821891,-0.63,0.668,-0.87,0.227034,0.237032,0.0959968,-0.530001,0.613,0.112,0.371,0.487,-0.672072,-0.12501,-0.064,-0.525,0.562,-0.033,-0.807
0.652,-0.227,-0.221,-0.254989,0.702086,-0.570295,-0.481538,-0.386868,0.378603,0.344351,0.295182,-0.72398,0.54801,0.387025,-0.473807,0.0282142,0.44326,0.0126449,0.810194,-0.937041,0.142965,-0.174996,0.0130026,-0.722992,0.173004,-0.168,-0.669,-0.304,-0.86,-0.561999,-0.461892,-0.332454,0.686761,0.997138,-0.840786,-0.921695,-0.24834,0.302923,0.403132,-0.322813,-0.41161,0.978526,-0.897643,-0.733512,-0.377162,0.54659,0.610659,-0.984669,-0.678089,0.876318,0.929552,-0.910655,0.804164,-0.497369,0.976011,0.054,-0.877,0.100038,0.850948,0.447922,0.244664,-0.768509,-0.377854,-0.206759,-0.355725,-0.102391,-0.774104,-0.719999,-0.889813,-0.0614025,0.379816,0.35792,0.397851,-0.0856531,0.727571,0.12095,-0.65291,-0.82651,0.858578,-0.281632,0.52836,0.987922,0.82907,-0.144,0.753,0.71227,-0.956886,0.90994,-0.485084,-0.391477,-0.70693,0.591625,0.532628,-0.465136,-0.109336,0.343772,-0.672447,-0.057998,-1.10176,0.278042,0.711577,-0.82497,-0.963052,-0.0168785,0.648757,0.385924,0.501039,0.0314545,-0.616557,-0.0406531,0.169661,-0.583011,-0.922,0.233588,-0.112666,-0.418357,-0.590022,0.650948,0.317607,-0.26854,0.960839,-0.667404,0.363727,-1.17118,-0.993709,-0.178667,0.547249,0.34949,0.660314,-0.539394,-1.18423,-1.06253,-0.444439,0.509851,-0.294853,-0.65751,-0.199996,-0.349583,-0.127542,-0.356007,0.969,0.189676,-0.80377,-0.709958,-0.554795,-0.00976792,0.44907,0.986749,-1.03106,-0.0391164,-0.0551836,-0.000669775,0.681643,-0.896007,-1.19587,-1.18878,0.0940401,0.464501,-0.980886,0.738748,0.804967,-0.452373,0.756486,0.315871,-0.692806,0.348297,-0.0216584,0.977993,0.22,0.397965,0.906691,-0.547009,-0.231869,-0.82547,0.983827,0.822612,-0.7201,-1.0546,-0.471929,-0.327601,-1.04393,0.631167,-0.482291,-0.964336,-0.000540392,-0.0757961,-0.284146,0.23368,-1.02031,0.374379,0.865472,-0.171883,0.0316991,-0.927235,0.559704,0.37,0.414,-0.436377,-0.748073,0.89599,0.878559,1.09841,0.0896888,0.40644,-0.562478,-1.01491,-0.476888,-0.162311,0.464523,0.153342,-0.533111,-0.206798,-0.809582,0.229755,0.819064,-0.205287,-0.640871,-0.56087,0.149465,-0.76582,-0.708192,-0.108194,0.357385,0.03,-0.515,-0.551846,-0.190195,-0.310671,-0.297965,-0.551322,1.06831,0.365231,-0.326513,0.0501635,0.410421,-0.526334,-1.22027,-1.11606,0.572369,-0.733978,-1.0346,-0.382459,0.741103,0.271162,-0.965567,0.0407071,0.13815,-0.390443,0.550414,0.606087,0.383536,-0.947964,0.079,0.490878,-0.4978,-0.834839,0.320797,0.97747,-0.52595,0.465907,0.662712,0.643959,-0.257797,-1.14359,0.71395,0.519279,0.00454735,-0.322434,-0.951244,-0.268902,0.0237574,-0.74995,-0.869214,0.327154,-0.656221,-0.438202,0.924118,-0.829243,-0.170281,0.590954,0.622,-0.612877,0.411565,1.03641,0.753499,-0.840461,0.0120287,0.173029,-0.745734,-0.914854,-0.584239,0.216048,-1.03338,-0.357166,-0.557627,-0.283937,-0.870586,0.260857,0.313288,1.00901,-0.561694,0.540299,-0.550137,-0.00605627,-0.0745294,0.392055,0.172825,0,-0.606,0.65908,-0.274093,-0.324176,0.766271,-0.612799,0.606041,-0.450008,0.908407,0.334598,-0.647974,-0.234724,-0.33297,0.969833,0.158069,0.363766,0.84452,-0.277753,-0.358148,1.11297,-0.694686,0.287316,0.816552,-0.791897,0.672785,0.306893,0.496269,0.934,0.109,0.483926,-0.893593,0.259107,-0.470554,-0.773099,0.563701,0.880575,-0.790094,-0.0730853,-0.950879,-0.879463,-0.843893,-0.11067,0.998205,-0.357331,0.574564,-0.182114,-0.460719,1.09245,0.346791,0.0794319,-0.222092,0.0147563,-0.661365,-1.02765,0.198627,-0.275008,-0.104,-0.932351,-0.861556,-0.324577,-0.683068,-0.0417553,0.415789,0.658205,0.653187,0.326614,1.07508,-0.18122,1.21058,-0.793528,0.1103,0.172941,-0.115874,0.408221,0.447632,0.917333,0.0380854,-0.0266402,-0.16445,-0.92302,0.767272,0.475493,0.349774,0.482,0.902985,0.746643,-0.0508098,-0.0127778,-0.813857,-0.712602,0.361289,0.922533,0.613817,0.633954,-0.383699,0.396995,-0.4948,-0.700626,0.51616,-0.839193,-0.742531,1.00747,-0.327406,-0.693844,-0.093084,-8.527e-05,0.623145,0.978757,-0.6394,0.225212,0.116244,-0.343077,-0.295074,-0.267232,-0.818059,-0.302962,0.0560524,-0.403983,-0.606914,-0.69384,-0.152897,0.334841,-0.424597,0.33507,0.0568362,-0.811648,0.591749,0.411884,-0.49107,0.179946,-0.000620174,-0.423562,0.256373,-0.247948,-0.816292,-0.943958,0.545579,-0.716311,0.868409,-0.797014,-0.971963,0.312105,-0.52802,-0.353999,0.631052,0.249426,0.221327,0.852342,-0.486112,0.551445,0.474486,0.469746,-0.4873,-0.235419,0.670585,0.716256,-0.0764718,0.434688,0.0960767,-0.910034,0.418439,-0.8237,0.228493,0.872139,-0.163324,0.342769,-0.759041,0.391,0.377994,0.467282,0.711728,-0.632831,0.209655,0.334781,0.722947,0.154194,-0.12569,-0.00260201,0.246093,-0.820594,-0.958577,-0.343039,0.703764,-0.785568,-0.618147,0.87898,0.222362,0.274789,-0.194589,0.905604,0.664676,-0.543686,0.401174,0.23173,-0.0673818,-0.0389993,0.716002,-0.0646396,0.0711676,-0.47897,0.279674,0.13362,0.0985846,-0.479551,0.592722,-0.621856,0.680132,-0.128047,0.679446,0.846448,-0.710923,-0.678346,-0.887566,-0.815049,0.628037,-0.383419,0.524683,0.418248,0.87738,0.152177,-0.582504,-0.66571,0.523119,-0.414,-0.384,0.0533431,0.903228,-0.360231,-0.842797,-0.63136,0.223624,0.228796,0.357891,-0.90414,-0.268566,-0.10396,0.375749,-0.553926,0.80703,-0.019369,0.466863,-0.15625,-0.875526,-0.0775307,0.58945,0.0436103,0.112672,-0.787981,0.452547,0.786097,-0.833473,-0.254,-0.9,-0.584917,0.875749,0.476813,-0.788891,0.75188,-0.66542,-0.879392,-0.4707,0.612809,-0.206662,0.141983,0.670007,-0.452945,-0.2856,-0.359884,-0.169423,-0.431581,-0.936457,0.585445,-0.305548,0.703473,-0.471691,-0.945544,-0.151125,-0.472258,-0.281706,0.763,-0.371001,0.474188,0.00235939,0.216721,0.0111407,0.848955,-0.353585,-0.585421,-0.757631,-0.938853,0.934395,-0.737641,0.17175,0.487687,-0.715744,-0.995227,0.790227,-0.295111,0.162,-0.0563444,-0.675152,0.703306,-0.913913,-0.391759,0.0932806,-0.294714,0.0103293,-0.371,-0.143007,0.513346,0.791625,1.02048,0.922434,-0.507291,0.354887,0.451162,-0.725538,-0.477957,-0.158271,0.696454,-0.769792,0.260533,-0.910342,0.368111,0.702281,0.822005,0.115059,-0.600578,0.138662,0.0637793,0.888103,-0.879305,0.379729,-0.558765,-0.561638,-0.411,-0.325,0.963025,-0.7932,-0.209261,0.517077,-0.312671,0.925512,-0.954633,-0.718847,-0.178803,-0.0273584,0.846914,-0.162342,0.140865,0.790742,-0.21247,-0.536196,-0.430487,-0.0722478,0.794044,-0.770372,0.117978,0.339224,-0.401105,-0.92385,-0.538926,0.890937,-0.409,0.594,-0.988383,-0.173566,0.821692,0.593792,0.0592071,0.714075,-0.412042,-0.937443,-0.424081,0.136359,0.182937,-0.626856,0.215474,0.511063,0.406847,-0.434572,-0.958684,0.37452,0.609406,-0.569039,-0.26108,-0.706645,-0.227056,0.044921,-0.0978949,0.34093,-0.495,-0.531,0.393975,-0.765156,-0.502578,0.394742,0.00376848,-0.165615,0.832102,0.942731,0.618886,0.0311408,-0.437265,-0.282418,0.154771,0.361965,-0.413927,0.716633,-0.266229,0.0621172,-0.409742,-0.777562,0.925023,0.715435,0.180894,-0.0729683,-0.836931,0.241939,-0.328,-0.794,-0.344974,-0.680199,0.683969,0.303472,-0.207023,0.716024,-0.0174617,0.195206,0.942035,0.817034,0.569707,-0.371211,-0.339667,0.661595,0.0484786,-0.0691278,0.560288,0.105692,0.293854,-0.613733,-0.625193,-0.105859,-0.933406,0.501253,-0.902096,-0.636011,-0.883,-0.273,-0.866,0.092,0.995918,-0.298117,-0.0240855,0.318995,0.678771,-0.237995,0.195038,0.640008,-0.043,0.673001,-0.0599855,-0.564986,0.495014,-0.374996,-0.975998,0.553,0.002,0.223,-0.38345,0.90607,-0.546,0.89,-0.079,0.385,0.418
-0.033,0.515,-0.469,0.504002,0.994259,-0.453299,-0.925833,-0.287862,-0.414791,-0.839615,0.105998,-0.289962,0.508005,-0.321977,-0.624981,-0.252538,-0.340393,-0.165139,0.580824,0.666385,-0.148583,-0.208606,0.340022,0.741005,0.110002,-0.192,0.948,-0.603,-0.031,-0.991003,0.123998,-0.560163,0.726734,0.889617,0.064694,0.348205,0.101756,-0.849079,0.696627,-0.235125,0.865861,-0.796605,-0.00712905,-0.552757,0.302765,-0.53587,0.469192,0.903113,-0.985124,-0.665149,-0.243496,0.457358,0.544815,-0.172486,0.119984,0.304,0.884,0.295994,-0.472842,-0.676287,0.456713,0.568581,-0.823931,0.346664,-0.323947,0.893782,0.934261,0.925752,0.176444,-0.432816,0.303922,0.628393,-0.813892,0.0902277,0.0883682,-0.467909,0.760449,0.789262,-0.595191,0.167116,0.187454,-0.11566,0.377672,0.497006,-0.326,0.741148,0.220545,0.907831,0.633935,-0.604725,-0.758287,0.762249,-0.493587,0.77356,0.692424,0.828073,-0.239463,0.951706,0.551153,0.954924,-0.871676,0.977652,1.02718,-0.0751307,0.0125702,-0.447311,-0.358595,-0.331707,-0.233714,0.302515,0.231033,0.359007,-0.986,0.00612601,-0.351477,0.0502421,0.127855,0.954894,-0.736875,-0.122898,0.0111918,-0.626142,-0.66567,-0.870176,0.690807,0.202408,1.09585,0.611369,0.814207,-0.494084,-0.68356,0.41388,0.249553,-0.714781,0.248845,-0.800771,0.611447,-0.75595,-0.0765538,0.567001,0.891,-0.868311,-0.459248,0.564648,0.381398,-0.0610527,-0.723289,0.188049,0.522587,0.844303,0.0595865,0.399812,0.609428,0.177755,-0.887435,-0.955214,-0.615665,0.789403,-0.0490245,-0.46125,1.06254,0.226198,0.639301,0.574708,-0.496597,-0.706996,-0.368887,0.025111,-0.068,-0.0466331,0.875527,0.565209,-0.703996,-0.445,0.393338,0.984537,0.252657,0.639442,-0.660579,-0.220467,0.183804,-0.745056,0.213672,-0.443616,-0.866774,0.309929,0.39876,0.397002,-0.139852,0.124807,-0.78295,0.216059,-0.393239,-0.843865,-0.0326645,-0.383,0.584,0.485852,0.29161,0.987983,-0.399368,-0.566867,0.608723,0.446049,-0.303484,0.89281,0.881261,-0.0610275,0.148281,-0.251786,0.789369,-0.494917,-0.280308,0.401052,0.92527,-0.68798,0.901252,-0.564852,-0.0272613,-0.341121,0.657889,-0.298361,-0.435914,-0.752,-0.732,-0.628078,-0.465435,-0.725118,0.0268318,0.689875,0.353686,0.752052,-0.663281,-0.67525,-0.686558,0.902678,0.516841,-0.434782,0.365134,-0.350769,-0.413702,-0.431302,0.752242,0.362524,-0.714039,-0.487652,0.084469,-0.310093,1.01155,-0.677301,0.0681392,-0.653,0.9,0.615171,-0.912576,-0.64885,0.160774,-0.776631,0.565113,0.574259,0.579443,-0.475746,-0.180166,0.701164,0.816729,-0.430709,0.547846,0.112251,-0.0514003,0.348172,0.780938,0.94537,0.0849867,0.693038,0.880242,0.515136,0.658742,0.0443266,-0.280799,-0.329,-0.509,-0.298682,-0.0158919,0.164011,-0.189733,0.431722,-0.0849224,-0.929433,-0.0440477,0.0795113,0.658426,0.131297,-0.12048,-0.0670442,0.0648146,0.830048,1.04171,0.160283,0.873635,-0.807964,0.820591,0.953112,0.685643,-0.640653,0.333928,0.921606,0.709461,-0.296,-0.8,0.0964833,-0.618046,0.931334,-0.0321627,0.170896,0.24087,-0.398127,0.509873,-0.711249,-0.472376,0.709787,-0.970391,0.651053,0.887183,0.360035,-0.762178,-0.0535991,-0.479314,0.585676,-0.275197,0.260515,1.10751,0.978406,1.03754,-0.146916,-0.615816,-0.323,0.464,-0.620652,-0.492488,-0.976418,-0.178624,-0.656061,-0.878859,0.215375,-0.751407,0.941677,0.615111,0.255411,0.83206,0.612224,0.841678,-0.313951,0.781107,-0.29822,0.134523,-0.641597,0.792724,0.672717,1.02886,-0.183136,-0.904742,-0.245637,0.364605,-0.988998,0.769,0.832809,0.00403209,-0.590713,0.132716,-0.381997,-1.0316,-0.280126,-0.380636,-0.948874,0.293573,-0.74231,0.835599,0.182221,-0.943487,-0.152447,-0.24116,-0.962211,0.21475,0.0117366,-0.937537,-0.443922,-0.230304,0.49126,0.389453,0.457206,-0.862666,-0.648,-0.468002,-0.894741,-0.952877,0.740318,0.717545,-1.04706,-0.71222,0.758987,0.365996,1.0083,-0.262372,0.356158,-0.112838,0.762095,0.714413,-0.518791,-0.176845,-0.130681,-1.07716,-0.831045,-0.426817,0.76572,0.607978,0.786529,0.692423,-0.0605519,-0.550491,0.122992,0.780992,-0.324756,-0.0414651,0.0462756,-0.937227,0.431812,0.433275,-0.501091,0.756982,0.935206,0.807761,-0.647019,-0.64125,-0.299843,-0.606597,-0.493292,-0.85774,-0.569846,0.399514,-0.632742,-0.0696736,-0.713298,-0.408588,0.842246,-0.384946,-0.614538,0.390775,-0.700001,0.0350013,0.788167,0.67532,-0.722688,-0.0297617,-0.58593,0.606825,1.01039,0.343969,-0.628845,-0.344678,0.0249845,-0.236201,-0.653936,0.0659774,-0.696233,-0.850967,-0.702736,-0.77918,0.955421,0.089047,-0.0703419,-0.398578,0.75493,0.0291533,-0.172443,-0.231249,0.870999,-0.771997,-0.588225,-0.81969,-0.452898,0.53084,-0.587319,0.0872418,-0.241507,0.37515,0.777628,-0.849258,0.7424,-0.266762,-0.414764,0.0346384,0.427376,0.89156,-0.0879587,0.551119,0.515126,0.0221651,-0.437014,0.054903,-0.426231,0.47818,-0.370286,0.182119,-0.0790002,-0.247026,-0.868442,0.376461,0.397204,0.591107,1.07583,0.249195,0.23558,0.272521,0.774273,-0.921855,-0.324314,-0.996032,0.777061,0.219249,0.256602,0.944642,0.694972,-0.0682702,0.640429,-0.0511674,0.680581,0.258363,0.422212,0.372354,-0.711713,0.486047,-0.056,-0.16,0.737109,-0.0679151,0.360603,0.24255,0.0993683,-0.675542,1.08607,-0.288162,0.416001,0.375246,-0.939261,-0.221795,-0.415647,-0.646122,-0.390907,0.652211,0.105228,-0.613422,-0.429805,-0.752672,-0.0460505,0.743884,-0.781762,-0.416755,-0.452522,-0.780267,-0.859,-0.798,0.0998038,0.806498,0.89132,0.105872,-0.400134,-0.799044,-0.195862,0.583413,-0.597969,-0.695041,-0.584461,0.824474,-0.0873919,0.733931,-0.103465,-0.554612,-0.386157,0.584934,-0.87024,0.128971,0.667734,0.408536,-0.171655,0.948135,-0.497497,-0.61463,-0.942,-0.989173,0.809264,-0.562159,-0.70377,0.510763,0.669767,-0.515463,-0.594063,0.0922847,0.453273,-0.987722,0.808496,0.0170307,-0.720897,0.612973,-0.68342,0.698675,-0.708637,-0.554304,0.587444,-0.162492,1.00739,-0.518137,-0.674727,-0.423881,0.236244,-0.364831,-0.546,0.056111,-0.201116,0.633527,-0.805673,1.0176,1.01289,-0.266298,-0.648648,-0.597892,-0.0272384,-0.280692,0.356366,-0.970638,0.400603,-0.568129,-0.270366,0.719569,-0.15142,1.02523,0.757081,-0.2252,-0.0605714,0.612819,-0.291496,-0.157288,0.323897,-0.378807,0.091,-0.591996,-0.715892,0.612781,-0.666168,-0.395642,0.883821,0.107954,-0.571685,0.62385,-0.177524,0.612753,0.983554,0.0638647,0.0638328,0.0373881,0.618483,-0.847211,-0.871358,-0.739042,0.4239,-0.913008,0.256943,-0.883623,0.0575926,0.818953,-0.179786,-0.857588,0.455,-0.313994,-0.799965,-0.712359,-0.484688,-0.0798654,-0.399541,-0.812856,0.851883,-0.922877,-0.755777,-0.945976,-0.0912746,-0.174486,0.376929,0.559136,0.0537056,0.783602,0.358385,0.703916,-0.977484,-0.82315,0.954313,-0.573937,-1.01037,0.615268,0.682797,-0.506796,0.304,-0.178996,-0.0691231,-0.379377,-0.531438,-0.635342,1.02396,0.399432,0.278744,0.173973,-0.779493,-0.514187,-0.237179,-0.208681,-0.879277,-0.759753,0.365884,-0.918936,-0.904948,-0.220595,0.695855,0.812694,-0.515392,-0.655771,-0.30229,0.50777,-0.242638,0.252925,0.881,0.153,0.858972,0.717738,-0.481785,-0.316883,0.460826,-0.975946,-0.313976,-0.802109,-0.840285,0.089051,-0.330884,-0.918809,-0.887264,0.169455,0.828893,0.43416,-0.20068,-0.266731,0.0117782,-0.667632,0.194582,0.783834,0.245797,-0.948919,0.0702653,-0.517978,0.754,-0.96,-0.09,0.15,-0.313091,-0.671884,-0.580101,-0.962034,0.429821,-0.856058,0.22014,0.657997,0.899,-0.966,0.448998,0.176998,-0.909001,-0.311,0.209,0.654,-0.242,-0.447,0.607016,-0.658998,0.944,0.263,-0.406,0.036,0.795
0.9,0.031,0.992,-0.812014,0.590671,-0.953763,-0.866325,-0.243911,0.262114,0.51082,0.390981,-0.161001,0.192033,-0.85015,0.718665,-0.285877,-0.558811,-0.959602,-0.156464,-0.405772,-0.997795,-0.790881,0.505967,0.0760001,0.828,-0.468,-0.859,-0.071,0.244,-0.270004,0.533781,0.831282,0.132064,0.571762,0.0810336,-0.605106,-0.581865,0.749396,0.0374853,0.342527,-0.0800652,0.454472,0.881044,-0.262138,0.638489,0.102892,0.270989,-0.474472,-0.518298,-0.924136,-0.676192,0.795852,0.73604,-0.929725,-0.69494,-0.77,-0.818,0.684908,0.0161113,-0.567562,0.707343,-0.671755,0.0217841,0.263358,-0.582486,-0.740192,0.876394,-0.849864,0.645513,-0.310437,-0.736845,0.471591,-0.621789,-0.255349,-0.487559,-0.674591,0.68744,0.144611,0.169033,0.393935,0.359613,0.132213,-0.556608,0.362996,-0.346,-0.646247,0.0236191,-0.671205,0.908061,-0.649482,0.451441,-0.263375,-0.652243,0.116034,-0.00248188,-0.969534,-0.434566,0.348233,-0.934837,0.5021,-0.913286,-0.352855,-1.04658,0.746463,-0.546488,0.122363,0.128104,0.822453,-0.0881581,0.814602,0.293473,-0.214979,0.36,-0.53757,-0.157897,0.0643754,0.594807,0.359541,-1.054,-0.770897,-0.105409,-0.870355,-0.362356,-1.09174,-0.777546,0.227344,-0.377598,-0.179787,0.00239883,-1.04593,-0.986691,0.796791,0.533317,-0.213265,-0.0973106,0.103683,-0.266827,-0.779613,0.613368,-0.181985,-0.039,-0.767286,0.588071,-0.459476,-0.301741,-0.617316,-0.432826,0.351532,-0.00892603,-0.0758417,0.0760038,-0.303682,-0.974934,0.755145,-0.160144,-0.222096,-0.370825,-1.04684,-0.0874797,0.722235,0.418074,-0.76816,-0.592608,-0.175446,-0.657699,-0.170724,-0.443915,-0.21555,-0.294,0.904512,0.848114,-0.0752263,-0.89402,-0.35962,-0.6491,0.40274,-0.909824,0.546764,-0.118031,-0.39092,-0.603787,0.712675,0.354449,0.279217,0.430063,-1.24692,0.22217,0.777997,0.708216,-0.244975,0.357269,0.121262,-0.281301,-0.220701,0.641746,-0.087,-0.668,-0.597713,-0.359826,-0.264123,-0.206013,-0.58347,0.267316,-0.484433,0.314256,0.307367,-1.08819,0.017268,0.850728,0.22765,0.174127,-0.0885817,-0.0332848,-1.14181,-0.60496,-0.102495,-0.948542,0.0411818,-0.38096,-0.129577,-0.646625,-0.0743424,-0.12008,0.192,0.493,-0.529267,-0.480564,0.326843,-0.441164,-0.989843,0.0333379,-0.478823,0.764418,-0.340611,-0.636732,-0.0790016,0.0044366,-0.435373,-0.0598354,-0.497421,-0.57411,-0.680254,-0.0768095,-0.0143972,-0.233725,-0.69638,-0.217503,-0.404275,-0.422361,0.372488,0.949868,-0.0933395,0.936,0.241029,0.188341,-0.122618,-0.53417,0.289559,0.378035,-0.616449,-0.290559,-0.830636,-0.212941,0.272012,-0.110054,-0.323778,0.900048,-0.212158,-1.03705,0.175403,-1.09297,0.220831,-1.04478,-0.40809,-0.346793,0.341947,-0.929552,-0.263604,-0.423653,-0.693855,0.926,-0.331267,0.676824,-1.0435,0.0445794,0.501872,-0.557668,-0.26848,0.88459,-0.33791,0.0335885,0.52339,-0.375895,1.03677,0.0222224,0.505458,-0.820046,-0.8233,0.0667493,0.105021,0.455591,0.689391,-0.430235,0.00706683,-0.242297,0.288563,-0.380004,0.196,0.67,0.890477,0.193922,-0.178943,0.497393,-0.174375,0.564793,-0.771028,-0.194419,-0.323343,0.420929,0.942791,-0.0144418,-0.101598,0.129591,-0.668406,0.0554353,0.158878,-0.819083,-1.22265,0.483106,-1.01423,0.403522,-0.754527,-0.633388,-0.386,0.532754,-0.188,-0.706,0.470437,-0.95935,-0.299563,-0.405265,-0.155704,-0.243472,-0.669798,0.379142,-0.195937,-0.114682,-0.000298048,-0.285758,1.1221,1.01655,0.0417073,-0.174584,-0.361357,-0.869609,0.476572,0.79201,-0.439856,-1.09162,0.121498,0.0476777,-0.4027,0.021649,0.15399,0.978,-0.658149,-0.877745,-0.591479,0.835236,-0.53546,-0.311745,-0.210656,0.118873,-0.369757,0.728443,-0.285913,0.800421,-0.47455,-0.598715,0.704836,0.495613,-0.866584,-0.611193,-0.867807,-0.154172,-0.904385,0.347433,-0.183787,-0.616036,-1.02826,-0.792982,0.566,0.505004,0.145619,-0.0341473,-0.64617,0.0056758,-0.761755,-0.656344,0.335914,-0.956307,-0.841149,0.323505,0.728952,0.15665,-0.0347112,0.777464,0.732817,0.146112,-0.729511,-0.769514,0.47363,0.701593,0.595395,-0.828631,-0.802669,0.346528,-0.585655,-0.371883,-0.688979,-0.0647787,-0.912637,-0.556374,0.731635,0.285641,-0.419964,0.668475,0.758088,0.683865,-0.21193,-0.00803382,-0.118836,-0.401375,0.535697,0.291987,0.0317516,-0.42584,0.543063,0.788283,-0.829589,-0.0553235,0.626413,0.471026,-0.317772,-1.06255,0.497923,0.231036,-0.712996,-0.672272,-0.692453,0.533022,0.319512,-0.155917,-0.659352,0.197579,0.0248915,-0.607219,-0.341859,0.329095,0.437204,-0.209377,-0.538412,-0.805497,0.753081,0.641327,0.949936,0.824868,0.225254,-0.898501,-0.133606,0.591386,-0.00217472,0.215042,-0.470516,-0.419575,0.459994,-0.342659,0.607988,0.350324,0.578135,0.45857,0.480238,-0.326018,-0.703091,0.289693,0.342143,0.0355924,0.0319885,-0.223525,0.914134,-0.360439,-0.405746,0.681513,-0.250559,-0.421765,-0.00431996,0.352421,0.754698,-0.894151,0.890513,0.557451,0.0131227,0.87813,-0.929031,0.910021,-0.0136327,0.765352,1.01758,0.579618,-0.33666,-0.45498,0.32665,-0.924416,-0.92039,-0.0955127,-0.707095,0.999925,0.568147,0.946115,0.478355,1.01134,1.06904,0.866292,0.714889,0.610664,-0.152598,-0.0366422,-0.277866,-0.087562,-0.354124,-0.752467,0.552,-0.242,-0.34962,0.292935,-0.661245,0.690447,0.813009,0.89117,0.526288,-0.737692,-0.596816,0.165615,-0.694173,-0.857385,-0.104206,-0.284881,0.911926,0.0528366,0.614622,0.596916,0.833154,-0.410835,0.0779696,0.965432,0.420057,0.59313,0.969875,-0.183543,-0.52,0.822,-0.163294,0.6521,0.320094,-0.56328,0.288276,0.525094,-0.221183,-0.0466023,-0.602768,-0.932368,0.460161,0.553843,0.426354,1.12236,0.0808778,-0.669684,-0.00319378,0.548645,-0.589868,-0.264857,0.959455,0.717775,-0.663359,0.827301,-0.235932,-0.103426,-0.285,-0.364107,0.441179,-0.697632,-0.728996,-0.0906959,-0.0265851,0.198639,1.15042,-0.325933,-0.614242,-0.911691,-0.800149,-0.661107,-0.0320763,0.491288,0.763852,0.331209,-0.258237,0.879301,0.481521,-0.582053,1.03154,-0.778687,0.922965,0.752707,-0.0641683,0.316701,-0.198,-0.29855,0.596055,0.465059,-0.393408,-0.534603,0.985717,0.302027,0.432769,0.0731448,-0.660185,0.00804103,-0.668299,-0.725117,0.263432,0.276369,-0.66571,0.00720475,0.439358,0.863415,-0.569174,0.686534,0.40629,0.448452,-0.225865,0.529923,0.140879,-0.833655,-0.24,-0.795003,-0.251294,0.601939,0.311361,-0.134703,-0.0529301,-0.167486,-0.089219,0.69043,-0.804666,-0.154198,-0.449478,-0.977322,0.972545,0.119667,0.706267,0.604707,-0.794173,-0.454678,-0.690505,0.495993,0.295049,0.472658,0.543977,0.580723,1.0384,-0.370722,0.36,0.177995,-0.86457,-0.195308,-0.660166,-0.591313,0.790378,-0.540295,-0.895574,-0.191307,-0.707034,0.769439,-1.11237,-0.138837,-0.674601,-0.846805,-0.783474,0.436431,0.402482,-0.972979,0.56006,0.448833,-0.376293,0.724039,0.740199,-0.649296,0.190435,-0.912118,-0.523,-0.625003,-0.177681,0.753177,-0.271601,0.616712,-0.271704,0.884645,0.840991,0.450797,-0.699582,0.782605,0.321239,-0.420133,-0.137769,0.239066,0.423143,0.225947,-0.716838,0.812686,0.554078,0.771408,0.879493,-0.857172,-0.523264,0.216002,0.434354,-0.641016,-0.15,-0.978,-0.371809,-0.0224022,0.67156,0.0311253,-0.0841025,-1.01173,0.133791,-0.48987,-0.18921,-0.289,-0.877901,0.336248,-0.58179,0.0173702,0.571263,-0.938151,0.925095,-0.94975,0.512543,0.541237,-0.815138,-0.894736,0.531847,-0.531806,-0.017358,0.963981,-0.528,0.394,-0.337,-0.001,0.755039,0.847137,-0.248952,0.154014,0.861259,-0.50499,-0.239006,0.732999,0.608,-0.859026,0.139678,0.678678,-0.503322,-0.281078,-0.0409991,-0.481,0.655,-0.706,0.660963,-0.234999,-0.341,-0.185,-0.513,0.27,-0.196
0.223,0.679,-0.152,0.564994,0.854375,-0.404371,-0.351078,-0.865232,-0.949104,0.122011,0.356772,0.561963,-0.185012,0.198994,0.0458002,-0.123098,-0.0960917,-0.449429,-0.165339,0.293386,0.454327,-0.600603,0.689976,0.651999,0.533,-0.931,-0.038,-0.763,0.454,-0.215994,-0.138908,0.715053,0.997891,0.655849,-0.940077,-0.0254894,-0.000301584,-0.976674,0.969332,-0.351764,0.270142,-0.297874,0.502423,0.303919,0.49865,0.52572,0.767867,0.164567,-0.462355,-0.571076,0.0193161,0.50117,0.408862,-0.0259828,0.182903,0.773999,0.201,-0.441922,-0.48964,-0.26627,-0.0309244,0.330274,0.215652,-0.209305,-0.811507,-0.59968,-0.990489,-0.0762117,0.522422,0.268396,-0.983163,-0.701429,0.659769,0.985334,-0.354114,-0.040617,0.247189,-0.573718,-0.777356,0.952725,-0.603855,0.139985,-0.252538,0.11585,0.141,0.808832,-0.62365,-0.475361,-0.00185076,0.621897,-0.382017,-0.782321,0.48637,-0.525406,-0.722317,-0.80906,-0.933182,-0.930792,-0.26613,0.13233,0.586881,0.786666,-0.687849,0.459526,0.72695,-0.873679,-0.456075,0.973316,-0.648717,0.851734,0.877631,0.22774,0.793,-0.61761,-0.404606,0.31586,-0.323429,-0.360552,-0.181372,-0.751689,0.64057,0.212471,-0.731812,0.399044,-0.791804,0.707986,0.72022,0.293269,0.695166,0.813666,0.238076,-0.6371,0.177899,-0.289605,-0.0744931,-0.518111,-0.0800937,0.669485,-0.983714,0.510907,0.413,-0.783434,-0.866859,-0.584823,0.485534,-1.0119,-0.710133,0.650201,0.0972644,-1.21428,-0.326866,-1.00742,0.715516,-0.697389,-0.670721,-1.00642,0.109,0.460194,0.452914,-0.848881,-0.691532,-0.252794,0.0396838,0.856091,-0.167095,-0.357419,-0.305745,-0.887716,-0.089,0.140833,0.384077,-0.199708,-0.873578,0.154949,-0.839403,0.559941,-0.778774,-1.07574,0.384954,-0.179095,0.383507,0.619608,0.490804,0.233381,0.856525,-0.422561,-1.05152,0.394661,-0.0441756,0.401935,0.854107,-0.383144,-0.771905,-0.698911,0.331221,-0.544,-0.158,0.528063,-0.38173,-0.660519,0.822715,-0.00319152,-0.45024,0.779193,-1.21404,-0.661756,0.712562,-0.331304,0.797617,-0.0858687,-0.828952,-0.47902,0.0167518,-0.405751,-1.07839,-0.478808,-0.583363,0.588088,-0.366147,-0.705548,-0.755603,0.105302,-0.330607,-0.779,0.828,-0.893638,-0.384908,-0.496314,0.170211,-0.93424,-0.378948,-1.0617,0.444772,-0.134144,-1.05451,0.494636,0.666038,-0.619046,-0.361945,0.41233,0.792433,0.289925,-1.19805,0.254777,-0.595908,-0.710838,-0.473922,0.96164,-0.0227071,-0.895212,-0.100137,0.980262,-0.019,0.988308,-0.438636,1.06854,-0.289432,-0.358656,0.166602,-0.127748,0.154663,-0.19788,-0.239463,0.0865711,-0.211916,-0.386571,0.197145,-0.536771,-0.638429,0.142512,0.559308,-0.178225,-1.02271,-0.385464,0.925046,0.736725,-0.2662,-0.244402,0.44225,-0.690957,0.125,-0.2213,-0.467303,1.05532,0.150073,-0.549716,-0.989897,-0.0804164,-0.223732,-0.945273,-0.342068,0.280778,-0.0245846,0.136387,0.0170308,0.630147,0.619189,0.492364,-1.12566,0.613215,0.499568,0.858606,-0.975798,-0.380786,0.315648,-0.876089,-0.180958,-0.494,-0.612,-0.745298,0.823235,1.00743,0.508994,0.203397,0.665666,-0.49519,-1.24782,-0.701861,-0.670358,0.153898,-0.311545,-0.487966,-0.37985,0.3778,0.61663,-0.388783,-0.542357,-1.05937,-0.855193,-0.420017,-0.490098,0.403122,0.7766,-0.870167,-0.728104,0.354,-0.96,0.807706,1.17775,-0.35024,-0.272336,-0.772649,0.164746,-0.24006,0.142735,0.801682,0.448497,-0.435127,0.36743,-0.812464,-0.794569,0.745122,-0.925409,0.382426,0.453034,-0.674454,-0.90595,-0.65139,0.722935,0.542968,0.208568,-0.573583,-0.0214595,0.498001,0.134,-0.985341,-0.782516,-0.322977,1.09746,0.831915,0.356685,-0.918293,-0.369735,-0.0996722,0.150516,0.726567,-0.605738,0.414758,-0.131628,0.741638,-0.178596,-0.0112455,0.354672,-0.39607,-0.83093,-0.14725,0.459657,-0.332597,0.587608,-0.476025,0.324968,0.155,0.825,-0.974881,-0.701442,0.253791,0.97923,-0.381669,0.560085,-0.910156,0.0516675,0.802453,0.0980928,-0.693696,1.0064,0.576225,-0.539337,-0.917656,-0.963806,0.613937,-0.517503,0.0821041,-0.844635,0.472689,-0.81425,0.15405,0.933846,-0.726271,0.337762,0.901002,0.419084,0.0720783,0.47216,0.486332,1.05509,0.990072,-0.849305,-0.108406,0.535846,0.163886,-0.056341,0.0293614,-0.652033,0.299077,0.978444,0.547608,-0.000290633,0.670984,0.744893,0.0429205,-0.389123,0.405555,0.327013,-0.0107664,-0.290483,-0.340419,0.0323733,0.406,-0.359702,0.959669,0.437955,1.05075,0.983969,-0.590629,-0.0416628,-0.300834,-0.365273,-0.0237116,0.841962,-0.394532,1.00751,-0.0195528,1.09104,1.06351,0.493499,-0.89037,0.100595,0.692895,-0.438318,-1.134,0.0828689,-0.695132,-0.838079,0.66055,0.306666,-0.590993,-0.213128,-0.108707,1.02251,0.0204486,0.109433,0.410384,0.65125,0.375263,-0.912626,-0.142295,-0.866326,0.0147795,0.313763,-0.337077,-0.524229,0.336964,-0.346579,-0.917698,0.436002,-0.1348,-0.463648,-0.950097,-0.175739,0.218923,0.52475,0.966567,0.341526,0.987033,0.908019,-0.747875,0.292401,0.230108,0.87639,0.715965,-0.356912,0.386215,0.442153,0.939844,-0.56074,0.371001,-0.200675,-0.286457,-0.490473,0.279176,0.809144,0.790374,-0.442643,0.189674,0.15661,-1.05371,-0.68747,-0.993787,0.294065,0.0331429,-0.340468,0.606,0.805,0.0954636,0.523909,1.10228,-0.594074,0.169562,0.526829,-0.469769,0.558254,0.692232,-0.340477,0.845116,0.999421,0.174177,0.534522,-0.161084,-0.822651,-0.637628,0.476528,0.059292,-0.35055,0.508411,-0.841008,-0.496052,-0.680732,-0.186466,-0.898606,0.8,0.856,0.126129,0.71201,0.0123967,0.930948,-0.324531,0.427618,0.440979,-0.214221,-0.893957,0.652141,0.765143,-0.775509,0.976679,-0.531657,-0.0137559,0.358495,0.163848,0.204474,-0.353172,-0.741584,0.482421,-0.311327,-0.15601,0.737331,-0.782651,-0.443237,0.807,0.707055,0.969485,0.625334,1.07538,0.383089,0.992292,-0.615999,-0.143692,0.940203,-0.0631222,-0.211271,0.74407,0.817581,-0.0714889,-0.279265,0.191694,-0.47147,-0.60676,-0.882547,0.635997,-0.606847,0.589957,-0.367091,0.673295,0.140184,-0.18759,-0.987839,-0.186,0.512284,-0.77549,0.272442,-0.5767,0.340648,0.666447,-0.527268,0.87931,0.114826,0.67046,-0.360014,0.734437,1.02076,-0.103036,-0.326068,0.185252,-0.557061,0.350074,-0.00688491,-0.206551,0.327258,-0.119827,0.454629,-0.782886,-0.715115,-0.343831,-0.430406,-0.629,0.258909,0.723199,0.491981,0.0834253,0.847718,-0.441211,-0.704545,0.0842714,-0.410141,-0.208352,0.741837,-0.801629,0.706763,-0.617445,0.917553,-0.143838,0.232852,-0.494725,0.116765,-0.886561,-0.519491,-0.936483,0.150883,0.213621,0.0514366,0.861072,0.637837,0.697,0.293838,-0.8319,0.83412,-0.765516,0.790679,-0.604995,0.487072,1.01677,-0.512462,-0.659968,0.0125029,0.659087,0.0227486,0.0771648,0.636813,-0.398289,0.340605,0.168633,0.993208,0.825617,-0.913855,0.200231,-0.779849,0.58308,-0.808221,-0.650973,0.0235773,0.491,-0.833095,0.235362,-0.724552,-0.193593,0.667165,0.81407,-0.831799,0.35947,0.344362,-0.929135,-0.834071,-0.15893,0.711992,0.247264,1.00604,-0.368308,0.836876,0.613427,0.451021,-0.550395,-0.43564,-0.0253796,0.0137231,-0.556122,0.211333,0.909339,-0.352078,-0.809,0.835999,0.802042,-0.934513,-0.324088,-0.789823,-0.164818,-0.559649,0.701638,0.421675,0.379966,-0.121875,0.610075,0.13361,-0.383049,0.0973083,-0.121417,0.83477,-0.185588,0.933945,-0.994487,-0.352739,0.531141,1.00015,0.847912,0.990625,-0.274048,0.559993,0.232,0.602,0.496,-0.117,-0.707048,0.724422,0.33396,-0.148,0.443016,-0.844068,0.304804,0.196983,0.962,0.441,-0.0559994,0.423001,-0.984997,-0.782999,-0.590993,-0.581,-0.117,-0.699,0.0272277,0.302767,-0.933,-0.49,0.027,-0.969,-0.876
-0.219,-0.668,-0.063,0.475,0.381997,-0.0892601,-0.353868,0.255069,2.97239e-05,0.647685,0.955002,-0.0999989,-0.766,-0.314009,-0.220029,0.145015,-0.410988,-0.350206,0.886886,0.629,-0.323,0.963088,-0.460999,-0.0950002,0.942,-0.746,-0.323,-0.107,-0.59,-0.302005,-0.562953,0.452719,-0.79344,0.101998,-0.0129924,0.830551,-0.270141,0.763147,0.171571,-0.235401,-0.536383,-0.261921,-0.612601,0.0755351,0.905055,-0.34845,0.57769,0.805845,-0.646094,0.0690764,-0.0910633,0.277633,0.242995,-0.982022,-0.0729998,-0.962,0.703,-0.601018,-0.985899,0.332921,-0.50124,0.721372,-0.472069,-0.858764,-0.183037,-0.947945,0.76617,0.536411,-1.01396,0.64922,-0.84595,0.132673,-0.341842,-0.111691,-0.752127,0.00399746,0.367693,0.581681,0.102293,-0.582421,0.0437611,0.718538,-0.804005,-0.857,0.393,0.18093,-0.36609,0.879777,-0.634782,0.845818,0.643544,-0.520881,0.826163,0.0113054,-0.410046,0.831202,0.207448,-0.526937,0.519428,0.091857,0.564249,0.0434193,0.390389,-0.619477,0.210516,-0.726419,0.222895,0.377654,-0.754172,0.232598,-0.995037,-0.390004,-0.299,-0.949999,-0.536275,0.254205,0.237291,0.574043,-0.811757,0.26522,-0.842262,0.321505,-0.731288,-0.0537034,0.136998,0.69655,-0.916454,-0.5962,-0.422427,-0.260825,-0.772624,-0.616015,-0.235749,-0.793415,-0.745676,-0.414938,-0.430942,-0.918511,0.227226,0.0449972,0.119,-0.28934,-0.764018,-0.542196,-0.761802,-0.404439,0.537332,0.588825,-0.383421,0.609286,-0.395597,0.346205,0.206372,-0.56874,0.285883,-0.464494,0.374446,-0.0812978,0.584074,0.37371,-0.961173,-0.071367,-0.884908,-0.121259,-0.858755,-0.275329,-0.0158586,0.586777,0.798,0.908792,0.133335,0.272228,0.0306766,0.498066,0.839097,0.318146,-0.744693,-0.856819,0.345447,0.0916823,-0.694856,0.906373,0.740077,0.283199,-0.537237,0.832593,0.357625,-0.18539,0.256959,-0.130218,0.762823,0.0592199,-0.440365,0.491896,0.584902,-0.043,-0.245,0.818027,-0.102222,-0.226094,-0.632592,-0.922549,0.805928,-0.188534,-0.791604,-0.152378,0.95064,-0.910707,-0.382917,-0.143917,-0.29959,0.967562,-0.374282,-0.267279,-0.0819414,-0.671372,0.460677,0.93811,0.198722,0.34405,-0.819049,0.419583,0.519943,0.102,-0.441,0.857638,-0.165613,0.968801,0.858981,-0.244702,-0.0977368,0.577609,0.725351,-0.0854609,0.108723,0.310182,-0.238678,-0.83532,0.123677,0.344554,-0.197238,-0.816543,0.877007,0.462021,-0.499358,0.403519,0.539308,-0.736527,0.443573,-0.794487,0.0662056,-0.457,0.018,0.217325,-0.490116,-0.694558,0.401076,-0.862993,0.756668,0.958064,-0.591992,0.793841,-0.719564,0.699053,-0.0670457,0.821337,0.278021,-0.745111,-0.100929,-0.304308,0.565439,-0.377031,-0.799242,0.896922,0.997875,0.471408,-0.222968,-0.309062,-0.310152,-0.474,0.596,0.809909,0.20861,0.00130171,0.475234,-0.0740839,-0.277002,-0.434144,0.464801,-0.665783,-0.865753,-0.633467,0.205793,-0.12697,-0.552837,0.731567,0.520259,-0.154285,0.729602,-0.95866,-0.829009,0.015314,-0.684048,-0.470413,-0.320674,-0.137822,0.169683,0.684,0.024,0.225545,0.657977,0.603192,0.685573,-0.863265,-0.506726,-0.927476,0.661412,-0.32449,-0.786768,-0.584138,-0.804441,0.337809,-0.213803,0.905827,-0.692235,-0.610696,-0.0504964,0.146917,-0.617137,-0.837271,-0.14521,-0.49895,0.861165,0.991211,-0.289117,-0.668,-0.728,0.249192,0.36148,-0.582393,0.55012,0.306774,-0.173486,-0.855147,-0.0959533,-1.00249,0.658258,-0.997726,-0.403343,0.837876,-0.476973,-0.240093,0.625501,-0.354613,0.821025,0.4239,-0.276665,-0.672424,0.658468,-0.242018,0.488677,0.462663,0.652468,0.58,0.227,-0.0143683,0.930636,-0.698199,0.492412,-0.285424,-0.414782,0.820466,-0.441452,-0.0305589,-0.211521,-0.764915,0.181924,0.3176,-0.21008,0.142532,0.73465,-0.721613,-0.632972,-0.229558,0.164578,0.74967,-0.772291,0.0388942,-0.00602671,0.135338,-0.0197824,-0.026,-0.226997,0.0133128,-0.763175,-0.506833,-0.860635,-0.873201,0.254182,0.0787141,0.796355,0.70572,-0.832696,0.531383,-0.306901,-0.391125,-0.913614,-0.930146,-0.149928,0.349037,-0.326259,-0.414223,0.197378,-0.202924,0.347432,0.569299,0.117319,-0.794168,-0.865366,-0.980983,0.567019,0.851478,0.675175,0.303297,-0.126964,-0.889387,-0.869929,-0.535821,-0.660546,0.0179711,-0.895887,-0.362803,0.755354,0.883318,-0.876691,0.270779,-0.44533,-0.466514,-0.149442,0.372134,0.651938,0.834998,0.712875,-0.697798,0.00449185,-0.171618,-0.0239671,0.608003,-0.410997,-0.843215,-0.828829,-0.373702,0.0577005,0.847888,-0.718486,-0.326971,-0.89288,-0.469021,-0.0657696,0.356426,0.0549199,-0.0437413,-0.0511835,-0.395125,-0.359138,-0.108977,-0.887688,0.263643,0.588417,0.279056,-0.787537,-0.681876,0.582816,-0.895774,0.632437,0.806999,0.51999,-0.262243,-0.84499,0.333116,0.24401,0.0314978,0.140605,-0.205528,0.537172,0.826761,-0.890214,-0.149431,-0.716702,-0.655404,-0.712291,0.665222,-0.705515,0.660649,-0.526891,-0.467198,-0.152841,-0.719432,-0.431893,-0.109489,0.801016,-0.363916,-0.389249,0.567,-0.778006,-0.663147,-0.440977,0.0265701,0.326308,0.494403,-0.35159,-0.0776399,0.52691,-0.658177,0.583272,-0.145927,-0.278166,-0.47004,0.00715156,0.792513,-0.897982,0.00362468,-0.436355,-0.0137262,-0.19844,0.0132281,-0.903631,-0.724521,-0.50799,-0.222771,-0.293664,0.017,0.611,0.420658,-0.103651,-0.868603,0.124792,0.692308,-0.226285,0.376115,-0.361371,0.9473,-0.758079,-0.317235,0.488739,0.785291,-0.828417,0.574558,-0.461828,-0.30529,-0.109101,0.325054,-0.885425,0.080618,0.38501,0.406956,-0.113158,0.0441717,-0.660675,-0.35,0.069,0.430679,0.812767,-0.0507453,0.339129,-0.141155,0.37969,-0.0616955,0.597468,-0.559313,-0.65563,0.208755,0.805555,0.317203,-0.861887,0.551483,-0.932938,0.531756,0.2449,1.05003,0.836612,0.412479,0.0156875,0.248775,0.52258,-0.957902,-0.816538,0.82,-0.0540434,0.623675,-0.142248,-0.566203,0.633477,-0.798029,0.139269,-0.869649,-0.95606,-0.580552,-0.513176,-0.903682,0.529958,0.118297,0.365372,-0.616915,-0.935698,0.0477993,1.06622,-0.420945,0.303183,0.526637,0.781757,0.660398,0.116119,0.58237,0.842529,0.824,0.385777,0.845777,-0.860108,0.775025,-0.956671,-0.176236,-0.435318,0.288003,0.398359,-0.637944,0.831138,0.79606,0.901289,0.536096,0.255827,0.426436,-0.769052,-0.022292,-0.186061,0.875828,-0.506231,0.686472,0.598729,-0.204322,-0.911349,0.314784,-0.0558619,0.815,0.105,0.159186,-0.554575,0.855583,-0.786599,0.0595875,0.378002,0.60508,-0.620192,-0.657509,-0.303391,0.478478,-0.894143,-0.621619,0.01141,-0.555739,0.139087,-0.177926,-0.35977,-0.559971,0.975336,0.29587,-0.841935,0.466016,-0.517679,0.927421,0.637013,-0.221,-0.547,0.982677,-0.603229,-0.467508,0.161394,-1.00329,0.243973,0.029724,-0.593428,0.397575,-0.0437252,-0.41809,-0.389766,-0.530179,-0.213374,0.193207,-0.464165,0.776327,-0.0749667,-0.345863,0.399492,0.0101735,-0.579248,-0.29123,0.918811,0.672415,-0.0403924,0.856,-0.564,-0.0152742,-0.167669,0.21608,-0.810491,0.424028,-0.0308633,-0.179465,-0.815533,-0.441476,-0.842705,0.97855,-0.130375,0.3761,-0.0963517,-0.436491,0.179287,0.722653,-0.0326305,0.109865,-0.888407,0.898522,0.0770963,-0.0308228,-0.361419,-0.511147,0.932331,0.216,-0.865,-0.149083,-0.793483,-0.231309,0.104897,-0.26644,0.407829,-0.229268,-0.123323,0.741926,0.221444,-0.858621,-0.250353,-0.860811,0.0393297,0.505238,-0.782536,-0.81055,-0.60209,0.524476,-0.728331,0.235432,-0.815172,-0.595345,-0.990158,0.54227,-0.841964,0.696,0.557,0.667,-0.111,0.689001,0.51898,-0.228,-0.956001,-0.699996,0.522,-0.426992,-0.368998,0.562,-0.400001,-0.269017,-0.457017,0.386983,-0.436004,0.116003,0.016,0.263,-0.721,-0.607967,0.0140006,0.467,0.244,-0.843,0.508,0.051
